-2.127744853496551514e-01 1.706068217754364014e-01 4.734035730361938477e-01 1.259946674108505249e-01 1.847062408924102783e-01 1.496031135320663452e-01 3.713670000433921814e-02 -1.368770599365234375e-01 -7.461231946945190430e-02 7.689575105905532837e-02 1.954000443220138550e-01 2.424925267696380615e-01 6.447834521532058716e-02 2.408255189657211304e-01 -1.250633969902992249e-02 -1.827738136053085327e-01 -5.103627592325210571e-02 -1.633098274469375610e-01 -3.095780313014984131e-01 -3.222750425338745117e-01 -2.807071805000305176e-01 -2.193888835608959198e-02 -3.376085460186004639e-01 -1.183130517601966858e-01 3.273221105337142944e-02 -2.150863111019134521e-01 -3.511991500854492188e-01 -2.164946943521499634e-01 -1.957805305719375610e-01 -5.197833180427551270e-01 -5.092006921768188477e-01 -4.349637329578399658e-01 -3.412960469722747803e-01 -2.294929027557373047e-01 -5.635530948638916016e-01 -3.242098987102508545e-01 -3.431074619293212891e-01 6.311447918415069580e-02 -4.934212565422058105e-02 -4.876959323883056641e-02 -1.751888692378997803e-01 -1.527205407619476318e-01 -4.075694978237152100e-01 1.595590263605117798e-01 -4.178388416767120361e-01 -3.367883265018463135e-01 1.284965220838785172e-02 1.262085288763046265e-01 5.414170771837234497e-02 -1.524034738540649414e-01 -2.190626263618469238e-01 -3.107457756996154785e-01 1.969718188047409058e-02 1.504807621240615845e-01 5.789911150932312012e-01 4.715145006775856018e-02 2.466780841350555420e-01 6.915654987096786499e-02 2.261051982641220093e-01 1.642419397830963135e-01 1.187444329261779785e-01 1.644816435873508453e-02
2.306942939758300781e-01 3.096657246351242065e-02 2.553552985191345215e-01 -8.248345553874969482e-02 -3.062498569488525391e-01 -3.200041949748992920e-01 -1.345333606004714966e-01 -6.210739538073539734e-02 -1.009457856416702271e-01 3.443328291177749634e-02 1.199764981865882874e-01 1.471057627350091934e-02 1.713442504405975342e-01 1.388325542211532593e-01 -2.557802200317382812e-01 -1.822236329317092896e-01 -3.235388696193695068e-01 -3.712790906429290771e-01 -2.332595735788345337e-01 -5.310288816690444946e-02 3.934315964579582214e-02 2.144942283630371094e-01 1.847145557403564453e-01 2.015234082937240601e-01 -7.645994424819946289e-02 -1.447665691375732422e-01 -1.742569208145141602e-01 -8.312831819057464600e-02 -1.911404877901077271e-01 -2.843049168586730957e-01 -3.522645831108093262e-01 -2.137177437543869019e-01 -6.034725308418273926e-01 -5.098015069961547852e-01 -4.448110163211822510e-01 -4.844775199890136719e-01 4.370831325650215149e-02 4.126389622688293457e-01 2.173936069011688232e-01 1.960370838642120361e-01 7.484834641218185425e-02 -1.888248473405838013e-01 -1.651939004659652710e-01 -1.607052981853485107e-01 -1.450228691101074219e-01 -3.784744143486022949e-01 2.920533157885074615e-02 -9.095171093940734863e-02 -1.358405351638793945e-01 -8.918646723031997681e-02 -4.367018938064575195e-01 -3.763608932495117188e-01 4.678461700677871704e-02 -1.637267917394638062e-01 1.420519649982452393e-01 -1.407204419374465942e-01 4.594222083687782288e-02 9.172750636935234070e-03 2.214111834764480591e-01 4.672044888138771057e-02 -2.005980759859085083e-01 5.224861949682235718e-02
7.400017976760864258e-02 -2.387020736932754517e-01 -1.152424514293670654e-01 -3.061780147254467010e-02 -3.014459013938903809e-01 -3.049134016036987305e-01 -6.087531149387359619e-02 -7.456157356500625610e-02 -2.288711369037628174e-01 -1.176228374242782593e-02 2.458426058292388916e-01 2.401480823755264282e-01 2.205520272254943848e-01 -1.473102122545242310e-01 -1.869414448738098145e-01 -1.733741490170359612e-03 1.014664992690086365e-01 1.466457247734069824e-01 1.687715649604797363e-01 1.414127051830291748e-01 -2.634644210338592529e-01 -3.046982884407043457e-01 -3.185790777206420898e-01 -1.698905676603317261e-01 -2.302967607975006104e-01 -1.567384600639343262e-01 -3.749510049819946289e-01 -8.425650000572204590e-02 1.036620959639549255e-01 8.423399925231933594e-02 -3.223997056484222412e-01 -1.015467792749404907e-01 -1.265935599803924561e-01 -1.858137398958206177e-01 -3.441610932350158691e-01 -1.593534648418426514e-01 -1.958670467138290405e-01 -2.521802484989166260e-01 8.363976329565048218e-02 -1.928890869021415710e-02 1.447695195674896240e-01 1.716503202915191650e-01 7.592301815748214722e-03 -6.089726090431213379e-02 9.332146495580673218e-02 1.374595016241073608e-01 -1.886829435825347900e-01 -1.738533675670623779e-01 -4.360410198569297791e-02 2.345818579196929932e-01 -3.051395416259765625e-01 -2.133306711912155151e-01 -1.618909463286399841e-02 2.014136910438537598e-01 2.922496497631072998e-01 -4.830773919820785522e-02 1.401312053203582764e-01 2.832483127713203430e-02 -1.668494939804077148e-01 8.746552467346191406e-02 9.735783562064170837e-03 7.306796312332153320e-02
5.818662419915199280e-02 -2.364660352468490601e-01 -1.580807715654373169e-01 -2.189945429563522339e-01 -3.062390908598899841e-02 -2.591580450534820557e-01 -1.461316496133804321e-01 -2.062943726778030396e-01 1.542233824729919434e-01 2.499472647905349731e-01 1.644974052906036377e-01 2.616550326347351074e-01 3.876518085598945618e-02 -2.990354597568511963e-01 -1.937131732702255249e-01 -1.147905923426151276e-02 -8.522669970989227295e-02 3.569495379924774170e-01 4.790527746081352234e-02 -4.575065895915031433e-02 -1.239943355321884155e-01 2.038319222629070282e-02 -1.394771784543991089e-01 -3.630144596099853516e-01 -2.345917075872421265e-01 7.832736009731888771e-04 -2.810027822852134705e-02 4.064505100250244141e-01 1.078444123268127441e-01 6.601868662983179092e-04 -2.652334570884704590e-01 -1.627478450536727905e-01 -1.531847268342971802e-01 -1.909620314836502075e-01 -2.682706713676452637e-01 -4.015820920467376709e-01 -2.176202088594436646e-01 -3.821516335010528564e-01 -7.192953675985336304e-02 3.310598731040954590e-01 -2.371275238692760468e-02 1.262601464986801147e-01 2.216542959213256836e-01 4.576180279254913330e-01 2.030701786279678345e-01 4.592187330126762390e-02 -3.762147575616836548e-02 -3.139078021049499512e-01 -1.022869795560836792e-01 -1.332047283649444580e-01 -2.745281457901000977e-01 6.502337008714675903e-02 7.379417866468429565e-02 -1.230470910668373108e-01 -8.591494709253311157e-02 2.216846793889999390e-01 3.561620712280273438e-01 2.540487647056579590e-01 1.010926365852355957e-01 -1.523108482360839844e-01 -1.759911030530929565e-01 -2.553628981113433838e-01
-1.301138550043106079e-01 -3.127603828907012939e-01 -1.590975746512413025e-02 -2.132802307605743408e-01 -1.691867858171463013e-01 -2.394606471061706543e-01 3.111408464610576630e-02 4.428563266992568970e-02 2.734948396682739258e-01 5.805918574333190918e-01 2.621091604232788086e-01 9.780479967594146729e-02 7.002580910921096802e-02 2.253080904483795166e-01 1.896158903837203979e-01 -6.672547012567520142e-02 -4.455728828907012939e-01 -3.093186616897583008e-01 -6.203568726778030396e-02 1.706863343715667725e-01 8.753095567226409912e-02 4.772172123193740845e-02 1.086260974407196045e-01 2.081905305385589600e-01 -6.871225684881210327e-02 1.007635667920112610e-01 -1.321732550859451294e-01 3.774710595607757568e-01 1.874125897884368896e-01 -1.692137494683265686e-02 -6.009460240602493286e-02 1.755016148090362549e-01 5.242744088172912598e-02 -2.714538276195526123e-01 -3.053572773933410645e-01 -5.389467999339103699e-02 2.052201181650161743e-01 1.028815582394599915e-01 3.090470433235168457e-01 1.416347771883010864e-01 7.480458915233612061e-02 -1.358650922775268555e-01 -2.689556181430816650e-01 -2.557305991649627686e-01 -4.079328477382659912e-01 -2.366446852684020996e-01 5.995125044137239456e-03 3.350584506988525391e-01 2.051998116075992584e-02 2.079558819532394409e-01 1.776538938283920288e-01 -5.782506428658962250e-03 -9.482427686452865601e-02 -2.686961740255355835e-02 -1.878313869237899780e-01 3.045684471726417542e-02 1.042970865964889526e-01 4.961901810020208359e-03 -1.603778004646301270e-01 -1.243988350033760071e-01 6.921024061739444733e-03 -8.497493714094161987e-02
1.112793236970901489e-01 -3.411389887332916260e-01 -1.742725074291229248e-01 -5.069022625684738159e-02 -9.150359779596328735e-02 2.143110036849975586e-01 3.927408456802368164e-01 2.413701266050338745e-01 3.035420775413513184e-01 7.896901965141296387e-01 2.986845076084136963e-01 5.078430175781250000e-01 2.422928065061569214e-01 -2.476226538419723511e-02 -5.609301105141639709e-02 1.040388569235801697e-01 2.479886412620544434e-01 -1.596019230782985687e-02 2.614468336105346680e-02 -2.830282412469387054e-02 -8.241100609302520752e-02 -1.136332601308822632e-01 2.347559332847595215e-01 1.545452773571014404e-01 2.470109425485134125e-02 1.830571442842483521e-01 3.334850072860717773e-01 5.913464426994323730e-01 2.560310363769531250e-01 -1.278237551450729370e-01 -4.282667115330696106e-02 2.331607341766357422e-01 3.436964452266693115e-01 1.235598474740982056e-01 -2.853644080460071564e-03 3.998170793056488037e-02 2.552664875984191895e-01 1.810691207647323608e-01 3.225904107093811035e-01 1.889341175556182861e-01 -1.628409922122955322e-01 -1.341798454523086548e-01 6.717395782470703125e-02 1.234926879405975342e-01 2.727630138397216797e-01 1.724858880043029785e-01 2.157443910837173462e-01 -1.008859742432832718e-02 2.403111606836318970e-01 1.437619328498840332e-01 1.412156075239181519e-01 2.089932113885879517e-01 1.714466512203216553e-01 3.280256688594818115e-01 2.974070012569427490e-01 1.233699768781661987e-01 9.430561214685440063e-02 1.656757444143295288e-01 -7.532684504985809326e-02 -2.014334052801132202e-01 6.039617210626602173e-02 -1.386338025331497192e-01
1.081033647060394287e-01 -1.687187002971768379e-03 -7.631656527519226074e-02 -9.232595562934875488e-02 1.173199415206909180e-01 1.928979009389877319e-01 4.921525418758392334e-01 3.776827454566955566e-01 -6.035238504409790039e-02 1.740714907646179199e-01 -1.375428736209869385e-01 1.375726014375686646e-01 -7.094810903072357178e-02 1.237712278962135315e-01 3.309831321239471436e-01 1.953119039535522461e-01 1.581858992576599121e-01 -3.199557960033416748e-02 1.851377040147781372e-01 1.050259470939636230e-01 1.402058750391006470e-01 2.901993393898010254e-01 4.035462141036987305e-01 2.952461242675781250e-01 1.673508733510971069e-01 2.186438143253326416e-01 3.375812768936157227e-01 3.187402784824371338e-01 2.596756815910339355e-01 -4.018026217818260193e-02 -1.366646140813827515e-01 -9.799287468194961548e-02 3.978704512119293213e-01 5.889264866709709167e-02 2.749783731997013092e-02 3.251958489418029785e-01 3.148918747901916504e-01 4.533037245273590088e-01 2.989090085029602051e-01 2.258877456188201904e-02 9.506871551275253296e-02 3.563912585377693176e-02 -2.496867440640926361e-02 2.368006110191345215e-02 4.017545282840728760e-02 3.851074352860450745e-02 2.570498585700988770e-01 1.445591729134321213e-02 -1.778445839881896973e-01 1.135639399290084839e-01 -5.629326030611991882e-02 -2.935096919536590576e-01 2.449640333652496338e-01 4.399751722812652588e-01 1.930309534072875977e-01 9.562198817729949951e-02 5.731893703341484070e-02 1.992212533950805664e-01 1.173781752586364746e-01 6.410746276378631592e-02 -1.495760977268218994e-01 -2.784206867218017578e-01
-1.836444735527038574e-01 1.345341503620147705e-01 -1.424224674701690674e-02 -2.248691767454147339e-01 -1.193525269627571106e-01 -7.509460300207138062e-02 2.938910424709320068e-01 3.574805259704589844e-01 -3.417966514825820923e-02 -1.623416668735444546e-03 -1.275431662797927856e-01 -4.607272893190383911e-02 -1.565710175782442093e-03 -9.698654711246490479e-02 -2.904339693486690521e-02 -1.216178461909294128e-01 -4.433138668537139893e-01 -1.498914361000061035e-01 1.563681960105895996e-01 1.251452118158340454e-01 -3.737089410424232483e-02 -5.712690576910972595e-02 5.725196376442909241e-02 -1.068833619356155396e-01 -1.437498182058334351e-01 -6.324842572212219238e-02 -1.529348194599151611e-01 6.214453279972076416e-02 -1.071339845657348633e-01 -7.007389515638351440e-02 -2.435318231582641602e-01 1.098373457789421082e-01 9.111581370234489441e-03 -1.954640820622444153e-02 -1.861324757337570190e-01 -1.851596683263778687e-01 7.412331551313400269e-02 1.122596785426139832e-01 1.543665826320648193e-01 1.799801290035247803e-01 9.970522671937942505e-02 2.213076353073120117e-01 1.417704075574874878e-01 -7.782557606697082520e-02 4.282859712839126587e-02 3.525439500808715820e-01 1.553298979997634888e-01 -3.203070536255836487e-02 1.949617862701416016e-01 -5.536197498440742493e-02 -2.199687659740447998e-01 -7.356521487236022949e-02 2.264265269041061401e-01 3.005233108997344971e-01 -5.511246994137763977e-02 -3.162853717803955078e-01 -3.257642686367034912e-02 -1.501546055078506470e-01 2.753857970237731934e-01 -8.990634977817535400e-02 -3.295032074674963951e-03 -7.125516980886459351e-02
3.330576419830322266e-01 -3.304128348827362061e-02 -2.466608732938766479e-01 6.890820339322090149e-03 -8.604304492473602295e-02 -5.796685814857482910e-02 1.661661863327026367e-01 1.499346345663070679e-01 -1.707460731267929077e-01 -8.378171175718307495e-02 1.091377586126327515e-01 -2.297581406310200691e-03 1.626551002264022827e-01 1.367461532354354858e-01 -7.539716362953186035e-02 -1.148228123784065247e-01 -1.235103383660316467e-01 -9.640983492136001587e-02 -8.235049247741699219e-02 -1.197216287255287170e-01 -9.004236757755279541e-02 -6.293255090713500977e-02 -2.853970527648925781e-01 -2.102584987878799438e-01 -1.238985285162925720e-01 7.151739299297332764e-02 -1.199806854128837585e-01 2.309930324554443359e-01 2.065930664539337158e-01 2.141418866813182831e-03 1.390989869832992554e-02 1.764298230409622192e-01 -6.015579216182231903e-03 -2.610964775085449219e-01 -3.629481792449951172e-01 -2.867714166641235352e-01 -4.798230901360511780e-02 -7.317753136157989502e-02 -9.645880758762359619e-02 -2.119549363851547241e-02 -8.821003884077072144e-02 -5.268138274550437927e-02 3.190465271472930908e-01 1.849762201309204102e-01 -6.909735500812530518e-02 1.338775157928466797e-01 7.691323012113571167e-02 -2.462522834539413452e-01 -3.230682760477066040e-02 1.518586874008178711e-01 -2.853404581546783447e-01 -5.860648583620786667e-03 1.304103732109069824e-01 3.539016842842102051e-02 7.259822636842727661e-02 -6.720471382141113281e-02 -2.658778727054595947e-01 3.061109185218811035e-01 1.932910531759262085e-01 4.469254612922668457e-02 1.539364904165267944e-01 4.300916567444801331e-02
2.318864464759826660e-01 2.311551384627819061e-02 1.176662668585777283e-01 3.631710112094879150e-01 4.423244893550872803e-01 3.501284718513488770e-01 -7.787099480628967285e-02 -1.336937844753265381e-01 -6.609225273132324219e-02 -9.152988344430923462e-02 2.584034800529479980e-01 4.379241764545440674e-01 2.288152277469635010e-01 2.052126526832580566e-01 3.694081306457519531e-01 6.731230765581130981e-02 -9.641079604625701904e-02 2.450201362371444702e-01 1.313691586256027222e-01 -8.008744567632675171e-02 -2.905249409377574921e-02 -9.846871346235275269e-02 -2.831515669822692871e-01 -3.235126733779907227e-01 -1.244047284126281738e-01 3.348430991172790527e-01 1.347185969352722168e-01 1.038728952407836914e-01 7.748541235923767090e-02 -2.011792063713073730e-01 -8.408182114362716675e-02 -1.596012264490127563e-01 -9.682722389698028564e-02 2.775143459439277649e-02 1.880993694067001343e-02 1.606572270393371582e-01 3.128449618816375732e-02 -1.743284985423088074e-02 1.119314804673194885e-01 -8.432620018720626831e-02 -2.349743843078613281e-01 -1.975006610155105591e-01 7.750044763088226318e-02 9.793331474065780640e-02 5.790572613477706909e-02 4.807779937982559204e-02 4.288249015808105469e-01 2.411973327398300171e-01 1.530441641807556152e-01 5.648815631866455078e-01 -1.483747661113739014e-01 -4.554235190153121948e-02 2.025740295648574829e-01 -3.084146976470947266e-02 6.020443886518478394e-02 4.552221298217773438e-01 7.074642181396484375e-02 7.434335350990295410e-02 1.455266475677490234e-01 1.891764402389526367e-01 2.261747270822525024e-01 6.798358261585235596e-02
-1.258585043251514435e-02 1.758570373058319092e-01 9.495012462139129639e-02 1.878533959388732910e-01 2.837833762168884277e-01 4.469337463378906250e-01 -7.403599470853805542e-02 -1.009160503745079041e-01 3.483203426003456116e-02 3.312860727310180664e-01 3.218328654766082764e-01 4.442514777183532715e-01 3.183628320693969727e-01 2.226512134075164795e-01 7.410829514265060425e-02 1.634855419397354126e-01 2.658100053668022156e-02 -1.956347078084945679e-01 -1.560235470533370972e-01 -1.173450425267219543e-01 -1.668012440204620361e-01 -3.252708911895751953e-01 4.804015159606933594e-02 2.326442003250122070e-01 -7.686288654804229736e-02 1.243176832795143127e-01 3.407145142555236816e-01 2.387583702802658081e-01 3.685744404792785645e-01 -4.711148142814636230e-02 -5.053213238716125488e-02 7.737700641155242920e-02 9.400156885385513306e-02 1.584789752960205078e-01 2.534716762602329254e-02 9.330438449978828430e-03 -1.391632948070764542e-02 -8.308561146259307861e-02 -3.087964951992034912e-01 -1.551730334758758545e-01 -6.547467410564422607e-02 -1.066535413265228271e-01 -2.884211838245391846e-01 7.850941270589828491e-02 1.264059245586395264e-01 3.255225718021392822e-01 3.085022866725921631e-01 2.622242271900177002e-01 3.770484924316406250e-01 3.685794174671173096e-01 5.207442119717597961e-02 -7.871306501328945160e-03 -1.492260545492172241e-01 -5.872277170419692993e-02 -5.665083229541778564e-02 3.449192345142364502e-01 3.970117866992950439e-01 1.321945488452911377e-01 2.505678832530975342e-01 1.287374645471572876e-01 4.901466667652130127e-01 2.567000389099121094e-01
2.000797986984252930e-01 -7.200640160590410233e-03 2.136747539043426514e-01 2.375244200229644775e-01 2.019993811845779419e-01 4.115455746650695801e-01 2.017471790313720703e-01 -4.989233613014221191e-02 1.323649883270263672e-01 6.926175355911254883e-01 6.091792583465576172e-01 6.397983431816101074e-01 1.604111045598983765e-01 2.625522911548614502e-01 3.020243048667907715e-01 7.584089762531220913e-04 -5.609229952096939087e-02 -1.325516961514949799e-02 -7.236052304506301880e-02 -3.065536031499505043e-03 1.759090572595596313e-01 1.168228462338447571e-01 1.343224048614501953e-01 4.131827503442764282e-02 9.535874426364898682e-02 1.720380634069442749e-01 2.468474209308624268e-02 4.433802142739295959e-02 4.782573506236076355e-02 3.407904133200645447e-02 -1.583323478698730469e-01 -1.783172413706779480e-02 -1.705548167228698730e-01 -9.608810395002365112e-02 -4.208798334002494812e-02 -9.525715559720993042e-02 -1.678937301039695740e-02 1.467195749282836914e-01 2.499973326921463013e-01 4.780541062355041504e-01 2.833600342273712158e-01 -4.525750130414962769e-02 -1.208936646580696106e-01 -1.122913584113121033e-01 2.452411204576492310e-01 2.312507480382919312e-01 8.215560019016265869e-02 2.759031057357788086e-01 3.696529269218444824e-01 3.942428827285766602e-01 5.293291211128234863e-01 2.514725737273693085e-02 -3.512921556830406189e-02 1.844785213470458984e-01 6.249701380729675293e-01 4.239448904991149902e-01 3.390088081359863281e-01 1.687699928879737854e-02 3.096654713153839111e-01 6.032244861125946045e-02 1.844879388809204102e-01 3.770001232624053955e-01
3.790755569934844971e-01 1.322191655635833740e-01 8.335128426551818848e-02 1.939180656336247921e-03 1.771167367696762085e-01 3.315194845199584961e-01 -6.569075584411621094e-02 -1.402732133865356445e-01 4.875552654266357422e-02 2.651271522045135498e-01 1.624024510383605957e-01 2.172622531652450562e-01 7.954436540603637695e-02 -1.248487234115600586e-01 -1.810636222362518311e-01 -2.208872288465499878e-01 -1.536814272403717041e-01 4.671070724725723267e-02 1.940510421991348267e-02 -3.675179556012153625e-02 7.168340682983398438e-02 2.717279084026813507e-02 -8.636672794818878174e-02 -3.298887610435485840e-02 2.546883523464202881e-01 4.213758111000061035e-01 2.003347128629684448e-01 1.756481081247329712e-01 2.939324639737606049e-02 9.825609624385833740e-02 -3.313056379556655884e-02 3.728685155510902405e-02 1.530037671327590942e-01 -2.659485302865505219e-02 -1.620109081268310547e-01 1.040462777018547058e-01 3.188853561878204346e-01 -2.626518607139587402e-01 -1.843266636133193970e-01 -8.550897985696792603e-02 1.488746255636215210e-01 -2.323888801038265228e-02 2.306193709373474121e-01 2.042465209960937500e-01 2.769587039947509766e-01 -5.124377831816673279e-02 4.140856489539146423e-02 -5.849956534802913666e-03 -2.148420661687850952e-01 1.105891466140747070e-01 -6.091497838497161865e-02 -2.327110767364501953e-01 -1.726758033037185669e-01 1.618083752691745758e-02 2.486398518085479736e-01 2.322786897420883179e-01 1.102366074919700623e-01 -1.088386680930852890e-02 1.867628693580627441e-01 8.576580882072448730e-02 3.907738924026489258e-01 3.427829146385192871e-01
-1.411690376698970795e-02 -1.987643986940383911e-01 5.214243009686470032e-02 -3.974334336817264557e-03 -7.285166531801223755e-02 1.419328600168228149e-01 -2.644502557814121246e-02 1.054932624101638794e-01 2.183631658554077148e-01 2.676123380661010742e-01 3.634391725063323975e-01 6.234957370907068253e-03 -1.345553696155548096e-01 -3.952979296445846558e-02 -1.567251831293106079e-01 1.327742822468280792e-02 -1.164863407611846924e-01 1.279047876596450806e-02 4.694922268390655518e-02 3.652959316968917847e-02 -2.507999241352081299e-01 -6.267091631889343262e-02 9.303591400384902954e-02 2.844102382659912109e-01 1.987952739000320435e-01 1.952022314071655273e-01 5.023456364870071411e-02 1.255417317152023315e-01 1.329110711812973022e-01 1.444525569677352905e-01 -2.553764879703521729e-01 -2.247670665383338928e-02 -1.466863602399826050e-01 -1.935196667909622192e-01 7.121448963880538940e-02 1.779396235942840576e-01 3.341249376535415649e-02 3.468415886163711548e-02 1.502875685691833496e-01 -4.374952912330627441e-01 -1.251942664384841919e-01 1.435708105564117432e-01 1.508543938398361206e-01 -2.432704530656337738e-02 -1.768154203891754150e-01 1.591393351554870605e-01 1.800024509429931641e-01 3.223796561360359192e-02 1.038576588034629822e-01 -1.115352734923362732e-01 -2.092104107141494751e-01 -4.641307592391967773e-01 -7.208233326673507690e-02 1.797187328338623047e-01 8.348397910594940186e-02 -1.819282770156860352e-02 1.076327115297317505e-01 -1.338481903076171875e-01 7.155091315507888794e-02 2.547865509986877441e-01 2.849732637405395508e-01 2.682620286941528320e-01
-9.296638891100883484e-03 1.307075768709182739e-01 2.081453241407871246e-02 1.702774763107299805e-01 -1.431587934494018555e-01 -3.205665154382586479e-03 2.491121441125869751e-01 2.715288996696472168e-01 -4.128051805309951305e-04 4.073362052440643311e-02 7.758410274982452393e-02 1.135528087615966797e-01 -4.347342848777770996e-01 7.003652304410934448e-02 4.057873785495758057e-02 1.240524947643280029e-01 3.922015056014060974e-02 4.945443198084831238e-02 5.973799526691436768e-02 -8.197800070047378540e-02 3.594364225864410400e-01 2.658999860286712646e-01 1.371121704578399658e-01 1.969836801290512085e-01 5.982742086052894592e-02 1.606237441301345825e-01 4.252032563090324402e-02 6.466043740510940552e-02 -3.370502963662147522e-02 -6.093144416809082031e-02 3.366966545581817627e-02 3.048889338970184326e-01 8.573158085346221924e-02 -9.183910489082336426e-02 -2.898889966309070587e-02 6.742145121097564697e-02 -8.653730899095535278e-02 8.044996112585067749e-02 2.314750999212265015e-01 3.398548364639282227e-01 -1.106596365571022034e-01 4.672659188508987427e-02 -1.141553893685340881e-01 2.483463883399963379e-01 2.066378444433212280e-01 1.183431446552276611e-01 -8.504852652549743652e-03 -4.330824315547943115e-02 -1.304323319345712662e-02 2.044159621000289917e-01 -6.521309912204742432e-02 -2.009005695581436157e-01 -1.483467072248458862e-01 -2.696221694350242615e-02 2.460664659738540649e-01 -1.385244578123092651e-01 -1.491488069295883179e-01 1.175280436873435974e-01 8.157367259263992310e-02 3.264523744583129883e-01 1.423688977956771851e-01 2.446002215147018433e-01
-1.545207649469375610e-01 -9.456769376993179321e-02 5.019414704293012619e-03 2.471365779638290405e-01 -1.327623873949050903e-01 -9.728997200727462769e-02 9.245046228170394897e-02 1.318159848451614380e-01 2.526437938213348389e-01 5.322817713022232056e-02 1.016244813799858093e-01 -2.475097589194774628e-02 -4.668628796935081482e-02 -5.493021756410598755e-02 5.669783055782318115e-02 2.072689831256866455e-01 -3.634317964315414429e-02 7.167585194110870361e-02 -4.485251754522323608e-02 -7.886190712451934814e-02 2.006954699754714966e-01 2.525631189346313477e-01 -4.089641273021697998e-01 1.182968448847532272e-02 1.577499508857727051e-01 3.582545742392539978e-02 -3.709941506385803223e-01 1.219267323613166809e-01 1.857925355434417725e-01 -1.613402664661407471e-01 -2.760801315307617188e-01 -1.255699805915355682e-02 1.133714392781257629e-01 2.545072734355926514e-01 -1.685782819986343384e-01 -3.102144300937652588e-01 1.058757379651069641e-01 -1.662548929452896118e-01 -2.818744480609893799e-01 3.208615481853485107e-01 1.685716509819030762e-01 3.432230949401855469e-01 5.222385004162788391e-02 7.542402297258377075e-02 1.775300055742263794e-01 -1.126631423830986023e-01 1.841950416564941406e-02 -6.792613863945007324e-02 -1.559877246618270874e-01 -8.967850357294082642e-02 -5.135324969887733459e-02 -2.793000638484954834e-01 -1.365284919738769531e-01 5.054522305727005005e-02 1.108663007616996765e-01 7.377690821886062622e-02 -5.225924029946327209e-02 1.744534075260162354e-01 2.970919199287891388e-02 1.684134751558303833e-01 6.424707174301147461e-02 2.658121585845947266e-01
-5.655536800622940063e-02 -1.596255451440811157e-01 5.708107724785804749e-02 6.686168909072875977e-02 -2.889488637447357178e-01 -1.984899640083312988e-01 -1.297264099121093750e-01 -2.203221917152404785e-01 -3.685147315263748169e-02 -4.037978127598762512e-02 -5.476094782352447510e-02 -1.036032810807228088e-01 -2.029403299093246460e-01 -2.760413289070129395e-01 -1.111679822206497192e-01 1.042190287262201309e-02 -3.116787374019622803e-01 -2.425150722265243530e-01 -2.133059501647949219e-01 -2.254139482975006104e-01 -3.316881358623504639e-01 -3.730529248714447021e-01 -8.348116278648376465e-02 -1.303551904857158661e-02 1.620598882436752319e-01 1.472432762384414673e-01 -4.086191058158874512e-01 2.395363152027130127e-02 1.701952815055847168e-01 -1.427664607763290405e-02 -2.965282797813415527e-01 -2.036099284887313843e-01 -7.034456357359886169e-04 -1.704008132219314575e-01 -2.906105518341064453e-01 -6.357240024954080582e-03 5.144599080085754395e-02 -4.251632094383239746e-02 -3.035186827182769775e-01 -1.712881587445735931e-02 -1.770197898149490356e-01 -2.733703553676605225e-01 -3.867156058549880981e-02 -1.635796949267387390e-02 -1.810592040419578552e-02 8.821916580200195312e-02 -1.593219041824340820e-01 -1.806952655315399170e-01 -1.376332491636276245e-01 -1.429473608732223511e-01 -5.666754841804504395e-01 -1.244888752698898315e-01 -3.191271424293518066e-01 -2.086948752403259277e-01 8.045973628759384155e-02 2.132294476032257080e-01 -1.553084515035152435e-02 1.934207230806350708e-01 -2.641478553414344788e-02 -1.462368816137313843e-01 1.220245361328125000e-01 3.795484080910682678e-02
7.569626718759536743e-02 -3.468137085437774658e-01 -3.009689413011074066e-02 4.221389889717102051e-01 2.432711124420166016e-01 1.694758236408233643e-01 2.119316607713699341e-01 1.765146553516387939e-01 2.625255100429058075e-02 1.008358150720596313e-01 -9.329541772603988647e-02 -1.914440989494323730e-01 -6.763442605733871460e-02 -3.416951894760131836e-01 -1.391116976737976074e-01 -2.329393774271011353e-01 -1.564150601625442505e-01 -9.963824599981307983e-02 -2.421227246522903442e-01 -1.693923026323318481e-01 -1.983409374952316284e-02 2.810393273830413818e-01 3.659337759017944336e-01 2.619224786758422852e-02 -2.390774786472320557e-01 6.365107838064432144e-04 -1.366907209157943726e-01 2.488617151975631714e-01 -8.412043005228042603e-02 -5.238393321633338928e-02 4.103176668286323547e-02 1.612500548362731934e-01 -9.120515547692775726e-03 1.809426248073577881e-01 1.620100736618041992e-01 -2.498003989458084106e-01 -8.843772113323211670e-03 3.314573466777801514e-01 3.879199624061584473e-01 1.924855113029479980e-01 2.205084711313247681e-01 -2.619972229003906250e-01 1.835130155086517334e-02 3.392058983445167542e-02 -5.664862692356109619e-02 2.764057926833629608e-02 -1.079119369387626648e-01 -1.867555379867553711e-01 3.333029150962829590e-02 3.093854151666164398e-02 -2.683197855949401855e-01 -3.350420296192169189e-01 1.492634648457169533e-03 -4.271301999688148499e-02 -4.592860117554664612e-03 2.466896325349807739e-01 -6.353772431612014771e-02 3.296285271644592285e-01 2.728506624698638916e-01 -1.220680102705955505e-01 4.064603149890899658e-01 7.339346408843994141e-02
-3.355569541454315186e-01 -4.471178948879241943e-01 1.507094353437423706e-01 1.886596977710723877e-01 -9.948011487722396851e-02 3.803771734237670898e-02 1.601746529340744019e-01 -4.504087939858436584e-02 2.394513040781021118e-01 1.425707042217254639e-01 -2.222958058118820190e-01 4.359773173928260803e-02 3.391574919223785400e-01 2.624610662460327148e-01 -2.147406712174415588e-02 -3.391044735908508301e-01 1.788632124662399292e-01 -1.198737099766731262e-01 -1.708702594041824341e-01 1.437779515981674194e-01 4.194322526454925537e-01 2.903378568589687347e-02 -3.386037796735763550e-02 -1.522253453731536865e-01 2.408673614263534546e-02 2.211806923151016235e-01 -2.297748625278472900e-02 2.131992429494857788e-01 8.744680881500244141e-02 -7.138834148645401001e-02 -6.194790825247764587e-02 1.466281116008758545e-01 1.889305710792541504e-01 -4.230322316288948059e-03 4.587875306606292725e-02 2.264534235000610352e-01 -1.176565885543823242e-01 -2.544826567173004150e-01 -1.109808608889579773e-01 2.671999335289001465e-01 6.183050945401191711e-02 -1.678548902273178101e-01 -2.321507036685943604e-01 -1.230807602405548096e-01 -6.543466355651617050e-03 5.922340974211692810e-02 7.033466547727584839e-02 1.205032616853713989e-01 -1.524207442998886108e-01 1.444967240095138550e-01 -1.909090280532836914e-01 -1.915907370857894421e-03 1.797502487897872925e-02 -1.347384881228208542e-02 2.721368372440338135e-01 3.120599687099456787e-01 2.606924474239349365e-01 3.924103379249572754e-01 1.224345620721578598e-02 3.494317457079887390e-02 3.359578847885131836e-01 -7.681738585233688354e-02
-2.028397768735885620e-01 3.162092342972755432e-02 3.853788226842880249e-02 6.127518415451049805e-02 -3.429009392857551575e-02 -7.062503695487976074e-02 2.995877265930175781e-01 3.347353935241699219e-01 4.173529893159866333e-02 -1.726973503828048706e-01 -1.775325089693069458e-01 2.266898006200790405e-01 1.338166594505310059e-01 -2.049871981143951416e-01 1.159907039254903793e-02 2.535621225833892822e-01 -2.013458311557769775e-01 -1.372826546430587769e-01 2.989192260429263115e-03 1.393369436264038086e-01 9.016498178243637085e-02 8.523733355104923248e-03 -8.469968289136886597e-02 9.337844699621200562e-02 5.045110583305358887e-01 3.373494446277618408e-01 -1.234854236245155334e-01 -4.489189386367797852e-01 5.974619649350643158e-03 -1.266174465417861938e-01 -2.706092000007629395e-01 -2.425130754709243774e-01 -3.508735820651054382e-02 -4.936854541301727295e-01 -3.411065936088562012e-01 5.584937334060668945e-02 9.004121273756027222e-02 -7.285839319229125977e-02 6.313971430063247681e-02 1.156127676367759705e-01 2.099284529685974121e-01 -1.299216300249099731e-01 -5.104805156588554382e-02 -1.516350060701370239e-01 -3.065094947814941406e-01 2.735260687768459320e-02 4.934523627161979675e-02 -1.627748161554336548e-01 -7.854111492633819580e-02 5.402357131242752075e-02 -8.396364003419876099e-02 1.106980964541435242e-01 4.977467060089111328e-01 2.390618771314620972e-01 1.575806736946105957e-01 1.529935300350189209e-01 2.845345735549926758e-01 2.843604683876037598e-01 3.150492673739790916e-03 -1.300817877054214478e-01 1.260579377412796021e-01 1.093694046139717102e-01
-7.886250503361225128e-03 1.809996962547302246e-01 1.625414192676544189e-01 -2.929193340241909027e-02 -1.967117190361022949e-01 -1.682628132402896881e-02 4.507137537002563477e-01 3.302723765373229980e-01 -2.549769580364227295e-01 -2.222483009099960327e-01 -1.151001155376434326e-01 4.171866178512573242e-01 2.652892768383026123e-01 -3.077302277088165283e-01 5.952640995383262634e-02 3.236456960439682007e-02 -2.838200032711029053e-01 -5.167862400412559509e-02 -1.312186941504478455e-02 -1.129683181643486023e-01 -4.912045970559120178e-02 -2.223438769578933716e-02 1.678380072116851807e-01 -7.330879569053649902e-02 5.281949881464242935e-03 6.480321288108825684e-02 -2.553962767124176025e-01 -1.197146400809288025e-01 -3.818951081484556198e-03 -3.612334653735160828e-02 -1.336054801940917969e-01 -6.021348759531974792e-02 -2.296936213970184326e-01 -1.772892177104949951e-01 -1.854310780763626099e-01 5.502136424183845520e-03 1.088457703590393066e-01 1.482724845409393311e-01 1.419647336006164551e-01 2.460945993661880493e-01 1.919021829962730408e-02 -3.107473850250244141e-01 -2.010105103254318237e-01 -1.039215847849845886e-01 -1.430066972970962524e-01 1.693616509437561035e-01 3.932018205523490906e-02 -1.365103870630264282e-01 1.026222258806228638e-01 2.093760818243026733e-01 1.853523403406143188e-01 -1.095162332057952881e-01 2.164151668548583984e-01 2.228114604949951172e-01 2.106849104166030884e-01 1.243510395288467407e-01 -4.745180159807205200e-02 5.668703466653823853e-02 -1.895229965448379517e-01 -9.949617832899093628e-02 3.797878921031951904e-01 2.244427204132080078e-01
-1.836754828691482544e-01 1.240072771906852722e-01 1.271622180938720703e-01 1.576240547001361847e-02 -2.122598886489868164e-02 -7.600686978548765182e-03 5.148376151919364929e-02 -9.610603004693984985e-02 7.347662746906280518e-02 -1.887879520654678345e-01 2.246882468461990356e-01 2.768352925777435303e-01 -3.485656976699829102e-01 -4.289599359035491943e-01 2.505349814891815186e-01 1.735411435365676880e-01 1.194807365536689758e-01 2.822832576930522919e-02 -1.426405459642410278e-01 -1.463929265737533569e-01 -1.446978449821472168e-01 -1.325382739305496216e-01 2.473626583814620972e-01 -1.581540703773498535e-01 -4.544659554958343506e-01 1.072164028882980347e-01 3.037787675857543945e-01 2.455707043409347534e-01 -2.357101142406463623e-01 -5.016031861305236816e-01 -3.536074459552764893e-01 -3.460032641887664795e-01 6.435615941882133484e-03 1.191298887133598328e-01 2.906699664890766144e-02 -2.132710516452789307e-01 -1.877395808696746826e-01 -7.437276840209960938e-02 -1.163627281785011292e-01 -1.068685874342918396e-01 -1.569369435310363770e-01 -2.146066278219223022e-01 -1.464758906513452530e-02 -5.322350561618804932e-02 -1.652666628360748291e-01 -7.426524907350540161e-02 1.657605767250061035e-01 -2.105455249547958374e-01 -1.232222989201545715e-01 3.086984753608703613e-01 1.784080713987350464e-01 2.639565765857696533e-01 1.777120679616928101e-01 1.284300982952117920e-01 1.403792761266231537e-03 -4.783566296100616455e-02 6.792485713958740234e-02 3.111341968178749084e-02 2.646210491657257080e-01 2.957257032394409180e-01 3.273925185203552246e-01 -8.932709693908691406e-02
-1.750880777835845947e-01 1.450773328542709351e-01 9.570981562137603760e-02 -1.132460385560989380e-01 -1.529842466115951538e-01 1.013506501913070679e-01 1.436855047941207886e-01 -2.759921848773956299e-01 -3.679228574037551880e-02 -3.126377463340759277e-01 -9.836988896131515503e-02 -6.383800506591796875e-02 -5.990172028541564941e-01 9.860252588987350464e-02 2.667011320590972900e-01 -2.552456557750701904e-01 -2.197263389825820923e-02 2.769325971603393555e-01 -2.144069969654083252e-01 -1.004194840788841248e-01 -1.308567970991134644e-01 -3.480231389403343201e-02 -4.644634425640106201e-01 -4.539422392845153809e-01 3.890093415975570679e-02 1.293992251157760620e-01 -4.926571249961853027e-02 -3.077023029327392578e-01 -2.459317147731781006e-01 -3.264179825782775879e-01 -4.414906799793243408e-01 -2.328629493713378906e-01 -5.671294927597045898e-01 -3.795323967933654785e-01 -3.571775555610656738e-01 -2.073170803487300873e-02 -2.417811453342437744e-01 -7.151458263397216797e-01 -4.302922189235687256e-01 7.250217255204916000e-03 -2.176401764154434204e-01 -4.427866041660308838e-01 -3.303895890712738037e-01 1.601040959358215332e-01 -1.215071510523557663e-02 -2.851677834987640381e-01 -1.416504681110382080e-01 -1.079629883170127869e-01 -4.659719467163085938e-01 -2.105609625577926636e-01 -2.601235210895538330e-01 -1.674064844846725464e-01 1.591933816671371460e-01 1.041174978017807007e-01 5.005935579538345337e-02 -2.474072724580764771e-01 -3.097044229507446289e-01 -7.688718289136886597e-02 3.218345940113067627e-01 1.334941685199737549e-01 -1.006036400794982910e-01 -1.399904638528823853e-01
1.860296428203582764e-01 3.579502999782562256e-01 -3.208369910717010498e-01 -5.448853373527526855e-01 -2.959468364715576172e-01 -3.251340985298156738e-01 8.698190003633499146e-02 1.033496926538646221e-03 -1.381788849830627441e-01 -2.011060416698455811e-01 1.479918807744979858e-01 1.842684596776962280e-01 5.852258205413818359e-02 2.710585594177246094e-01 8.081433922052383423e-02 -2.348860651254653931e-01 1.501434110105037689e-02 6.323043256998062134e-02 -1.043950244784355164e-01 9.897794574499130249e-02 1.783482879400253296e-01 -1.355156451463699341e-01 -3.731594383716583252e-01 -1.522361189126968384e-01 3.557125851511955261e-02 -3.313710391521453857e-01 -3.141942918300628662e-01 -1.309581398963928223e-01 -1.692690551280975342e-01 -3.674331307411193848e-01 -7.138869762420654297e-01 -4.393784403800964355e-01 -2.103263586759567261e-01 -6.225317716598510742e-01 -4.141839146614074707e-01 -2.292705923318862915e-01 -2.112439572811126709e-01 -3.894520998001098633e-01 -3.549938499927520752e-01 -2.075794190168380737e-01 -6.954023241996765137e-02 -2.896338701248168945e-01 -1.872972398996353149e-01 -9.419696778059005737e-02 1.200157552957534790e-01 -5.817556381225585938e-02 6.610441207885742188e-02 5.381971970200538635e-02 -1.385638415813446045e-01 4.687549918889999390e-02 2.682363390922546387e-01 -2.541283369064331055e-01 2.002056092023849487e-01 2.236211448907852173e-01 3.119136393070220947e-01 -4.356823116540908813e-02 -4.143859446048736572e-01 8.893449604511260986e-02 3.337436020374298096e-01 3.837958872318267822e-01 -7.931174337863922119e-02 8.619235455989837646e-02
-1.400544196367263794e-01 -1.960861980915069580e-01 -3.214747011661529541e-01 -3.651174306869506836e-01 -2.221992313861846924e-01 -2.418884783983230591e-01 1.195928379893302917e-01 9.292965382337570190e-02 -2.769643962383270264e-01 -7.376277446746826172e-02 -9.730119258165359497e-02 2.036893069744110107e-01 -1.341596692800521851e-01 3.653945773839950562e-02 -6.329634040594100952e-02 -7.765308022499084473e-03 -1.764030754566192627e-01 -1.629064977169036865e-01 2.726627886295318604e-02 3.680514693260192871e-01 -1.593785360455513000e-02 -1.394289880990982056e-01 2.421732246875762939e-02 1.657376415096223354e-03 -1.296523362398147583e-01 -2.383031845092773438e-01 -3.270822167396545410e-01 -2.039823830127716064e-01 -2.126200497150421143e-01 -1.367003470659255981e-01 -5.498458147048950195e-01 -4.435609579086303711e-01 -6.149694323539733887e-01 -4.436956644058227539e-01 -2.117380648851394653e-01 -2.772862315177917480e-01 -8.268365263938903809e-02 -3.028028011322021484e-01 1.517923176288604736e-01 -3.999816477298736572e-01 -2.924623489379882812e-01 -6.167336367070674896e-03 -8.630079776048660278e-02 -2.337137609720230103e-01 1.085575520992279053e-01 4.485153853893280029e-01 6.816539913415908813e-02 2.737121842801570892e-02 1.115998551249504089e-01 -1.535069495439529419e-01 2.842528522014617920e-01 8.435329794883728027e-02 -9.116658568382263184e-02 -5.471928790211677551e-02 1.865617744624614716e-02 -2.086368948221206665e-01 -3.585564494132995605e-01 7.846544682979583740e-02 2.064585089683532715e-01 2.426655590534210205e-01 1.793841719627380371e-01 -5.808718129992485046e-02
-1.375401625409722328e-03 2.106370180845260620e-01 1.151571348309516907e-01 -1.891436241567134857e-02 -9.041601419448852539e-02 4.263831079006195068e-01 3.311993777751922607e-01 -3.583671525120735168e-02 -1.938091367483139038e-01 8.404951542615890503e-02 3.750776946544647217e-01 4.748017191886901855e-01 1.924206130206584930e-02 1.974941045045852661e-01 3.749411404132843018e-01 -2.189917117357254028e-02 -3.534194082021713257e-02 6.378038972616195679e-02 2.002381384372711182e-01 1.142388582229614258e-01 -4.208011552691459656e-02 -6.980190426111221313e-02 1.278260024264454842e-03 -8.067733794450759888e-02 -4.218663275241851807e-01 -1.620316505432128906e-01 -3.740372359752655029e-01 -2.675285637378692627e-01 2.402193471789360046e-02 2.797122597694396973e-01 2.995287179946899414e-01 1.846620626747608185e-02 1.203630715608596802e-01 -3.958471119403839111e-01 -1.085435077548027039e-01 -2.344201803207397461e-01 -1.485344469547271729e-01 -3.979949057102203369e-01 -3.489066958427429199e-01 -4.272090792655944824e-01 -1.801100671291351318e-01 -9.126986563205718994e-02 -7.384978234767913818e-02 -2.093456983566284180e-01 3.081596195697784424e-01 2.026793062686920166e-01 3.261580467224121094e-01 1.458861976861953735e-01 2.321198880672454834e-01 2.005500644445419312e-01 5.419361870735883713e-03 6.441969424486160278e-02 1.711240559816360474e-01 3.269894421100616455e-01 4.133053421974182129e-01 1.342495679855346680e-01 -2.912899479269981384e-02 2.890649735927581787e-01 5.436565876007080078e-01 3.474449515342712402e-01 4.774932861328125000e-01 5.499230027198791504e-01
-1.083291620016098022e-01 -2.042559236288070679e-01 -1.311269849538803101e-01 -6.748581677675247192e-02 1.284254640340805054e-01 2.794882655143737793e-01 3.620233535766601562e-01 -1.192539110779762268e-01 -1.361671984195709229e-01 3.704638406634330750e-02 -2.847388759255409241e-02 -3.169797733426094055e-02 -1.096850335597991943e-01 7.899741083383560181e-02 7.921548094600439072e-04 -2.281783223152160645e-01 -1.617209762334823608e-01 3.053859621286392212e-02 1.581634581089019775e-02 -2.739877402782440186e-01 -1.627340763807296753e-01 3.908847644925117493e-02 -3.888604640960693359e-01 -3.369700014591217041e-01 -4.477509558200836182e-01 -2.276315987110137939e-01 -7.073565721511840820e-01 -3.778378665447235107e-01 -4.254494979977607727e-02 1.071957424283027649e-01 -1.725605572573840618e-03 5.116056203842163086e-01 1.108512864448130131e-03 -6.539016962051391602e-01 -7.714588046073913574e-01 -5.317780971527099609e-01 -5.832792520523071289e-01 -8.076096177101135254e-01 -5.206409692764282227e-01 -4.985148310661315918e-01 -6.053006052970886230e-01 -5.739574432373046875e-01 -1.244118958711624146e-01 -7.145036756992340088e-02 -1.070759072899818420e-01 -1.410299092531204224e-01 -1.882301867008209229e-01 -1.352853029966354370e-01 -2.091074883937835693e-01 -1.398807018995285034e-01 -1.772464253008365631e-02 1.614467650651931763e-01 1.101789399981498718e-01 1.693131923675537109e-01 3.170174658298492432e-01 2.647117078304290771e-01 -5.315096676349639893e-02 2.589343301951885223e-02 2.250973284244537354e-01 2.490259110927581787e-01 3.065433204174041748e-01 5.359903573989868164e-01
-2.224564105272293091e-01 -3.092484176158905029e-01 1.801348775625228882e-01 3.367111384868621826e-01 3.336392045021057129e-01 3.148536384105682373e-01 5.257072448730468750e-01 -7.972895354032516479e-02 7.396745681762695312e-02 3.732055723667144775e-01 2.147625833749771118e-01 3.462248481810092926e-03 1.008083522319793701e-01 3.932556882500648499e-02 -6.363353878259658813e-02 -1.133732264861464500e-03 2.057703733444213867e-01 2.367959022521972656e-01 2.417096495628356934e-01 -1.355405300855636597e-01 3.308933693915605545e-03 5.073162168264389038e-02 -2.665396630764007568e-01 -6.254829466342926025e-02 -5.750213563442230225e-02 1.991653628647327423e-02 -1.679319739341735840e-01 -3.880341053009033203e-01 -2.565552294254302979e-01 1.938935220241546631e-01 8.600481748580932617e-01 1.152057766914367676e+00 6.852707862854003906e-01 -2.912469208240509033e-01 -6.091479659080505371e-01 -5.141820311546325684e-01 -1.807430535554885864e-01 -5.492118597030639648e-01 -5.608197450637817383e-01 -5.090410709381103516e-01 -2.691232562065124512e-01 -7.128486633300781250e-01 -1.864509433507919312e-01 1.629430502653121948e-01 -2.162618190050125122e-01 -4.733110964298248291e-02 -4.710043966770172119e-02 1.624217629432678223e-01 1.150969862937927246e-01 1.503161340951919556e-01 1.868733167648315430e-01 9.473279118537902832e-02 1.165556013584136963e-01 2.328542023897171021e-01 4.904966652393341064e-01 3.253711163997650146e-01 1.551755219697952271e-01 2.158794552087783813e-01 3.666895925998687744e-01 5.597386956214904785e-01 4.645237922668457031e-01 3.811770081520080566e-01
-1.011017113924026489e-01 -1.193608418107032776e-01 6.383512169122695923e-02 -2.744904952123761177e-03 2.524925768375396729e-01 2.806851863861083984e-01 1.037583872675895691e-01 2.965440973639488220e-02 3.387320935726165771e-01 3.761551678180694580e-01 1.861035078763961792e-01 9.457264095544815063e-02 -1.678196936845779419e-01 -1.714457869529724121e-01 -3.387987986207008362e-02 -2.480009049177169800e-01 -4.878115653991699219e-02 -4.998648166656494141e-02 -2.122165262699127197e-01 -1.063479408621788025e-01 -1.319237947463989258e-01 1.131205726414918900e-02 -1.767617911100387573e-01 -2.418842166662216187e-01 -4.986974596977233887e-01 1.960768401622772217e-01 -3.483021259307861328e-02 -1.222402825951576233e-01 -8.826507329940795898e-01 -1.011216163635253906e+00 -5.882647633552551270e-01 7.294975519180297852e-01 6.851545572280883789e-01 -4.537093918770551682e-03 -3.824634552001953125e-01 -3.010821938514709473e-01 -5.979418158531188965e-01 -6.062902808189392090e-01 -5.381633043289184570e-01 -5.481082201004028320e-01 -4.604530632495880127e-01 -4.306684434413909912e-01 -3.312382698059082031e-01 -5.600235238671302795e-02 -2.000824809074401855e-01 9.677574038505554199e-02 8.470515906810760498e-02 1.150751858949661255e-01 -1.111017242074012756e-01 -9.421606361865997314e-02 2.287393808364868164e-02 -5.991454236209392548e-03 3.455901145935058594e-01 1.596256941556930542e-01 2.536532580852508545e-01 2.173998951911926270e-01 1.029954850673675537e-02 2.025532126426696777e-01 2.143065184354782104e-01 2.311018854379653931e-01 4.995011389255523682e-01 -1.525757741183042526e-02
-1.847038231790065765e-02 5.843282490968704224e-02 2.809801837429404259e-03 -8.513446152210235596e-02 -7.305360585451126099e-02 -3.822915628552436829e-02 -1.993135660886764526e-01 4.525697231292724609e-02 -3.114092163741588593e-02 6.017933040857315063e-02 1.802697777748107910e-01 1.351328641176223755e-01 1.719988584518432617e-01 7.012957334518432617e-02 -1.075379922986030579e-01 -1.935717910528182983e-01 -8.837254345417022705e-02 1.993412151932716370e-03 -2.374208718538284302e-01 -1.571449339389801025e-01 8.270233869552612305e-03 -1.160303130745887756e-01 -1.960822641849517822e-01 -3.946352005004882812e-01 -1.294649988412857056e-01 -1.194468885660171509e-01 1.252239048480987549e-01 9.660086631774902344e-01 -1.408600509166717529e-01 -1.911270380020141602e+00 -1.431601166725158691e+00 -6.892410516738891602e-01 1.541682839393615723e+00 1.860914826393127441e-01 -5.387560129165649414e-01 -1.078410670161247253e-01 -1.208087354898452759e-01 -4.371324479579925537e-01 -5.314829945564270020e-01 -4.499994814395904541e-01 -6.910063624382019043e-01 -6.219360232353210449e-01 -4.396399855613708496e-01 -1.141595318913459778e-01 -1.730124950408935547e-01 -1.980897039175033569e-01 2.217971831560134888e-01 4.174593389034271240e-01 -6.398622691631317139e-02 4.852210357785224915e-02 -7.359524071216583252e-02 -2.359365345910191536e-03 7.910911738872528076e-02 2.801419422030448914e-02 1.808472350239753723e-02 -3.398269787430763245e-02 -8.146665059030056000e-03 1.668060198426246643e-02 2.895395755767822266e-01 5.100478529930114746e-01 5.994592308998107910e-01 1.614916026592254639e-01
-5.475517511367797852e-01 -3.457345664501190186e-01 -1.763528287410736084e-01 -6.485633552074432373e-02 -4.778501763939857483e-02 3.141715005040168762e-02 9.375967085361480713e-02 -2.641318440437316895e-01 -3.712125122547149658e-01 -5.255126580595970154e-02 8.257193490862846375e-03 -2.049915194511413574e-01 -1.214648187160491943e-01 -2.585968673229217529e-01 -6.501984596252441406e-02 -1.772833317518234253e-01 -1.940656751394271851e-01 -4.509533569216728210e-02 -3.404113352298736572e-01 -2.015658915042877197e-01 -3.039520382881164551e-01 -3.147780299186706543e-01 -5.385103225708007812e-01 -7.849667072296142578e-01 -3.544148802757263184e-01 -4.478790760040283203e-01 -1.014664769172668457e-01 9.400957822799682617e-01 1.122573912143707275e-01 -1.351130604743957520e+00 -1.515237569808959961e+00 -1.310946643352508545e-01 7.605674266815185547e-01 3.943205773830413818e-01 -7.507198452949523926e-01 -4.038454294204711914e-01 -3.250911831855773926e-01 -6.459213495254516602e-01 -8.637892007827758789e-01 -2.345863133668899536e-01 -8.770636320114135742e-01 -6.174321174621582031e-01 -4.227042198181152344e-01 1.137512475252151489e-01 -2.655115127563476562e-01 -2.858880162239074707e-01 -2.140397280454635620e-01 -9.756575524806976318e-02 -2.419035732746124268e-01 7.304708659648895264e-02 2.755367457866668701e-01 -6.344265490770339966e-02 -1.566543281078338623e-01 5.531188100576400757e-02 -6.877492368221282959e-02 -1.479163914918899536e-01 -3.446227908134460449e-01 1.168949976563453674e-01 1.988909840583801270e-01 6.022043898701667786e-02 1.362482011318206787e-01 2.853114306926727295e-01
-1.678544878959655762e-01 -3.471720814704895020e-01 -2.699933946132659912e-01 -2.228737436234951019e-02 1.812940537929534912e-01 1.163793578743934631e-01 1.909622251987457275e-01 2.719221115112304688e-01 2.842085808515548706e-02 -1.794187873601913452e-01 2.695475518703460693e-02 6.869210302829742432e-02 5.208576098084449768e-02 2.531080543994903564e-01 -1.709208339452743530e-01 -6.667798757553100586e-02 -1.389848440885543823e-01 2.531668245792388916e-01 1.551431268453598022e-01 2.552109956741333008e-01 1.137269064784049988e-01 1.512332260608673096e-02 -3.068151883780956268e-02 -7.884761095046997070e-01 -7.491824775934219360e-02 -1.693584769964218140e-01 1.353882551193237305e-01 1.284312248229980469e+00 1.515997052192687988e+00 -3.097522556781768799e-01 1.749545335769653320e-01 1.477630496025085449e+00 1.570688724517822266e+00 9.964302182197570801e-02 -3.448597192764282227e-01 -5.290411710739135742e-01 5.033148080110549927e-02 -2.668260931968688965e-01 -5.012779831886291504e-01 1.095260772854089737e-02 -7.802190184593200684e-01 -3.951611816883087158e-01 -9.743727743625640869e-02 1.099339500069618225e-01 -1.692612841725349426e-02 -2.420641034841537476e-01 9.123115986585617065e-02 1.847943514585494995e-01 1.459002643823623657e-01 2.035509198904037476e-01 1.056428253650665283e-01 4.116693139076232910e-02 1.557984203100204468e-01 1.078471913933753967e-01 -2.096919864416122437e-01 2.944437563419342041e-01 1.654925942420959473e-01 -1.795547641813755035e-02 3.242024779319763184e-01 3.004003167152404785e-01 3.336068391799926758e-01 1.722459495067596436e-01
-1.821362525224685669e-01 -5.130530595779418945e-01 -2.962531447410583496e-01 -1.408842056989669800e-01 1.840824633836746216e-01 2.696102559566497803e-01 3.085386753082275391e-01 -2.330172210931777954e-01 -5.830847471952438354e-02 -1.054098010063171387e-01 1.040239930152893066e-01 1.923416256904602051e-01 -8.809710294008255005e-02 -6.909784674644470215e-02 -1.547626405954360962e-01 -5.902275443077087402e-02 -2.052031457424163818e-01 -1.324596107006072998e-01 4.737897589802742004e-02 -1.637366265058517456e-01 -1.605014130473136902e-02 -6.919899582862854004e-02 -2.801746726036071777e-01 -7.045789361000061035e-01 -5.062184929847717285e-01 -1.255761235952377319e-01 -5.227802991867065430e-01 1.752068847417831421e-01 2.924933470785617828e-02 1.192533850669860840e+00 8.980981707572937012e-01 1.559584975242614746e+00 -1.700538396835327148e-01 1.018099039793014526e-01 -3.531482815742492676e-01 -2.474433630704879761e-01 -5.225462317466735840e-01 -4.154917597770690918e-02 -2.329019308090209961e-01 -4.581659734249114990e-01 -5.907390713691711426e-01 -6.632223725318908691e-01 -1.339967548847198486e-01 1.999278962612152100e-01 1.511998288333415985e-02 -1.662572473287582397e-01 -1.397382169961929321e-01 -1.888092756271362305e-01 -1.062706559896469116e-01 -8.006901293992996216e-02 -2.196855656802654266e-02 2.197758555412292480e-01 -2.783124744892120361e-01 1.306821126490831375e-02 2.289059609174728394e-01 3.139786422252655029e-01 -1.123082861304283142e-01 4.461286589503288269e-03 7.763885706663131714e-02 -1.697319932281970978e-02 1.126777846366167068e-02 -4.277135431766510010e-02
-4.831939637660980225e-01 -3.197198808193206787e-01 -3.779086470603942871e-01 -2.896704673767089844e-01 -3.313404321670532227e-01 2.377674132585525513e-01 1.188565045595169067e-01 -3.227667510509490967e-01 -2.581973671913146973e-01 3.017331957817077637e-01 -1.712964661419391632e-02 -2.927839756011962891e-02 -1.137460023164749146e-02 -1.742061227560043335e-01 -2.109816074371337891e-01 -2.451735436916351318e-01 -7.884307950735092163e-02 -1.339795887470245361e-01 -1.687474697828292847e-01 -4.791488945484161377e-01 -2.224675565958023071e-01 -3.768989443778991699e-01 -3.706403672695159912e-01 -4.979170262813568115e-01 -2.960922420024871826e-01 -4.421478211879730225e-01 -7.649645805358886719e-01 -3.712621927261352539e-01 4.810913931578397751e-03 1.167765003629028797e-03 1.898666620254516602e-01 2.414699345827102661e-01 2.487428635358810425e-01 2.563311718404293060e-02 -6.157056689262390137e-01 -3.598249256610870361e-01 -5.756268501281738281e-01 -8.066166043281555176e-01 -8.922268152236938477e-01 -8.309676647186279297e-01 -7.567117810249328613e-01 -9.422408342361450195e-01 -4.248967766761779785e-01 -2.668999731540679932e-01 -2.701635658740997314e-01 -2.904136478900909424e-01 -2.203439623117446899e-01 2.707609347999095917e-02 -1.475367844104766846e-01 -1.255222558975219727e-01 -9.719330817461013794e-02 -3.663256019353866577e-02 -4.814773797988891602e-01 -3.336994349956512451e-01 2.541156113147735596e-01 5.296447500586509705e-02 -3.069614470005035400e-01 3.772784024477005005e-02 -2.875837124884128571e-02 1.480327099561691284e-01 2.528442740440368652e-01 4.117955863475799561e-01
-6.033522486686706543e-01 -4.165382981300354004e-01 -3.531296551227569580e-01 -4.302316308021545410e-01 -2.030859291553497314e-01 -2.261978238821029663e-01 -1.512736976146697998e-01 -2.500597238540649414e-01 -4.217246770858764648e-01 -9.725287556648254395e-02 -3.930363804101943970e-02 -8.170665800571441650e-02 5.945689603686332703e-02 1.382524818181991577e-01 1.258449554443359375e-01 -4.157657921314239502e-02 -2.029313445091247559e-01 -2.388696521520614624e-01 -1.581157594919204712e-01 -2.349221557378768921e-01 -3.128975927829742432e-01 -2.608027458190917969e-01 -3.099775910377502441e-01 -3.587756156921386719e-01 -3.809985816478729248e-01 -3.244274556636810303e-01 -7.194764614105224609e-01 -2.953649163246154785e-01 -3.641049563884735107e-01 -3.843490779399871826e-01 -4.141094982624053955e-01 5.621829256415367126e-02 3.164098262786865234e-01 -4.264559745788574219e-01 -8.304221034049987793e-01 -6.242369413375854492e-01 -6.215451359748840332e-01 -6.645777225494384766e-01 -4.321262240409851074e-01 -7.320709228515625000e-01 -4.594648778438568115e-01 -5.410709977149963379e-01 -2.215348482131958008e-01 -1.457001566886901855e-01 -2.829376459121704102e-01 -1.717000734061002731e-03 1.702978461980819702e-01 5.211291834712028503e-02 2.659031376242637634e-02 -4.827863723039627075e-02 -7.031279057264328003e-02 -4.815149307250976562e-01 -3.106532990932464600e-01 -2.275895886123180389e-02 1.327053010463714600e-01 -1.962438821792602539e-01 -4.112501740455627441e-01 4.408929497003555298e-02 1.973910629749298096e-01 1.592816412448883057e-01 1.759425252676010132e-01 2.051609158515930176e-01
-2.485128343105316162e-01 -4.123082756996154785e-01 1.618350157514214516e-03 -1.531717777252197266e-01 -2.396023422479629517e-01 -5.194852128624916077e-02 3.050072789192199707e-01 1.581839285790920258e-02 1.026740893721580505e-01 -3.003685921430587769e-02 -8.461976796388626099e-02 5.977961048483848572e-02 3.507665544748306274e-02 2.651827968657016754e-02 1.375442445278167725e-01 2.643447816371917725e-01 1.684488207101821899e-01 -1.120403483510017395e-01 2.816455662250518799e-01 1.092859804630279541e-01 -3.795544384047389030e-03 -1.635698229074478149e-01 -1.257431358098983765e-01 -2.412431091070175171e-01 -3.014844357967376709e-01 -7.389906793832778931e-02 -3.056283593177795410e-01 -9.212935715913772583e-02 -2.728218138217926025e-01 -5.773293972015380859e-01 -4.902932345867156982e-01 -3.734071925282478333e-02 1.416775304824113846e-02 -6.107206642627716064e-02 -6.165148019790649414e-01 -3.988230228424072266e-01 -5.995612740516662598e-01 -6.243901848793029785e-01 -2.692297697067260742e-01 -9.263225197792053223e-01 -4.284260571002960205e-01 -2.895619273185729980e-01 5.356550961732864380e-02 -1.539786309003829956e-01 -1.138110384345054626e-01 8.761469274759292603e-03 1.388426125049591064e-01 -9.464792907238006592e-02 1.580066233873367310e-01 1.635861545801162720e-01 1.209493204951286316e-01 -1.409974545240402222e-01 -1.073972657322883606e-01 2.207743078470230103e-01 3.694685101509094238e-01 5.640049465000629425e-03 -3.562099039554595947e-01 2.152239903807640076e-03 2.238959819078445435e-01 2.238364964723587036e-01 9.325859695672988892e-02 1.253878027200698853e-01
-5.898434296250343323e-02 -1.426307484507560730e-02 -8.052593469619750977e-02 -1.082414668053388596e-02 -2.115651965141296387e-01 1.959565132856369019e-01 2.360135167837142944e-01 6.542780250310897827e-02 -6.913348287343978882e-02 -1.147405728697776794e-01 -1.705172099173069000e-02 3.928517922759056091e-02 -5.431984364986419678e-02 3.841112554073333740e-02 1.458696089684963226e-02 1.275855898857116699e-01 -9.452269226312637329e-02 -3.296548128128051758e-01 -2.032265067100524902e-01 3.036962747573852539e-01 -6.767593324184417725e-02 -3.633670806884765625e-01 -2.931999564170837402e-01 -2.366304546594619751e-01 -4.157508015632629395e-01 -1.626079827547073364e-01 -3.812900781631469727e-01 -4.406508803367614746e-01 -6.709095239639282227e-01 -2.913405299186706543e-01 -5.902941226959228516e-01 -3.468804061412811279e-02 -2.697922885417938232e-01 -3.351467251777648926e-01 -3.292787969112396240e-01 -6.700128912925720215e-01 -4.818764030933380127e-01 -5.090759992599487305e-01 -3.791090548038482666e-01 -1.020176172256469727e+00 -1.847920715808868408e-01 -2.307541817426681519e-01 -3.347623348236083984e-01 -1.335348933935165405e-01 2.292577177286148071e-01 1.779567152261734009e-01 -8.257636427879333496e-02 -1.660082042217254639e-01 -3.036420419812202454e-02 -1.529377847909927368e-01 -8.381456881761550903e-02 -1.447472572326660156e-01 5.390777066349983215e-02 2.861349284648895264e-01 1.373056322336196899e-01 -2.129640430212020874e-01 -1.404619216918945312e-01 -2.731018885970115662e-02 3.023911714553833008e-01 3.146239817142486572e-01 2.202564664185047150e-02 -1.073476597666740417e-01
1.364072263240814209e-01 1.693536639213562012e-01 2.144697867333889008e-02 -3.448888659477233887e-03 9.953676722943782806e-03 5.480171442031860352e-01 4.729484021663665771e-01 2.403037399053573608e-01 -4.401551559567451477e-02 -2.025540024042129517e-01 7.781650125980377197e-02 -5.153233185410499573e-02 -3.199908435344696045e-01 4.645827412605285645e-02 -2.460089623928070068e-01 -2.051893025636672974e-01 1.634875982999801636e-01 2.171066999435424805e-01 -9.006945043802261353e-02 -1.077569052577018738e-01 -8.050218224525451660e-02 -4.593134522438049316e-01 -7.542294859886169434e-01 -6.348387002944946289e-01 -6.183140873908996582e-01 -3.790895044803619385e-01 -6.859266757965087891e-01 -3.499634861946105957e-01 -5.020875930786132812e-01 -1.513771861791610718e-01 -6.055525541305541992e-01 -3.608591258525848389e-01 -4.317317903041839600e-01 -7.659266591072082520e-01 -7.061304450035095215e-01 -6.560924053192138672e-01 -4.372547268867492676e-01 -8.680698871612548828e-01 -1.039762020111083984e+00 -3.247742056846618652e-01 -3.096725642681121826e-01 -2.673037350177764893e-01 -3.728141635656356812e-02 2.210879325866699219e-01 -3.853957634419202805e-03 -3.956380188465118408e-01 1.671099960803985596e-01 -4.633915051817893982e-02 -1.633492857217788696e-01 -2.219967395067214966e-01 -1.764607578516006470e-01 -3.288383483886718750e-01 2.146094292402267456e-01 6.092628240585327148e-01 1.402218639850616455e-01 -1.231917813420295715e-01 3.259387100115418434e-03 1.282176282256841660e-02 2.737635672092437744e-01 4.174549281597137451e-01 2.826700173318386078e-02 -7.905067875981330872e-03
-1.881678998470306396e-01 1.637544035911560059e-01 2.511912584304809570e-01 7.193706184625625610e-02 -1.438818871974945068e-02 2.766237258911132812e-01 7.110332138836383820e-03 1.380228251218795776e-01 5.630306899547576904e-02 -6.118923425674438477e-02 -1.256898492574691772e-01 9.674350917339324951e-02 -4.303703904151916504e-01 2.985177040100097656e-01 7.468099892139434814e-02 -1.468307971954345703e-01 -3.240576386451721191e-02 2.841711640357971191e-01 -2.547178864479064941e-01 -1.840850710868835449e-01 -6.351413577795028687e-02 9.189338237047195435e-02 -6.564403772354125977e-01 -7.909998297691345215e-01 -1.981157362461090088e-01 2.380814589560031891e-02 -5.534474253654479980e-01 -3.870967626571655273e-01 -4.153219461441040039e-01 -1.518015712499618530e-01 -8.385538458824157715e-01 -3.852407038211822510e-01 -4.690738022327423096e-01 -9.738239049911499023e-01 -3.943393230438232422e-01 -4.907153546810150146e-01 -5.467747449874877930e-01 -1.013219356536865234e+00 -3.011646568775177002e-01 9.070849046111106873e-05 -3.194573223590850830e-01 -3.578847050666809082e-01 8.684948086738586426e-02 1.126176938414573669e-01 -1.568976640701293945e-01 -3.019335865974426270e-01 1.932446956634521484e-01 -9.694074839353561401e-02 -5.865722298622131348e-01 -7.987053692340850830e-02 -1.837377995252609253e-01 7.144206762313842773e-02 3.083057999610900879e-01 1.874930560588836670e-01 2.414319813251495361e-01 3.335083723068237305e-01 3.026246726512908936e-01 4.581655859947204590e-01 4.102361798286437988e-01 2.923046648502349854e-01 1.038958504796028137e-02 1.152163594961166382e-01
7.491959631443023682e-02 2.161118574440479279e-02 1.387157384306192398e-02 3.744369745254516602e-01 4.664226770401000977e-01 -1.371673494577407837e-01 1.729183048009872437e-01 1.156403217464685440e-02 1.979499310255050659e-01 1.632772535085678101e-01 1.190198808908462524e-01 4.844454526901245117e-01 7.331608980894088745e-02 5.667581781744956970e-02 5.635925531387329102e-01 8.778300136327743530e-02 -1.660100072622299194e-01 2.185945510864257812e-01 2.295407950878143311e-01 2.920823991298675537e-01 -5.256058648228645325e-02 -1.669727116823196411e-01 3.569310903549194336e-02 -1.467287987470626831e-01 -6.364852190017700195e-01 -8.221246004104614258e-01 -6.265636086463928223e-01 -2.637766301631927490e-01 -5.001745223999023438e-01 -4.310811758041381836e-01 -4.447228610515594482e-01 -7.701435089111328125e-01 -2.342669963836669922e-01 -6.801673769950866699e-01 -5.043669939041137695e-01 -9.051100611686706543e-01 -7.944463491439819336e-01 -1.255523413419723511e-02 1.113660447299480438e-02 -2.097425311803817749e-01 -1.671481579542160034e-01 7.267187815159559250e-03 -4.295859858393669128e-02 -1.019896045327186584e-01 1.766301691532135010e-01 -3.048495575785636902e-02 2.699452340602874756e-01 -1.861583441495895386e-01 1.712540835142135620e-01 5.259885191917419434e-01 2.054867520928382874e-02 -3.572411835193634033e-02 5.770112276077270508e-01 2.399313300848007202e-01 1.313048899173736572e-01 1.898436248302459717e-01 7.729850709438323975e-02 2.211561352014541626e-01 4.975908622145652771e-02 9.174364805221557617e-02 -3.768718242645263672e-02 3.078184425830841064e-01
-2.497662901878356934e-01 -1.729417443275451660e-01 -2.152481824159622192e-01 2.513481378555297852e-01 -9.944749623537063599e-02 -2.138598076999187469e-02 2.871837019920349121e-01 -2.013099752366542816e-02 -1.045099925249814987e-02 -1.513737812638282776e-02 2.538188919425010681e-02 2.974126338958740234e-01 3.249951601028442383e-01 -1.614340394735336304e-01 1.285492330789566040e-01 1.132914796471595764e-01 -2.685377001762390137e-01 -1.782809346914291382e-01 -7.187676429748535156e-02 3.931884095072746277e-02 5.021509528160095215e-02 -9.052640199661254883e-02 -6.011356413364410400e-02 -2.222600430250167847e-01 -3.694621622562408447e-01 -3.017117679119110107e-01 -8.464870452880859375e-01 -7.683722972869873047e-01 -7.702236771583557129e-01 -1.053236007690429688e+00 -9.322636127471923828e-01 -7.794523835182189941e-01 -7.528640627861022949e-01 -8.187807798385620117e-01 -8.133835792541503906e-01 -3.473391830921173096e-01 -4.962720572948455811e-01 -4.381405413150787354e-01 -4.128991663455963135e-01 -1.138454675674438477e-01 -1.149136126041412354e-01 -8.447145670652389526e-02 -3.861026465892791748e-01 -3.249382972717285156e-01 -2.260849326848983765e-01 8.036929182708263397e-03 5.043932050466537476e-02 8.626325428485870361e-02 2.620579004287719727e-01 1.617483422160148621e-02 -3.594656586647033691e-01 -3.639846667647361755e-02 2.424270510673522949e-01 2.569685578346252441e-01 -1.945100724697113037e-02 -2.798667848110198975e-01 -1.651407182216644287e-01 1.369068920612335205e-01 1.578765660524368286e-01 -7.379321008920669556e-02 2.293399348855018616e-02 6.852846592664718628e-02
-5.648415088653564453e-01 -1.162109896540641785e-01 -2.334669604897499084e-02 3.278748393058776855e-01 -1.696233451366424561e-01 -1.315865665674209595e-01 -1.606345735490322113e-02 2.120854705572128296e-01 2.688643932342529297e-01 -3.107650950551033020e-02 -1.984164714813232422e-01 1.320676803588867188e-01 1.341416537761688232e-01 3.213963657617568970e-02 8.674076525494456291e-04 9.350483305752277374e-03 -1.368777751922607422e-01 3.980464860796928406e-02 1.149404868483543396e-01 -1.369852013885974884e-02 -1.777612976729869843e-02 9.791185706853866577e-02 -2.114948481321334839e-01 -3.777645230293273926e-01 -2.480830252170562744e-01 -2.802198827266693115e-01 -6.470819115638732910e-01 -8.018261194229125977e-01 -4.669420719146728516e-01 -9.457429647445678711e-01 -8.722001910209655762e-01 -4.382598698139190674e-01 -3.688627779483795166e-01 -7.035807371139526367e-01 -2.902333736419677734e-01 1.264527142047882080e-01 -1.515552401542663574e-01 -4.577540159225463867e-01 -2.873580157756805420e-01 -1.924959756433963776e-02 -1.431739777326583862e-01 8.160337805747985840e-02 -2.695602774620056152e-01 -1.273195594549179077e-01 3.031412698328495026e-02 5.691803246736526489e-02 -2.134140878915786743e-01 -5.047489330172538757e-02 5.133232474327087402e-02 -1.661064624786376953e-01 -2.705664634704589844e-01 -1.057043671607971191e-02 2.740010023117065430e-01 -2.266193367540836334e-02 -1.671143174171447754e-01 -1.575586199760437012e-01 1.752676367759704590e-01 2.081279456615447998e-01 5.434188619256019592e-02 -4.300142228603363037e-01 4.542529117316007614e-03 -5.371893197298049927e-02
-8.679353445768356323e-02 -2.147987633943557739e-01 -2.420548349618911743e-01 1.260612607002258301e-01 -2.020941078662872314e-01 1.240298748016357422e-01 6.060317531228065491e-02 -1.634055376052856445e-01 -1.008877605199813843e-01 2.418807242065668106e-03 -1.991430819034576416e-01 1.921805888414382935e-01 1.689709872007369995e-01 2.763618826866149902e-01 2.132615447044372559e-01 8.216214179992675781e-02 -9.654782712459564209e-03 -7.073803991079330444e-02 -1.374800801277160645e-01 -2.567196451127529144e-02 -1.189717575907707214e-01 1.748113483190536499e-01 -4.655841290950775146e-01 -3.067332506179809570e-01 -2.795734703540802002e-01 1.383811533451080322e-01 -3.622190654277801514e-02 2.016034871339797974e-01 -1.826025992631912231e-01 -3.441475927829742432e-01 -3.280536532402038574e-01 -3.274906277656555176e-01 -6.155650317668914795e-02 -1.161382198333740234e-01 -2.475571334362030029e-01 -8.633571118116378784e-02 -4.046150743961334229e-01 -4.751267731189727783e-01 -2.912845015525817871e-01 -1.190272346138954163e-01 -4.209335893392562866e-02 -1.191845815628767014e-02 -3.001941144466400146e-01 1.364917159080505371e-01 4.219406843185424805e-02 -2.281556725502014160e-01 -1.199024841189384460e-01 4.154419600963592529e-01 -1.766120344400405884e-01 -3.358420915901660919e-03 -9.085817635059356689e-02 8.657407760620117188e-02 1.175504270941019058e-02 -3.490435183048248291e-01 -2.508170902729034424e-02 -1.876615434885025024e-01 -1.279818862676620483e-01 3.390460014343261719e-01 -1.002259701490402222e-01 -3.687084317207336426e-01 2.200535386800765991e-01 2.938435673713684082e-01
-2.579282820224761963e-01 -2.881477773189544678e-01 -1.532220244407653809e-01 4.451013635843992233e-03 -3.004655539989471436e-01 -3.577423095703125000e-02 3.364671766757965088e-02 -1.091818362474441528e-01 -3.325784578919410706e-02 2.243562638759613037e-01 7.331398129463195801e-02 1.293213218450546265e-01 1.149041205644607544e-01 -1.818356364965438843e-01 1.987073123455047607e-01 3.255894407629966736e-02 -3.072925098240375519e-02 1.488194167613983154e-01 -2.287556044757366180e-02 1.709256321191787720e-01 5.981931835412979126e-02 2.508111596107482910e-01 2.271075919270515442e-02 1.281540244817733765e-01 -1.840565800666809082e-01 -7.139870524406433105e-02 -9.162814915180206299e-02 2.156586758792400360e-02 -2.547102272510528564e-01 -9.462220221757888794e-02 -5.298512801527976990e-02 -3.086938261985778809e-01 -6.870648264884948730e-02 -1.598257571458816528e-01 -5.286190509796142578e-01 -3.409986495971679688e-01 -2.409412115812301636e-01 -7.315771281719207764e-02 -1.470540650188922882e-02 1.536782532930374146e-01 -2.521747350692749023e-01 -2.357377558946609497e-01 -1.589597910642623901e-01 7.305575907230377197e-02 -2.781237661838531494e-01 -6.087942793965339661e-02 -3.290946409106254578e-02 -2.679145634174346924e-01 -5.039107054471969604e-02 1.424519438296556473e-02 -4.294125735759735107e-02 -2.629143744707107544e-02 -8.549538999795913696e-02 -1.799899488687515259e-01 -1.292848736047744751e-01 -4.748148098587989807e-02 2.097074985504150391e-01 3.094630837440490723e-01 1.091674715280532837e-01 8.274868875741958618e-02 3.105486929416656494e-01 -8.899176865816116333e-02
-2.874911129474639893e-01 -1.942327171564102173e-01 7.788608968257904053e-02 1.140147298574447632e-01 -1.419397592544555664e-01 -4.128446429967880249e-02 7.176283001899719238e-02 -9.444281458854675293e-02 -3.408014029264450073e-02 4.827346280217170715e-02 8.690118789672851562e-03 4.300468415021896362e-02 8.126361668109893799e-02 -1.184036135673522949e-01 6.021425873041152954e-02 -5.535113438963890076e-02 -1.906429529190063477e-01 -8.554715663194656372e-02 -2.036827951669692993e-01 -3.109900057315826416e-01 -3.196395337581634521e-01 -3.067425787448883057e-01 -3.327918946743011475e-01 -1.124941259622573853e-01 2.341654896736145020e-01 -2.012966722249984741e-01 -5.267817974090576172e-01 -1.537509858608245850e-01 -2.745691537857055664e-01 -1.629547774791717529e-01 -2.973963916301727295e-01 -2.672975696623325348e-02 -1.519169956445693970e-01 -3.795885145664215088e-01 -4.455946385860443115e-01 1.918059736490249634e-01 7.640014588832855225e-02 -1.628474593162536621e-01 -2.062418013811111450e-01 -2.168114334344863892e-01 -2.472877055406570435e-01 -3.265517354011535645e-01 -2.255348414182662964e-01 -2.036329358816146851e-01 7.415295392274856567e-02 8.526541292667388916e-02 -2.565332502126693726e-02 9.000989049673080444e-02 1.240386292338371277e-01 2.783119678497314453e-01 1.396652609109878540e-01 7.451117504388093948e-03 3.345869481563568115e-02 -1.191157624125480652e-01 -5.017742887139320374e-02 1.355197727680206299e-01 4.622969403862953186e-02 4.309472441673278809e-01 3.023944795131683350e-01 1.739002168178558350e-01 3.082553446292877197e-01 2.404439263045787811e-02
-6.699586287140846252e-03 -6.897589564323425293e-02 -9.573718905448913574e-02 2.677586972713470459e-01 3.230073302984237671e-02 -6.479422003030776978e-02 4.264651238918304443e-02 4.271480813622474670e-02 8.482052385807037354e-02 3.031959235668182373e-01 6.426271200180053711e-01 2.497019171714782715e-01 1.986148357391357422e-01 1.544934511184692383e-01 2.192793339490890503e-01 -1.372597515583038330e-01 -9.936115890741348267e-02 -7.569569349288940430e-02 -1.892098784446716309e-02 7.309528440237045288e-02 -6.461924314498901367e-02 -3.271108865737915039e-02 -2.312459051609039307e-01 -3.526640310883522034e-02 2.730101346969604492e-01 1.022521965205669403e-02 -2.428859621286392212e-01 1.268757283687591553e-01 7.150732725858688354e-02 -1.523324009031057358e-02 -3.071861863136291504e-01 -5.247001051902770996e-01 9.689206257462501526e-03 -1.318196505308151245e-01 -4.536561667919158936e-01 -1.657757908105850220e-01 8.509699255228042603e-02 -3.756994605064392090e-01 -2.493632584810256958e-01 3.628495037555694580e-01 8.943213522434234619e-02 4.181783180683851242e-03 3.695791587233543396e-02 9.922185540199279785e-02 -4.246063996106386185e-03 1.662949323654174805e-01 2.229038253426551819e-02 1.350285261869430542e-01 6.012839265167713165e-03 2.700534462928771973e-01 2.101634144783020020e-01 2.819128632545471191e-01 1.920228004455566406e-01 2.426081746816635132e-01 2.096150070428848267e-01 1.606257259845733643e-01 1.281851530075073242e-02 1.915242671966552734e-01 1.559993773698806763e-01 -5.025240592658519745e-03 2.123410254716873169e-01 2.264372110366821289e-01
1.838474720716476440e-01 2.946538329124450684e-01 5.187620595097541809e-02 -1.048128753900527954e-01 8.051799237728118896e-02 9.642809629440307617e-02 2.218994498252868652e-01 -1.029311772435903549e-02 9.975557774305343628e-02 3.293005824089050293e-01 5.382002592086791992e-01 2.956507503986358643e-01 -3.716216236352920532e-02 -7.154806703329086304e-02 2.223377674818038940e-01 2.921319194138050079e-02 -9.420613199472427368e-02 -1.509377360343933105e-01 -4.534529149532318115e-01 -2.996965944766998291e-01 -7.274603098630905151e-02 1.431192457675933838e-01 1.173371896147727966e-01 7.502652704715728760e-02 1.166502162814140320e-01 1.518685072660446167e-01 -8.568090945482254028e-02 4.173615481704473495e-03 7.572422176599502563e-02 1.887126117944717407e-01 -8.174908906221389771e-02 -1.871729344129562378e-01 -4.098150134086608887e-02 3.683847840875387192e-03 1.279352307319641113e-01 -7.003679126501083374e-02 -1.114166751503944397e-01 1.497629284858703613e-01 -5.836834758520126343e-02 3.927225470542907715e-01 1.494477391242980957e-01 -2.132584601640701294e-01 7.802886422723531723e-03 6.164846196770668030e-02 -1.123707890510559082e-01 1.260459516197443008e-02 3.301367461681365967e-01 1.461616903543472290e-02 2.773928642272949219e-01 4.178633093833923340e-01 1.289315372705459595e-01 -9.648483991622924805e-02 -3.022864088416099548e-02 2.264272421598434448e-01 3.862744569778442383e-01 2.816838026046752930e-01 1.657916456460952759e-01 1.824704408645629883e-01 1.689808666706085205e-01 1.272055506706237793e-01 1.097200065851211548e-01 4.378025233745574951e-02
-1.697122603654861450e-01 -3.368280827999114990e-01 -1.183258369565010071e-01 -7.277165353298187256e-02 1.629677712917327881e-01 1.911283731460571289e-01 1.270678937435150146e-01 -5.065661668777465820e-02 -7.030202448368072510e-02 9.826128184795379639e-02 4.097886085510253906e-01 4.198352992534637451e-01 -4.973528534173965454e-02 4.433196038007736206e-03 2.378538437187671661e-02 8.051747083663940430e-02 -3.870715200901031494e-01 -1.337615251541137695e-01 9.623320400714874268e-02 -1.215135827660560608e-01 -2.574895620346069336e-01 -5.005623698234558105e-01 1.315673440694808960e-01 -1.387809813022613525e-01 -8.014604449272155762e-02 3.488134592771530151e-02 -9.609921835362911224e-03 -2.724773995578289032e-02 1.782838255167007446e-01 2.745920093730092049e-03 -1.152168065309524536e-01 7.995220273733139038e-02 1.666201651096343994e-01 -2.326218597590923309e-02 -1.478455960750579834e-01 -1.442834734916687012e-01 -2.574461977928876877e-03 -5.928854644298553467e-02 -8.986563235521316528e-02 -3.761226832866668701e-01 -1.893778592348098755e-01 -1.416834443807601929e-01 -6.394525617361068726e-02 -1.333433985710144043e-01 -1.171493995934724808e-02 3.749305754899978638e-02 2.011584341526031494e-01 4.375627264380455017e-02 1.297343075275421143e-01 2.980194091796875000e-01 1.309190411120653152e-02 -2.935644686222076416e-01 -2.403684519231319427e-02 1.012645382434129715e-02 1.710358411073684692e-01 2.991784811019897461e-01 1.139046102762222290e-01 1.569917201995849609e-01 6.975295953452587128e-03 1.885482221841812134e-01 6.206898763775825500e-02 8.891975879669189453e-02
1.541880369186401367e-01 -1.026282534003257751e-01 2.819427549839019775e-01 1.924858689308166504e-01 3.595860674977302551e-02 3.777244687080383301e-01 1.196150109171867371e-01 -2.295406721532344818e-02 6.347572803497314453e-02 3.267111778259277344e-01 5.167424678802490234e-01 4.288115501403808594e-01 -8.695074170827865601e-02 -2.322127809748053551e-03 -2.862220630049705505e-02 2.578713372349739075e-02 1.028673574328422546e-01 1.731562465429306030e-01 8.028618991374969482e-02 -1.676005497574806213e-02 2.181092798709869385e-01 -4.758394509553909302e-02 -1.396421641111373901e-01 4.454437270760536194e-02 3.119315505027770996e-01 4.292893409729003906e-02 3.156462684273719788e-02 2.571871578693389893e-01 -2.452283538877964020e-02 -1.402534451335668564e-02 -1.645247638225555420e-01 5.321961268782615662e-02 2.147488892078399658e-01 -4.495566338300704956e-02 2.956267260015010834e-02 2.115142345428466797e-01 -5.817945301532745361e-02 -3.627991676330566406e-01 -1.329629570245742798e-01 1.439098417758941650e-01 7.534188032150268555e-02 -1.854725927114486694e-01 -9.328932315111160278e-02 1.057754606008529663e-01 1.323501318693161011e-01 -1.156908087432384491e-02 4.742949604988098145e-01 2.160301208496093750e-01 3.572368919849395752e-01 1.426292359828948975e-01 7.421227544546127319e-02 -7.563913823105394840e-04 -1.785974204540252686e-01 4.384581407066434622e-04 2.966434061527252197e-01 3.823251426219940186e-01 3.298656046390533447e-01 2.138895243406295776e-01 3.580732345581054688e-01 2.817441523075103760e-01 1.436640471220016479e-01 1.101106777787208557e-01
-3.925485014915466309e-01 -3.200460076332092285e-01 -1.006861552596092224e-01 1.067762151360511780e-01 2.999390661716461182e-01 2.929304540157318115e-01 1.137745976448059082e-01 -6.704361736774444580e-02 -9.948537684977054596e-03 2.844969630241394043e-01 4.479974508285522461e-01 1.013989150524139404e-01 1.394658386707305908e-01 1.142453681677579880e-02 -3.408437594771385193e-02 3.692783042788505554e-02 -1.675860434770584106e-01 -2.894205152988433838e-01 -1.853773146867752075e-01 7.564405351877212524e-02 1.290315836668014526e-01 4.886535108089447021e-01 -1.498642284423112869e-02 9.064279496669769287e-02 -1.387116611003875732e-01 -3.246574103832244873e-02 -5.731779336929321289e-02 1.729849576950073242e-01 2.816136926412582397e-02 1.796336024999618530e-01 4.737232625484466553e-02 7.086290419101715088e-02 2.609730660915374756e-01 -5.792515818029642105e-03 -8.516332507133483887e-02 -4.247355163097381592e-01 -1.771185547113418579e-01 -1.345376297831535339e-02 3.506302461028099060e-02 3.351571261882781982e-01 2.126234769821166992e-01 -1.323624551296234131e-01 -1.911003589630126953e-01 2.583415061235427856e-02 -5.761702358722686768e-02 -1.464623361825942993e-01 2.920535206794738770e-01 2.768487334251403809e-01 3.298908472061157227e-01 2.186721712350845337e-01 1.375459432601928711e-01 -1.770482063293457031e-01 -3.567743301391601562e-01 2.429075092077255249e-01 3.478290438652038574e-01 4.238130450248718262e-01 7.815247029066085815e-02 7.514914125204086304e-02 3.551195561885833740e-01 7.286392152309417725e-02 7.560694217681884766e-02 1.373802311718463898e-02
8.570992946624755859e-02 -1.222156435251235962e-01 -3.491073101758956909e-02 -6.278280913829803467e-02 -7.937476038932800293e-02 2.220207899808883667e-01 -3.388554751873016357e-01 4.208370298147201538e-02 -1.828648149967193604e-01 -1.718605607748031616e-01 -9.402617812156677246e-02 1.870386898517608643e-01 1.309452950954437256e-02 -6.947614997625350952e-02 -6.635992228984832764e-02 -3.455046191811561584e-02 -9.539149701595306396e-02 -1.509646624326705933e-01 -1.796586960554122925e-01 -3.026282787322998047e-01 -2.114751785993576050e-01 -4.408352822065353394e-02 -2.025347203016281128e-01 1.787490844726562500e-01 1.404366269707679749e-02 8.989105373620986938e-02 4.317811224609613419e-03 2.461558580398559570e-01 3.000557124614715576e-01 8.362590521574020386e-02 -1.595880985260009766e-01 1.270188242197036743e-01 3.196476697921752930e-01 -8.936762809753417969e-02 -1.419312655925750732e-01 5.826764740049839020e-03 2.905426360666751862e-02 1.980455964803695679e-01 1.461657732725143433e-01 -6.379774957895278931e-02 -1.092614904046058655e-01 -1.104681193828582764e-01 -9.896589908748865128e-04 -6.163509190082550049e-02 1.053279936313629150e-01 2.112571150064468384e-01 -3.211996518075466156e-03 9.892835468053817749e-02 -4.141989722847938538e-02 -2.566682100296020508e-01 -2.420032769441604614e-01 -3.186584115028381348e-01 -8.858546614646911621e-02 1.215620152652263641e-02 6.618940830230712891e-02 2.276830822229385376e-01 1.850147992372512817e-01 -1.003118157386779785e-01 2.964057400822639465e-02 -1.273438334465026855e-01 3.868433833122253418e-02 -3.253819886595010757e-03
-2.538649439811706543e-01 -7.989759743213653564e-02 -3.073078393936157227e-01 -6.450100243091583252e-02 -9.569732099771499634e-02 2.706745564937591553e-01 -5.454231798648834229e-02 -1.620045490562915802e-02 1.072834357619285583e-01 -2.915050983428955078e-01 -2.796638906002044678e-01 -8.289147913455963135e-02 -4.693714976310729980e-01 -3.843896985054016113e-01 -2.652324736118316650e-02 -4.374496042728424072e-01 -1.974390000104904175e-01 1.119920015335083008e-01 1.893300265073776245e-01 -1.512394994497299194e-01 -1.593167185783386230e-01 5.630217492580413818e-02 -1.029838621616363525e-02 -1.324774473905563354e-01 2.881339984014630318e-03 2.583296895027160645e-01 -9.447186440229415894e-02 6.658950448036193848e-02 -9.183574467897415161e-02 -1.070064380764961243e-01 1.149361878633499146e-01 -2.491943836212158203e-01 -6.749611813575029373e-03 -8.581799268722534180e-02 -1.925242394208908081e-01 -6.144519895315170288e-02 -1.344184428453445435e-01 -1.834179610013961792e-01 1.716098934412002563e-01 3.688714802265167236e-01 4.442298412322998047e-02 -9.674165397882461548e-02 2.815771102905273438e-01 1.394856125116348267e-01 -1.726782768964767456e-01 -6.452259421348571777e-02 1.111657023429870605e-01 -2.007306218147277832e-01 -1.708924621343612671e-01 -1.591643244028091431e-01 -3.678016662597656250e-01 -5.415582656860351562e-01 -9.264670312404632568e-02 1.829650066792964935e-02 2.003255635499954224e-01 2.567681968212127686e-01 1.452230215072631836e-01 -3.094777166843414307e-01 -2.147279828786849976e-01 -6.837178766727447510e-02 -6.409016996622085571e-02 -9.513465315103530884e-02
-1.128482073545455933e-01 5.545906350016593933e-02 1.782269626855850220e-01 1.762212067842483521e-01 -2.827237844467163086e-01 -1.075295880436897278e-01 2.310141921043395996e-01 2.920587062835693359e-01 2.102319523692131042e-02 -1.706627011299133301e-01 -2.825841307640075684e-01 -5.511045455932617188e-03 -1.816065609455108643e-01 -1.992452442646026611e-01 -7.149529643356800079e-03 -7.239200174808502197e-03 -1.683760434389114380e-01 -6.352493911981582642e-02 3.064293563365936279e-01 1.535507589578628540e-01 2.624708712100982666e-01 4.853336811065673828e-01 1.763732135295867920e-01 4.567625932395458221e-03 -5.614047870039939880e-02 7.463638484477996826e-02 -3.834294974803924561e-01 1.490152180194854736e-01 -1.973402500152587891e-02 5.494777113199234009e-02 -1.312142312526702881e-01 9.531535208225250244e-02 1.676761955022811890e-01 -2.404975444078445435e-01 -2.356932461261749268e-01 9.561080485582351685e-02 1.798141598701477051e-01 2.570381760597229004e-01 3.406404554843902588e-01 4.509592950344085693e-01 9.446188807487487793e-02 3.848894499242305756e-03 -8.385176956653594971e-02 -5.172601714730262756e-02 -6.941107660531997681e-02 2.287039607763290405e-01 1.661331355571746826e-01 4.094209894537925720e-02 -1.167584136128425598e-01 -2.389819622039794922e-01 -6.985238939523696899e-02 1.038366779685020447e-01 3.746851682662963867e-01 3.847985565662384033e-01 3.114857375621795654e-01 -1.852596551179885864e-01 3.056682087481021881e-02 -5.554655939340591431e-02 5.079971253871917725e-02 3.036625497043132782e-02 1.651418060064315796e-01 -4.618010669946670532e-02
-1.151954084634780884e-01 9.641338139772415161e-02 2.783949375152587891e-01 -4.718520119786262512e-02 9.904477745294570923e-02 -2.182891033589839935e-02 2.839454710483551025e-01 4.839239716529846191e-01 1.585164666175842285e-01 -3.887204453349113464e-02 1.246002539992332458e-01 1.672979742288589478e-01 2.917992770671844482e-01 3.699770197272300720e-02 1.261482536792755127e-01 1.334250122308731079e-01 -3.848075866699218750e-01 -7.671401649713516235e-02 -4.238525032997131348e-02 2.970054149627685547e-01 2.807313203811645508e-01 1.961620002985000610e-01 6.068665161728858948e-02 1.557510644197463989e-01 7.747866213321685791e-02 2.053763717412948608e-01 2.313673496246337891e-02 2.019562423229217529e-01 1.012607514858245850e-01 -9.748688340187072754e-02 -1.427740454673767090e-01 5.633021146059036255e-02 1.145789938163943589e-04 1.453991830348968506e-01 -1.744414567947387695e-01 1.486988924443721771e-02 3.471724390983581543e-01 2.891178727149963379e-01 3.182071447372436523e-01 -3.215952217578887939e-02 -9.822950512170791626e-02 -2.825777791440486908e-02 8.252985030412673950e-02 -1.509123891592025757e-01 -6.681480910629034042e-03 1.226601228117942810e-01 1.548569053411483765e-01 1.167304441332817078e-02 1.079142466187477112e-01 1.478872299194335938e-01 -5.424252152442932129e-02 1.026614010334014893e-01 3.325518369674682617e-01 4.844568073749542236e-01 1.459152400493621826e-01 2.711982093751430511e-02 2.126791179180145264e-01 4.577272757887840271e-02 4.055025875568389893e-01 2.242401689291000366e-01 2.340176552534103394e-01 -1.174427345395088196e-01
2.778416574001312256e-01 1.700948178768157959e-01 2.383929342031478882e-01 1.816933602094650269e-01 1.180596277117729187e-01 1.769466400146484375e-01 2.578422427177429199e-01 2.629991769790649414e-01 -1.372287981212139130e-02 -1.250180900096893311e-01 2.752226889133453369e-01 4.014510214328765869e-01 2.379170358180999756e-01 3.754536807537078857e-01 1.327533572912216187e-01 -1.110892966389656067e-01 -2.010771483182907104e-01 -4.458881169557571411e-02 7.832028786651790142e-04 1.419068127870559692e-01 1.266802549362182617e-01 2.121144235134124756e-01 2.143265008926391602e-01 3.141111135482788086e-01 9.319295734167098999e-02 3.417708873748779297e-01 1.322792023420333862e-01 3.899420499801635742e-01 3.956452310085296631e-01 -2.123962901532649994e-02 2.551688067615032196e-02 1.255493760108947754e-01 3.033445477485656738e-01 3.284933269023895264e-01 2.314847409725189209e-01 2.249166071414947510e-01 4.206535518169403076e-01 3.829235434532165527e-01 1.993191614747047424e-02 6.969349086284637451e-02 1.533297300338745117e-01 4.845833778381347656e-02 1.595366746187210083e-01 1.337602138519287109e-01 2.716345191001892090e-01 1.804441660642623901e-01 3.497494757175445557e-01 1.723023205995559692e-01 1.181547269225120544e-01 2.730104029178619385e-01 1.247156485915184021e-01 3.862554132938385010e-01 -1.667520031332969666e-02 9.861886501312255859e-02 3.302388489246368408e-01 1.242223531007766724e-01 2.396262735128402710e-01 3.404579460620880127e-01 3.547213673591613770e-01 3.377796709537506104e-01 3.894332051277160645e-01 7.618229836225509644e-02
2.526921033859252930e-01 1.504141688346862793e-01 7.197235524654388428e-02 3.546737730503082275e-01 5.152410641312599182e-02 2.002881616353988647e-01 3.968891501426696777e-02 -7.397922873497009277e-02 -1.437729001045227051e-01 4.026721715927124023e-01 5.664446949958801270e-01 2.979916632175445557e-01 3.645750880241394043e-01 -3.294972330331802368e-02 -3.468597307801246643e-02 1.478961110115051270e-01 -2.514259330928325653e-02 1.656800508499145508e-01 5.410342290997505188e-02 6.693714112043380737e-02 -1.365907192230224609e-01 1.171323284506797791e-01 -5.205386504530906677e-02 -2.061243802309036255e-01 -3.584366738796234131e-01 -9.450731426477432251e-02 -1.515397131443023682e-01 3.051240742206573486e-01 1.856926083564758301e-01 4.669884964823722839e-02 1.342167705297470093e-01 2.457700520753860474e-01 3.543291687965393066e-01 2.235795408487319946e-01 -2.189396172761917114e-01 -2.513102591037750244e-01 1.254481673240661621e-01 1.828301250934600830e-01 -1.104181557893753052e-01 -1.837930679321289062e-01 -2.357942909002304077e-01 5.857095122337341309e-03 1.705036759376525879e-01 1.325356066226959229e-01 1.071711629629135132e-01 1.148151755332946777e-01 5.703420192003250122e-02 3.400630652904510498e-01 3.071172833442687988e-01 2.251071482896804810e-01 1.493511945009231567e-01 2.392785847187042236e-01 -8.502699434757232666e-02 -2.911470234394073486e-01 1.001837849617004395e-02 9.801904857158660889e-02 6.797662377357482910e-02 4.036314785480499268e-01 1.558377742767333984e-01 1.436994373798370361e-01 3.721161186695098877e-01 2.772116065025329590e-01
4.806364476680755615e-01 1.674705892801284790e-01 1.040512025356292725e-01 2.629310786724090576e-01 3.343680799007415771e-01 -1.200485751032829285e-01 -2.788994014263153076e-01 -2.723523676395416260e-01 -1.153572350740432739e-01 2.175096124410629272e-01 3.958894610404968262e-01 2.249623835086822510e-01 2.369768768548965454e-01 3.678190708160400391e-01 2.564334869384765625e-01 -1.988406032323837280e-01 -4.197967052459716797e-02 1.486276090145111084e-01 7.142718136310577393e-02 3.223469257354736328e-01 5.596865713596343994e-02 1.062094047665596008e-01 -2.583387494087219238e-01 -3.066764473915100098e-01 -2.467159926891326904e-01 -1.400260776281356812e-01 -1.780951321125030518e-01 1.449714303016662598e-01 -4.554408078547567129e-04 6.869793683290481567e-02 -7.407691329717636108e-02 3.271950036287307739e-02 -4.599843174219131470e-02 -2.714703083038330078e-01 -4.938681423664093018e-01 -1.903149634599685669e-01 6.043260172009468079e-02 -4.698631912469863892e-02 -1.185082197189331055e-01 3.442607447504997253e-02 9.269400686025619507e-02 1.133445873856544495e-01 1.994597725570201874e-02 1.046231761574745178e-01 -2.157450914382934570e-01 -1.410783827304840088e-01 1.044979169964790344e-01 3.940597474575042725e-01 3.350450098514556885e-02 -9.604527056217193604e-02 -1.839297711849212646e-01 -7.362521439790725708e-02 -1.370923519134521484e-01 -2.514474093914031982e-01 -3.992403671145439148e-02 1.399986892938613892e-01 2.095478475093841553e-01 4.397558569908142090e-01 3.959689736366271973e-01 3.093118071556091309e-01 1.576874256134033203e-01 1.692137569189071655e-01
3.087518513202667236e-01 4.667782038450241089e-02 3.760211169719696045e-01 3.072356581687927246e-01 1.419142335653305054e-01 1.450169086456298828e-01 -6.184356659650802612e-02 6.555959582328796387e-02 3.964705392718315125e-02 7.618594914674758911e-02 2.075773663818836212e-02 -4.100859165191650391e-02 1.577443778514862061e-01 -2.315998636186122894e-02 2.236038446426391602e-01 2.422439754009246826e-01 3.916688561439514160e-01 5.937092900276184082e-01 1.998517662286758423e-01 3.112512528896331787e-01 2.360314577817916870e-01 1.936230510473251343e-01 -2.741521410644054413e-02 -1.419592946767807007e-01 9.296791628003120422e-03 2.844426035881042480e-01 2.483601570129394531e-01 2.520865499973297119e-01 1.616934388875961304e-01 8.216375857591629028e-02 -3.767265006899833679e-02 2.360149174928665161e-01 2.579086124897003174e-01 -2.157449023798108101e-03 -1.485030911862850189e-02 -5.798792839050292969e-02 -8.521057665348052979e-02 4.805747419595718384e-02 2.100804895162582397e-01 1.671842336654663086e-01 3.187181949615478516e-01 4.247527718544006348e-01 3.545466065406799316e-01 4.701572358608245850e-01 2.695286870002746582e-01 2.719417512416839600e-01 3.503490984439849854e-01 -1.002949196845293045e-02 2.026699483394622803e-01 2.611263468861579895e-02 -3.184100389480590820e-01 -4.094832539558410645e-01 -1.629048138856887817e-01 3.997195512056350708e-03 1.255970597267150879e-01 3.135521709918975830e-01 3.964174985885620117e-01 4.400186538696289062e-01 1.585658788681030273e-01 1.939772516489028931e-01 4.344368875026702881e-01 3.406642377376556396e-02
2.503459155559539795e-01 2.424887567758560181e-01 -2.567161992192268372e-02 4.076470434665679932e-02 -1.376793682575225830e-01 8.764352649450302124e-03 3.370966017246246338e-01 1.921593844890594482e-01 4.321473091840744019e-02 -8.358690142631530762e-02 -8.312306366860866547e-03 3.495842814445495605e-01 3.097209632396697998e-01 5.719067156314849854e-02 1.251000165939331055e-01 2.352162450551986694e-01 2.399998009204864502e-01 7.459747791290283203e-02 8.992235176265239716e-03 1.819361895322799683e-01 2.457326352596282959e-01 2.030910104513168335e-01 1.245219931006431580e-01 4.800246357917785645e-01 3.571049571037292480e-01 5.466052293777465820e-01 3.237314820289611816e-01 1.956048905849456787e-01 2.943835258483886719e-01 3.983196914196014404e-01 3.059990704059600830e-01 3.087308704853057861e-01 8.496450632810592651e-02 -4.557947104331105947e-04 1.332128327339887619e-02 4.017266035079956055e-01 4.290144145488739014e-01 3.746517598628997803e-01 2.371362149715423584e-01 1.636958867311477661e-01 5.137915164232254028e-02 1.905977725982666016e-01 2.259425669908523560e-01 -3.051288612186908722e-02 1.377733498811721802e-01 5.755796283483505249e-02 -1.689593866467475891e-02 -1.242536529898643494e-01 3.789680302143096924e-01 3.784411847591400146e-01 1.302307397127151489e-01 2.191695421934127808e-01 4.225415643304586411e-03 2.718805074691772461e-01 5.246568918228149414e-01 2.123180329799652100e-01 2.504207193851470947e-01 3.251903951168060303e-01 1.510752290487289429e-01 2.554023861885070801e-01 3.647150397300720215e-01 8.335950225591659546e-02
1.318842321634292603e-01 1.936288923025131226e-01 2.144825011491775513e-01 -2.647526003420352936e-02 -6.183892115950584412e-02 -1.531856954097747803e-01 4.774320870637893677e-02 2.668073168024420738e-03 3.376673534512519836e-02 -2.841566130518913269e-02 2.033025473356246948e-01 3.264135420322418213e-01 3.887958824634552002e-01 3.192789256572723389e-01 4.305580556392669678e-01 -1.422931551933288574e-01 -1.382003426551818848e-01 3.620619326829910278e-02 -1.769664883613586426e-01 -2.062793672084808350e-01 4.260792136192321777e-01 2.540082335472106934e-01 3.708847761154174805e-01 3.608270585536956787e-01 3.062410652637481689e-01 4.029055833816528320e-01 4.960077404975891113e-01 5.816289782524108887e-01 2.270080447196960449e-01 6.518614888191223145e-01 4.815379679203033447e-01 3.211317658424377441e-01 1.858715415000915527e-01 2.595286071300506592e-01 3.682963252067565918e-01 4.276429414749145508e-01 2.874247133731842041e-01 6.163937449455261230e-01 5.582661628723144531e-01 6.037775278091430664e-01 -3.710461780428886414e-02 -2.222499400377273560e-01 -8.793470263481140137e-02 -7.020639628171920776e-02 7.220564782619476318e-02 3.616558313369750977e-01 2.142334431409835815e-01 3.659225702285766602e-01 2.530373334884643555e-01 1.046739965677261353e-01 5.053675919771194458e-02 1.261381804943084717e-01 1.723112463951110840e-01 3.348117768764495850e-01 2.991693913936614990e-01 1.117264032363891602e-01 1.008645296096801758e-01 3.422904014587402344e-01 2.790810465812683105e-01 9.611314535140991211e-02 1.438893675804138184e-01 -1.335291191935539246e-02
5.151959061622619629e-01 1.700597852468490601e-01 3.991759940981864929e-02 7.854550331830978394e-02 -1.955619640648365021e-02 1.339939534664154053e-01 1.458182185888290405e-01 1.297079175710678101e-01 2.812899351119995117e-01 2.216048985719680786e-01 3.723837807774543762e-02 1.907744705677032471e-01 2.578123509883880615e-01 5.307083204388618469e-02 1.579228788614273071e-01 1.583060026168823242e-01 1.246646568179130554e-01 5.125849843025207520e-01 2.203525304794311523e-01 8.399868011474609375e-02 3.147771954536437988e-01 2.298442274332046509e-01 1.561766490340232849e-02 1.041847392916679382e-01 3.067152500152587891e-01 3.069632053375244141e-01 2.756404280662536621e-01 5.397190451622009277e-01 4.846704900264739990e-01 3.495452404022216797e-01 3.072537481784820557e-01 3.073023557662963867e-01 2.163802534341812134e-01 2.671530544757843018e-01 2.060937285423278809e-01 2.671591043472290039e-01 2.301717102527618408e-01 1.784016937017440796e-01 4.273211583495140076e-02 2.674182355403900146e-01 3.525212109088897705e-01 -4.830625280737876892e-02 2.374273240566253662e-01 5.807641744613647461e-01 3.879296779632568359e-01 1.278826743364334106e-01 1.746210753917694092e-01 1.829740703105926514e-01 8.906318247318267822e-02 -2.420860342681407928e-02 1.094352900981903076e-01 1.638189405202865601e-01 1.455148905515670776e-01 2.434787303209304810e-01 4.537363648414611816e-01 3.136460185050964355e-01 2.454898208379745483e-01 1.900893002748489380e-01 1.215092390775680542e-01 -1.314218938350677490e-01 1.864260761067271233e-03 3.839393705129623413e-02
2.303549051284790039e-01 3.791523352265357971e-02 -1.657888144254684448e-01 -3.964838385581970215e-02 6.694892421364784241e-03 7.773098349571228027e-02 -2.707052230834960938e-01 1.054393947124481201e-01 2.817186117172241211e-01 1.534392535686492920e-01 1.857971400022506714e-01 3.702106475830078125e-01 8.272429555654525757e-02 1.051196977496147156e-01 2.170445919036865234e-01 1.227398291230201721e-01 1.519427597522735596e-01 1.635337918996810913e-01 6.421203166246414185e-02 1.907140612602233887e-01 3.487558960914611816e-01 8.073953539133071899e-02 -6.891073286533355713e-02 1.079386323690414429e-01 5.350321531295776367e-01 5.789567828178405762e-01 5.355730652809143066e-01 5.952255725860595703e-01 2.944488525390625000e-01 4.838470816612243652e-01 3.386616706848144531e-01 4.002181887626647949e-01 1.561543047428131104e-01 5.698566436767578125e-01 5.276042819023132324e-01 2.224766910076141357e-01 5.227687582373619080e-02 -2.420755336061120033e-04 -9.750002622604370117e-02 3.733713030815124512e-01 4.781920909881591797e-01 1.952891498804092407e-01 1.941886097192764282e-01 2.696036398410797119e-01 7.086724042892456055e-02 2.954530417919158936e-01 3.379467129707336426e-01 -7.142836600542068481e-02 2.975342869758605957e-01 8.639082312583923340e-02 1.178753897547721863e-01 2.178554236888885498e-01 1.177083402872085571e-01 -5.638366192579269409e-02 5.443385243415832520e-02 9.857168048620223999e-02 2.032341361045837402e-01 1.032282114028930664e-01 -3.514631092548370361e-02 9.447521716356277466e-02 -4.284925386309623718e-02 -2.128940448164939880e-02
