2.256374061107635498e-01 -1.800025999546051025e-01 -5.187577605247497559e-01 -9.627523273229598999e-02 -2.269711643457412720e-01 -1.331359297037124634e-01 -2.264582319185137749e-03 1.648527979850769043e-01 8.587075024843215942e-02 -6.301161646842956543e-02 -2.333895564079284668e-01 -2.990800142288208008e-01 -1.270650513470172882e-02 -3.113210499286651611e-01 -3.858646377921104431e-02 1.886797100305557251e-01 3.250002488493919373e-02 1.713706254959106445e-01 3.207428157329559326e-01 3.107685446739196777e-01 3.306722342967987061e-01 -3.204152360558509827e-02 3.595283031463623047e-01 8.117647469043731689e-02 -3.689096868038177490e-02 1.847230195999145508e-01 3.671790063381195068e-01 2.212081998586654663e-01 2.372935563325881958e-01 4.900459051132202148e-01 5.141551494598388672e-01 3.738079667091369629e-01 3.323927223682403564e-01 3.013583421707153320e-01 5.806663632392883301e-01 3.004557192325592041e-01 3.531506955623626709e-01 -7.663413137197494507e-02 7.241988927125930786e-02 1.210360787808895111e-02 1.895605176687240601e-01 1.103485375642776489e-01 3.822889328002929688e-01 -1.265390515327453613e-01 4.090138971805572510e-01 3.215763270854949951e-01 -4.356102645397186279e-02 -1.401953399181365967e-01 -7.371366769075393677e-02 1.611257791519165039e-01 1.975646018981933594e-01 3.217291235923767090e-01 3.329917672090232372e-05 -8.928759396076202393e-02 -6.086477041244506836e-01 -5.102515965700149536e-02 -2.252317368984222412e-01 -8.690721541643142700e-02 -2.566198110580444336e-01 -1.241979673504829407e-01 -1.251905411481857300e-01 -7.014998048543930054e-02
-2.452305108308792114e-01 -1.081709191203117371e-02 -2.831396758556365967e-01 6.076902523636817932e-02 3.479602634906768799e-01 3.365139663219451904e-01 9.006282687187194824e-02 9.234305471181869507e-02 1.338115036487579346e-01 -1.206494122743606567e-02 -1.144041344523429871e-01 -3.105382621288299561e-02 -1.670108586549758911e-01 -1.740984916687011719e-01 2.577125728130340576e-01 2.004162967205047607e-01 3.433768451213836670e-01 3.122399449348449707e-01 2.369387745857238770e-01 7.232258468866348267e-02 -3.809197247028350830e-02 -2.089459300041198730e-01 -1.480850577354431152e-01 -1.987723857164382935e-01 1.437170654535293579e-01 7.997126132249832153e-02 2.172663509845733643e-01 1.125247702002525330e-01 1.574176400899887085e-01 2.577528357505798340e-01 3.433056175708770752e-01 1.834242343902587891e-01 6.418937444686889648e-01 5.534639358520507812e-01 4.721291363239288330e-01 4.778601825237274170e-01 -6.967629492282867432e-02 -3.722954690456390381e-01 -2.182230502367019653e-01 -1.965642869472503662e-01 -5.784287676215171814e-02 1.356013417243957520e-01 1.398851424455642700e-01 2.078584730625152588e-01 1.765522509813308716e-01 3.617485463619232178e-01 -4.934164509177207947e-02 8.286295086145401001e-02 1.917064487934112549e-01 6.373535096645355225e-02 4.293122291564941406e-01 3.830635249614715576e-01 -1.578425988554954529e-02 2.266605347394943237e-01 -1.356690227985382080e-01 1.779928654432296753e-01 -2.722921781241893768e-02 2.688295021653175354e-02 -2.266704142093658447e-01 -4.188959300518035889e-02 1.839057803153991699e-01 -3.211060538887977600e-02
-1.129214465618133545e-01 2.271375209093093872e-01 1.176620721817016602e-01 1.586699672043323517e-02 3.060139715671539307e-01 3.117742240428924561e-01 2.933092974126338959e-02 5.580140277743339539e-03 2.321715056896209717e-01 -8.652810007333755493e-03 -1.986023634672164917e-01 -1.941927820444107056e-01 -2.348542213439941406e-01 8.351318538188934326e-02 1.529479473829269409e-01 2.439292520284652710e-02 -1.577186137437820435e-01 -1.433950513601303101e-01 -1.961666643619537354e-01 -1.018273010849952698e-01 2.549802660942077637e-01 3.368543982505798340e-01 2.770812511444091797e-01 1.405904442071914673e-01 1.988808214664459229e-01 1.537164300680160522e-01 4.044502377510070801e-01 1.106950789690017700e-01 -7.213331758975982666e-02 -7.716441899538040161e-02 3.510439693927764893e-01 1.689222902059555054e-01 7.903574407100677490e-02 1.863814592361450195e-01 3.645080924034118652e-01 1.236197948455810547e-01 2.686205804347991943e-01 2.096660137176513672e-01 -3.670283779501914978e-02 -2.995819412171840668e-02 -1.380517482757568359e-01 -1.592079699039459229e-01 2.805098518729209900e-02 3.077636286616325378e-02 -1.019826456904411316e-01 -1.299282163381576538e-01 1.945255696773529053e-01 1.783741414546966553e-01 4.590985830873250961e-03 -2.383470833301544189e-01 2.721519768238067627e-01 1.651796400547027588e-01 3.761478140950202942e-02 -1.520771980285644531e-01 -2.638124823570251465e-01 7.054862380027770996e-02 -1.175704523921012878e-01 -2.395536564290523529e-02 1.330195963382720947e-01 -1.146497279405593872e-01 -1.529462076723575592e-02 -8.852566592395305634e-03
-2.916099317371845245e-02 2.100213170051574707e-01 1.358954608440399170e-01 2.476432621479034424e-01 2.431868761777877808e-02 2.571426033973693848e-01 1.504152268171310425e-01 2.133783847093582153e-01 -1.218961998820304871e-01 -2.642045915126800537e-01 -1.462304741144180298e-01 -1.937812715768814087e-01 -5.860342830419540405e-02 3.530677855014801025e-01 1.855369061231613159e-01 -2.879498712718486786e-02 9.200572222471237183e-02 -2.927058935165405273e-01 -5.294594168663024902e-02 3.441347181797027588e-02 6.329099833965301514e-02 1.153710577636957169e-02 8.751207590103149414e-02 3.583150804042816162e-01 2.033674418926239014e-01 2.905344963073730469e-02 6.549943238496780396e-02 -3.800441026687622070e-01 -1.510369181632995605e-01 6.715735048055648804e-02 2.179864197969436646e-01 2.096077948808670044e-01 1.213440448045730591e-01 2.062128484249114990e-01 2.412291169166564941e-01 4.156621694564819336e-01 2.131574898958206177e-01 3.669895827770233154e-01 2.349064499139785767e-02 -2.736826241016387939e-01 -4.253459349274635315e-02 -1.679194122552871704e-01 -2.409341186285018921e-01 -4.567854404449462891e-01 -1.739927232265472412e-01 -9.676340222358703613e-02 6.026334315538406372e-02 3.163841366767883301e-01 4.193678125739097595e-02 1.047113016247749329e-01 3.131038248538970947e-01 -1.093769893050193787e-01 -8.756372332572937012e-02 1.338038593530654907e-01 8.186895400285720825e-02 -2.729233503341674805e-01 -3.682158589363098145e-01 -2.609339654445648193e-01 -4.954002425074577332e-02 1.549601107835769653e-01 1.540450602769851685e-01 2.420142889022827148e-01
9.574606269598007202e-02 3.234171867370605469e-01 8.206149935722351074e-02 2.442595809698104858e-01 1.240637898445129395e-01 2.970114648342132568e-01 -2.374586649239063263e-02 -5.601890757679939270e-02 -2.658285498619079590e-01 -5.967456698417663574e-01 -2.161623984575271606e-01 -6.596575677394866943e-02 -5.678216367959976196e-02 -1.722495853900909424e-01 -1.777369678020477295e-01 5.433743074536323547e-02 4.259219765663146973e-01 3.351711332798004150e-01 3.260518983006477356e-02 -1.136200800538063049e-01 -9.295680373907089233e-02 -8.616141229867935181e-02 -6.976010650396347046e-02 -1.453667879104614258e-01 7.369963824748992920e-02 -6.597138196229934692e-02 9.887459129095077515e-02 -3.691256940364837646e-01 -2.247005552053451538e-01 4.432931891642510891e-04 3.788530081510543823e-02 -1.899803876876831055e-01 -7.752501964569091797e-02 2.448381036520004272e-01 2.796073853969573975e-01 5.058604478836059570e-02 -1.917105913162231445e-01 -1.008013337850570679e-01 -3.097623586654663086e-01 -1.719804108142852783e-01 -6.292410939931869507e-02 9.512690454721450806e-02 2.330791950225830078e-01 2.024227827787399292e-01 3.998929262161254883e-01 2.348666787147521973e-01 -6.484746932983398438e-02 -3.167825639247894287e-01 -2.573852427303791046e-02 -2.254876792430877686e-01 -1.785922795534133911e-01 -2.378892898559570312e-02 5.611510574817657471e-02 6.954056769609451294e-02 2.481836229562759399e-01 -6.833598017692565918e-02 -1.446474790573120117e-01 -3.030810318887233734e-02 1.144671440124511719e-01 8.452080935239791870e-02 -5.292649567127227783e-02 1.000055000185966492e-01
-1.455743014812469482e-01 2.646884620189666748e-01 1.558732390403747559e-01 4.946748167276382446e-02 4.435658827424049377e-02 -1.941985785961151123e-01 -3.378511369228363037e-01 -2.093621939420700073e-01 -3.240799903869628906e-01 -8.307693004608154297e-01 -2.915132045745849609e-01 -5.034896135330200195e-01 -2.689349651336669922e-01 8.000564575195312500e-02 5.208602547645568848e-02 -1.010677069425582886e-01 -2.168995440006256104e-01 -1.595346257090568542e-02 4.498832672834396362e-02 7.447043061256408691e-02 1.074887290596961975e-01 1.366260647773742676e-01 -2.381815314292907715e-01 -1.485892236232757568e-01 -9.322862140834331512e-03 -1.749318391084671021e-01 -3.436813354492187500e-01 -5.965419411659240723e-01 -2.402965277433395386e-01 1.131476461887359619e-01 6.559197604656219482e-02 -2.485944181680679321e-01 -3.498187065124511719e-01 -1.177805364131927490e-01 3.890831023454666138e-03 -5.228148028254508972e-02 -2.224770933389663696e-01 -1.953267008066177368e-01 -2.788313627243041992e-01 -2.186373770236968994e-01 1.494649946689605713e-01 1.923978328704833984e-01 -7.089932262897491455e-02 -9.593929350376129150e-02 -3.099458813667297363e-01 -1.766579896211624146e-01 -1.679776757955551147e-01 -1.054881978780031204e-02 -2.746264040470123291e-01 -9.742008149623870850e-02 -1.441459953784942627e-01 -1.795334815979003906e-01 -1.502577960491180420e-01 -3.178043067455291748e-01 -3.329087495803833008e-01 -1.036027669906616211e-01 -1.374085992574691772e-01 -1.986696422100067139e-01 9.406548738479614258e-02 2.186445444822311401e-01 -8.126334846019744873e-02 1.666238456964492798e-01
-1.202472075819969177e-01 -5.154713988304138184e-03 1.126205474138259888e-01 9.398794919252395630e-02 -7.916718721389770508e-02 -1.778394281864166260e-01 -4.871515333652496338e-01 -3.291920423507690430e-01 1.200398132205009460e-01 -1.812765300273895264e-01 1.583020091056823730e-01 -1.484431624412536621e-01 1.148190349340438843e-01 -1.054422184824943542e-01 -3.363942801952362061e-01 -2.302171438932418823e-01 -1.417358070611953735e-01 3.746643429622054100e-03 -1.426697224378585815e-01 -4.997251927852630615e-02 -1.513456553220748901e-01 -2.943405210971832275e-01 -4.015298187732696533e-01 -3.279624581336975098e-01 -1.688662320375442505e-01 -2.422838360071182251e-01 -3.346256017684936523e-01 -3.202186524868011475e-01 -2.027066648006439209e-01 8.149220794439315796e-02 1.453448832035064697e-01 5.194432660937309265e-02 -3.978104591369628906e-01 -7.242498546838760376e-02 2.228312566876411438e-02 -3.188846111297607422e-01 -2.756586968898773193e-01 -4.637092947959899902e-01 -2.478047609329223633e-01 -6.025866046547889709e-02 -6.984568387269973755e-02 -7.870803773403167725e-02 -8.173401467502117157e-03 -5.088373273611068726e-02 -1.356785837560892105e-02 -1.032999902963638306e-02 -2.229317724704742432e-01 5.258502904325723648e-03 1.191017553210258484e-01 -8.420085906982421875e-02 1.118962690234184265e-01 2.921493053436279297e-01 -2.377734184265136719e-01 -4.358527064323425293e-01 -1.977968215942382812e-01 -8.850812166929244995e-02 -3.577842190861701965e-02 -2.369939237833023071e-01 -9.270897507667541504e-02 -7.077259477227926254e-03 1.342107057571411133e-01 2.511966228485107422e-01
1.203438639640808105e-01 -1.688392162322998047e-01 -1.526087243109941483e-02 2.058039605617523193e-01 1.092766374349594116e-01 9.027359634637832642e-02 -3.271026313304901123e-01 -3.470365107059478760e-01 3.066921979188919067e-02 -3.422183915972709656e-02 9.764707833528518677e-02 5.248712003231048584e-02 -5.391831509768962860e-03 7.591799646615982056e-02 3.044580807909369469e-03 7.507053017616271973e-02 4.732137024402618408e-01 1.385911405086517334e-01 -1.390307098627090454e-01 -1.045258939266204834e-01 8.236256986856460571e-02 3.931192308664321899e-02 -6.226086243987083435e-02 1.637490987777709961e-01 1.995542794466018677e-01 8.424920588731765747e-02 1.524568349123001099e-01 -3.004997037351131439e-02 5.367936193943023682e-02 8.859330415725708008e-02 2.637093663215637207e-01 -1.308784186840057373e-01 -2.981567941606044769e-02 2.591710910201072693e-02 1.353212296962738037e-01 1.925547719001770020e-01 -7.743607461452484131e-02 -9.227622300386428833e-02 -1.552533358335494995e-01 -1.195605471730232239e-01 -8.756022155284881592e-02 -2.082974910736083984e-01 -1.151282638311386108e-01 6.873156130313873291e-02 -3.956080973148345947e-02 -4.075991213321685791e-01 -1.362850964069366455e-01 9.079299867153167725e-02 -1.669506281614303589e-01 1.088833883404731750e-01 1.869240850210189819e-01 1.185750663280487061e-01 -2.853138148784637451e-01 -2.711575627326965332e-01 4.137532040476799011e-02 3.217985630035400391e-01 1.885372586548328400e-02 1.305241733789443970e-01 -2.492211461067199707e-01 6.225747615098953247e-02 2.056229859590530396e-02 3.081325069069862366e-02
-2.854436635971069336e-01 5.822644382715225220e-02 1.745898276567459106e-01 2.508257515728473663e-02 8.725237846374511719e-02 1.689361222088336945e-02 -1.799361258745193481e-01 -1.312505304813385010e-01 1.647359579801559448e-01 2.583548985421657562e-02 -9.467025846242904663e-02 1.097571477293968201e-02 -1.544528901576995850e-01 -1.251955479383468628e-01 7.722023129463195801e-02 6.915911287069320679e-02 1.319983899593353271e-01 7.716599106788635254e-02 1.022990942001342773e-01 1.159167215228080750e-01 2.697991952300071716e-02 6.228057295083999634e-02 2.950622737407684326e-01 1.856890171766281128e-01 1.317555755376815796e-01 -8.407805860042572021e-02 7.862281799316406250e-02 -2.078507840633392334e-01 -2.516780495643615723e-01 -6.709427386522293091e-02 5.465324502438306808e-03 -1.643908768892288208e-01 2.087550424039363861e-02 2.246331870555877686e-01 3.100626170635223389e-01 3.287479579448699951e-01 5.447605624794960022e-02 6.533712148666381836e-02 1.422805190086364746e-01 4.972248896956443787e-02 8.502897620201110840e-02 4.075641930103302002e-02 -3.235408663749694824e-01 -1.621826589107513428e-01 3.263211250305175781e-02 -1.487911343574523926e-01 -4.694359749555587769e-02 1.693674325942993164e-01 4.609420895576477051e-02 -9.304712712764739990e-02 3.118166625499725342e-01 5.082591902464628220e-03 -1.553360223770141602e-01 -9.685031138360500336e-03 -6.717381626367568970e-02 7.444670051336288452e-02 2.027656584978103638e-01 -3.325045108795166016e-01 -1.921585500240325928e-01 -3.289813874289393425e-03 -1.571804732084274292e-01 -8.943416178226470947e-02
-2.598487436771392822e-01 -7.494609057903289795e-02 -1.339671760797500610e-01 -3.202629685401916504e-01 -4.554014503955841064e-01 -3.028914332389831543e-01 9.484524279832839966e-02 1.526450663805007935e-01 1.331864744424819946e-01 5.843861773610115051e-02 -2.721642851829528809e-01 -3.850020170211791992e-01 -2.611234486103057861e-01 -1.801407337188720703e-01 -3.921839892864227295e-01 -7.613559067249298096e-02 7.775766402482986450e-02 -2.328768819570541382e-01 -1.567649990320205688e-01 1.156991999596357346e-02 5.740975961089134216e-03 9.361093491315841675e-02 2.660827338695526123e-01 3.415000736713409424e-01 1.161364465951919556e-01 -3.149777054786682129e-01 -1.425478607416152954e-01 -6.315907090902328491e-02 -5.246364325284957886e-02 2.386833131313323975e-01 1.161405220627784729e-01 1.312862038612365723e-01 1.143843084573745728e-01 2.066402509808540344e-02 -3.880778327584266663e-02 -1.592777371406555176e-01 5.579395219683647156e-03 3.457019105553627014e-02 -5.252479761838912964e-02 7.781231403350830078e-02 1.837828457355499268e-01 1.872121542692184448e-01 -1.367153823375701904e-01 -8.619482070207595825e-02 -4.065404832363128662e-02 -5.859296768903732300e-03 -4.728644788265228271e-01 -1.842717230319976807e-01 -1.178179606795310974e-01 -5.569030046463012695e-01 1.513342410326004028e-01 5.663420632481575012e-02 -1.864475756883621216e-01 6.743486970663070679e-02 -9.156437218189239502e-02 -4.020342826843261719e-01 -1.141815334558486938e-01 -6.554449349641799927e-02 -1.275013983249664307e-01 -1.668713837862014771e-01 -2.296868115663528442e-01 -7.105340063571929932e-02
3.183051571249961853e-02 -1.795802563428878784e-01 -6.179077178239822388e-02 -2.294467687606811523e-01 -2.824594080448150635e-01 -4.404643476009368896e-01 6.837430596351623535e-02 7.675190269947052002e-02 -3.151769936084747314e-02 -3.744617700576782227e-01 -2.667432427406311035e-01 -4.687394797801971436e-01 -3.182731866836547852e-01 -2.336212992668151855e-01 -1.224773228168487549e-01 -1.255260556936264038e-01 5.212401505559682846e-03 1.318587511777877808e-01 2.326168417930603027e-01 1.442063003778457642e-01 1.115259379148483276e-01 3.573763072490692139e-01 -5.314509943127632141e-02 -1.984508037567138672e-01 4.852102324366569519e-02 -1.771484762430191040e-01 -3.795247077941894531e-01 -2.336051017045974731e-01 -3.995251059532165527e-01 -1.370305195450782776e-02 5.236176401376724243e-02 -4.330280423164367676e-02 -9.656569361686706543e-02 -1.376647502183914185e-01 -2.416057698428630829e-02 -1.880840212106704712e-02 -4.221070557832717896e-02 3.409085795283317566e-02 2.929975092411041260e-01 2.197428643703460693e-01 1.130875200033187866e-01 1.518982648849487305e-01 3.154816627502441406e-01 -6.305024772882461548e-02 -8.947694301605224609e-02 -3.270666301250457764e-01 -3.102578818798065186e-01 -2.037567049264907837e-01 -4.104372560977935791e-01 -4.069569110870361328e-01 1.222136989235877991e-02 -4.447594285011291504e-02 1.467734277248382568e-01 5.377987772226333618e-02 6.941678375005722046e-02 -3.618016242980957031e-01 -4.009989500045776367e-01 -1.470595449209213257e-01 -2.641462683677673340e-01 -1.726731956005096436e-01 -4.777412116527557373e-01 -3.211028575897216797e-01
-2.269024550914764404e-01 1.073659677058458328e-02 -2.691719233989715576e-01 -2.353537976741790771e-01 -2.301876395940780640e-01 -4.458655714988708496e-01 -1.695370674133300781e-01 2.181671187281608582e-02 -1.877176314592361450e-01 -6.678596138954162598e-01 -6.095589995384216309e-01 -6.296069622039794922e-01 -1.843761652708053589e-01 -2.309325933456420898e-01 -3.124968409538269043e-01 -1.748146675527095795e-02 6.561644375324249268e-02 4.300416260957717896e-02 1.074606552720069885e-01 -1.476419158279895782e-02 -1.472690999507904053e-01 -1.440485417842864990e-01 -5.752152949571609497e-02 -1.827783696353435516e-02 -4.734953865408897400e-02 -1.141831949353218079e-01 1.964433118700981140e-02 -7.725957781076431274e-02 -1.035431749187409878e-03 -2.619435638189315796e-02 2.097224742174148560e-01 -4.262308031320571899e-02 1.842474043369293213e-01 1.029380112886428833e-01 5.335699021816253662e-02 9.922238439321517944e-02 7.473476976156234741e-02 -1.793216168880462646e-01 -2.695088386535644531e-01 -4.662989079952239990e-01 -2.781937420368194580e-01 3.504446940496563911e-03 1.257930845022201538e-01 7.016839087009429932e-02 -2.492839843034744263e-01 -1.999794691801071167e-01 -1.398658454418182373e-01 -2.494204640388488770e-01 -4.040561616420745850e-01 -4.066141545772552490e-01 -5.500934123992919922e-01 -1.415281556546688080e-02 3.646891936659812927e-02 -2.191468477249145508e-01 -5.777474641799926758e-01 -4.097257256507873535e-01 -3.556398153305053711e-01 -4.878332465887069702e-02 -3.406501710414886475e-01 -1.114026680588722229e-01 -2.385616898536682129e-01 -3.399164378643035889e-01
-3.916977345943450928e-01 -8.867080509662628174e-02 -3.830128163099288940e-02 -3.460454172454774380e-04 -1.461161375045776367e-01 -2.953625023365020752e-01 8.143501728773117065e-02 1.864256411790847778e-01 -5.241632089018821716e-02 -2.194215357303619385e-01 -1.188021898269653320e-01 -2.746016979217529297e-01 -7.478075474500656128e-02 6.489329040050506592e-02 1.505329310894012451e-01 2.508582472801208496e-01 1.455531269311904907e-01 -8.097045868635177612e-02 -9.318503551185131073e-03 2.528268657624721527e-02 -8.515455573797225952e-02 -1.016147434711456299e-02 9.458900243043899536e-02 -1.935848407447338104e-02 -2.847896516323089600e-01 -4.381188154220581055e-01 -2.049139291048049927e-01 -2.354826331138610840e-01 -6.478306371718645096e-03 -1.265625953674316406e-01 1.752840727567672729e-02 -4.104223847389221191e-02 -1.894833743572235107e-01 7.832943648099899292e-02 2.064634561538696289e-01 -1.663780361413955688e-01 -3.038769662380218506e-01 2.296366989612579346e-01 1.594963222742080688e-01 1.427664309740066528e-01 -1.665177047252655029e-01 -4.362850263714790344e-02 -1.932364851236343384e-01 -2.082792967557907104e-01 -2.333368957042694092e-01 8.262422680854797363e-02 -3.022500313818454742e-02 -3.955337777733802795e-02 2.131124287843704224e-01 -1.208267286419868469e-01 2.383529581129550934e-02 2.518374621868133545e-01 1.921403706073760986e-01 -2.482431754469871521e-02 -1.840553283691406250e-01 -1.923686116933822632e-01 -1.552498191595077515e-01 -2.482798509299755096e-02 -2.113371491432189941e-01 -7.382841408252716064e-02 -3.848026692867279053e-01 -3.586261272430419922e-01
2.711636247113347054e-03 1.462903171777725220e-01 -4.412991926074028015e-02 -4.666530340909957886e-02 1.158535778522491455e-01 -1.402886211872100830e-01 5.034637823700904846e-02 -1.198707744479179382e-01 -2.752923667430877686e-01 -2.878190875053405762e-01 -3.927463293075561523e-01 -1.949712075293064117e-02 1.210388466715812683e-01 5.218273028731346130e-02 2.110997289419174194e-01 -1.164345536381006241e-02 1.155881956219673157e-01 -7.492755353450775146e-02 -8.752091974020004272e-02 -2.477815188467502594e-02 2.145128399133682251e-01 5.334574356675148010e-02 -1.086765080690383911e-01 -2.677755057811737061e-01 -2.347183823585510254e-01 -1.848538666963577271e-01 -8.651693351566791534e-03 -1.337620168924331665e-01 -1.137865260243415833e-01 -1.634558290243148804e-01 2.168401330709457397e-01 5.596896260976791382e-02 1.521679162979125977e-01 2.386451065540313721e-01 -1.017399802803993225e-01 -1.515261679887771606e-01 -6.022136658430099487e-03 -5.804055370390415192e-03 -1.480775922536849976e-01 4.075089097023010254e-01 1.198805570602416992e-01 -1.605558842420578003e-01 -1.535093188285827637e-01 -7.075507193803787231e-03 2.116730213165283203e-01 -9.344445168972015381e-02 -1.754286140203475952e-01 -5.969558283686637878e-02 -7.520378381013870239e-02 6.767473369836807251e-02 2.157446593046188354e-01 4.333596825599670410e-01 1.169866696000099182e-01 -1.768251806497573853e-01 -1.008034124970436096e-01 1.744861714541912079e-02 -8.265646547079086304e-02 1.102365180850028992e-01 -1.627934910356998444e-02 -2.172460258007049561e-01 -2.448927611112594604e-01 -2.321792989969253540e-01
6.616990268230438232e-02 -1.714039593935012817e-01 -4.645461961627006531e-02 -1.512645781040191650e-01 1.082182899117469788e-01 7.932568900287151337e-03 -3.034324049949645996e-01 -2.796523571014404297e-01 -2.570907957851886749e-02 -1.330052688717842102e-02 -4.579583182930946350e-02 -1.107864230871200562e-01 4.736947715282440186e-01 -5.099452659487724304e-02 -5.906917154788970947e-02 -1.142043620347976685e-01 -5.536189675331115723e-02 -2.543399110436439514e-02 -2.251203171908855438e-02 4.033193737268447876e-02 -3.731954991817474365e-01 -2.200790792703628540e-01 -1.494654715061187744e-01 -2.154655754566192627e-01 -3.493068367242813110e-02 -1.624549478292465210e-01 -7.898286730051040649e-02 -6.609837710857391357e-02 4.513803124427795410e-02 6.524620950222015381e-02 -2.584960497915744781e-02 -3.297814130783081055e-01 -6.925489008426666260e-02 4.387638717889785767e-02 1.887678727507591248e-02 -4.756311327219009399e-02 5.737731233239173889e-02 -3.472512215375900269e-02 -1.987346112728118896e-01 -3.376117646694183350e-01 9.869837015867233276e-02 -1.800949871540069580e-02 9.937319904565811157e-02 -2.439021170139312744e-01 -2.314692437648773193e-01 -1.108808368444442749e-01 2.443259954452514648e-02 5.781081691384315491e-02 -4.248318448662757874e-02 -2.200862169265747070e-01 6.704843044281005859e-02 1.843217611312866211e-01 1.280038058757781982e-01 -4.262167494744062424e-03 -2.628581821918487549e-01 1.436928510665893555e-01 1.530695408582687378e-01 -1.190765947103500366e-01 -1.010330021381378174e-01 -3.372165560722351074e-01 -9.341058880090713501e-02 -2.632634043693542480e-01
1.416043490171432495e-01 7.150416076183319092e-02 -2.675604773685336113e-03 -2.479953318834304810e-01 1.234843358397483826e-01 1.004609242081642151e-01 -6.270796805620193481e-02 -1.633210331201553345e-01 -2.403219491243362427e-01 -5.185152217745780945e-02 -1.385869234800338745e-01 5.130118131637573242e-02 3.593058511614799500e-02 4.368925094604492188e-02 -6.362743675708770752e-02 -1.454028040170669556e-01 6.046985089778900146e-02 -8.468329906463623047e-02 7.898541539907455444e-02 3.543816879391670227e-02 -2.230176031589508057e-01 -2.545807063579559326e-01 4.273459315299987793e-01 1.602257043123245239e-02 -1.962622404098510742e-01 -6.078672036528587341e-02 3.534168004989624023e-01 -1.251062899827957153e-01 -1.595512479543685913e-01 2.016129493713378906e-01 3.226959705352783203e-01 -1.531348098069429398e-02 -1.258882135152816772e-01 -2.370452582836151123e-01 2.330335676670074463e-01 2.998779714107513428e-01 -1.461787372827529907e-01 1.243553459644317627e-01 3.019050955772399902e-01 -3.067521750926971436e-01 -1.558748781681060791e-01 -3.397949337959289551e-01 -7.264769822359085083e-02 -1.455092281103134155e-01 -1.787095069885253906e-01 1.276376992464065552e-01 1.731832162477076054e-03 2.761507034301757812e-02 2.073885798454284668e-01 1.407869458198547363e-01 3.306886553764343262e-02 2.125529646873474121e-01 1.166779622435569763e-01 -9.130263328552246094e-02 -4.567915201187133789e-02 -1.268617212772369385e-01 3.624797984957695007e-02 -2.227782309055328369e-01 -1.002112179994583130e-01 -1.366860866546630859e-01 -7.676118612289428711e-02 -2.518494427204132080e-01
1.099887713789939880e-01 1.050585508346557617e-01 -5.893097072839736938e-02 -3.467458114027976990e-02 3.284316360950469971e-01 1.524703055620193481e-01 7.574661076068878174e-02 1.906218081712722778e-01 -4.286807379685342312e-04 3.168750554323196411e-02 3.675413876771926880e-02 1.539596021175384521e-01 2.188031077384948730e-01 2.430243492126464844e-01 8.496988564729690552e-02 2.885784208774566650e-02 3.412004411220550537e-01 2.493968605995178223e-01 2.387485355138778687e-01 2.267248630523681641e-01 3.491787612438201904e-01 3.740089535713195801e-01 7.959002256393432617e-02 1.911798492074012756e-02 -1.799236088991165161e-01 -1.069302558898925781e-01 3.963424861431121826e-01 -5.944544821977615356e-02 -1.455229818820953369e-01 -5.577227100729942322e-02 2.826730906963348389e-01 1.896584182977676392e-01 4.906962160021066666e-03 1.644104421138763428e-01 2.823946177959442139e-01 2.638612687587738037e-02 -7.674139738082885742e-02 1.057276967912912369e-02 2.795305550098419189e-01 1.971991034224629402e-03 1.780519485473632812e-01 2.342070490121841431e-01 1.579317264258861542e-02 4.863363876938819885e-02 -9.399188682436943054e-03 -2.127998508512973785e-02 1.406547725200653076e-01 2.264284044504165649e-01 1.349161416292190552e-01 1.879483610391616821e-01 5.031682848930358887e-01 1.356883347034454346e-01 2.594884335994720459e-01 1.879643201828002930e-01 -7.198973745107650757e-02 -2.461839318275451660e-01 1.875849626958370209e-02 -2.016481906175613403e-01 7.229983061552047729e-02 1.575800031423568726e-01 -1.411864161491394043e-01 -7.108894735574722290e-02
-9.046152234077453613e-02 3.581955432891845703e-01 -1.543550007045269012e-02 -4.523888230323791504e-01 -2.475423961877822876e-01 -1.668631583452224731e-01 -2.503407299518585205e-01 -1.321062743663787842e-01 -4.113058000802993774e-02 -1.204035207629203796e-01 7.064536958932876587e-02 1.698848903179168701e-01 1.056654155254364014e-01 3.563748598098754883e-01 1.583429872989654541e-01 2.853927612304687500e-01 1.292974203824996948e-01 8.598218858242034912e-02 2.421365231275558472e-01 1.797350347042083740e-01 1.194609794765710831e-02 -2.944529950618743896e-01 -3.646826744079589844e-01 -4.070727154612541199e-02 2.534933090209960938e-01 -3.175037726759910583e-02 1.070061475038528442e-01 -2.483632415533065796e-01 5.197325721383094788e-02 1.183528006076812744e-01 -4.940826073288917542e-02 -2.136078923940658569e-01 -1.921410299837589264e-02 -1.898167878389358521e-01 -1.551533490419387817e-01 2.940296828746795654e-01 3.177679330110549927e-02 -3.017858564853668213e-01 -3.214852213859558105e-01 -1.918124258518218994e-01 -1.922197043895721436e-01 2.357804030179977417e-01 -1.390344259561970830e-04 -4.838704690337181091e-02 2.654435299336910248e-02 -5.406209453940391541e-02 4.747118055820465088e-02 1.911207884550094604e-01 6.423836108297109604e-03 8.153459057211875916e-03 2.800893485546112061e-01 3.102824985980987549e-01 3.761233296245336533e-03 7.412073761224746704e-02 -2.230468951165676117e-02 -2.561343014240264893e-01 5.380670353770256042e-02 -2.828681766986846924e-01 -3.156891763210296631e-01 7.807959616184234619e-02 -3.747019469738006592e-01 -3.256620839238166809e-02
3.351471424102783203e-01 4.869449436664581299e-01 -1.053640022873878479e-01 -1.892117410898208618e-01 1.157709583640098572e-01 1.795129291713237762e-02 -9.270151704549789429e-02 5.543209984898567200e-02 -2.618255019187927246e-01 -1.113503798842430115e-01 1.920571178197860718e-01 -7.818415015935897827e-02 -3.247267901897430420e-01 -2.620628178119659424e-01 -1.939767599105834961e-02 3.247634470462799072e-01 -1.855658590793609619e-01 5.182168632745742798e-02 2.021708488464355469e-01 -2.079179733991622925e-01 -4.153923690319061279e-01 -2.274393662810325623e-02 6.626135110855102539e-02 1.759274452924728394e-01 -3.436949104070663452e-02 -1.960847526788711548e-01 2.840622514486312866e-02 -1.997959613800048828e-01 -8.184993267059326172e-02 6.669656187295913696e-02 5.475756898522377014e-02 -1.691913902759552002e-01 -2.099539041519165039e-01 4.569434002041816711e-02 -8.503302186727523804e-02 -2.364826053380966187e-01 8.795289695262908936e-02 2.189854532480239868e-01 1.214813068509101868e-01 -2.822345495223999023e-01 -6.203247606754302979e-02 1.244195178151130676e-01 2.699654400348663330e-01 1.619609147310256958e-01 -2.744503878057003021e-02 -7.034276425838470459e-02 -7.547129690647125244e-02 -1.829525232315063477e-01 1.238204315304756165e-01 -1.539912223815917969e-01 1.961893290281295776e-01 -1.836334355175495148e-02 -3.149177506566047668e-02 4.751436784863471985e-02 -3.104652762413024902e-01 -2.935486435890197754e-01 -2.758610546588897705e-01 -3.968324959278106689e-01 -2.207035385072231293e-02 -2.560760453343391418e-02 -2.924798727035522461e-01 7.301951199769973755e-02
2.725795805454254150e-01 -2.223284915089607239e-02 -5.548768863081932068e-02 -4.805693402886390686e-02 -8.907975628972053528e-03 7.096551358699798584e-02 -2.630085647106170654e-01 -3.872294127941131592e-01 -8.664211630821228027e-02 1.950167268514633179e-01 1.815024912357330322e-01 -2.521605491638183594e-01 -9.346440434455871582e-02 2.095402926206588745e-01 -1.672643050551414490e-02 -2.047700434923171997e-01 1.977970451116561890e-01 1.260197609663009644e-01 -4.551164060831069946e-02 -2.007034420967102051e-01 -7.620896399021148682e-02 1.048882550094276667e-04 1.132512390613555908e-01 -5.648824572563171387e-02 -5.388102531433105469e-01 -3.496002554893493652e-01 1.395445019006729126e-01 4.135783910751342773e-01 4.012050852179527283e-02 1.065075919032096863e-01 2.404513806104660034e-01 1.985467821359634399e-01 1.033863946795463562e-01 5.062271356582641602e-01 3.936385512351989746e-01 -4.784594476222991943e-02 -3.239796683192253113e-02 1.336418837308883667e-01 -3.738475218415260315e-02 -1.631831675767898560e-01 -2.018563002347946167e-01 1.555495262145996094e-01 2.071299590170383453e-02 1.262438595294952393e-01 3.060203194618225098e-01 -6.714201532304286957e-03 -1.050313282757997513e-02 1.930329650640487671e-01 7.910494506359100342e-02 -5.322497710585594177e-02 1.417429596185684204e-01 -9.070874005556106567e-02 -4.652808010578155518e-01 -2.871621847152709961e-01 -1.748504042625427246e-01 -1.605602800846099854e-01 -2.312831878662109375e-01 -2.581224143505096436e-01 3.167875111103057861e-02 1.813485622406005859e-01 -9.402762353420257568e-02 -1.314930468797683716e-01
-3.808999434113502502e-02 -1.564245969057083130e-01 -1.652857363224029541e-01 1.656623184680938721e-02 2.379141002893447876e-01 9.608206339180469513e-03 -4.844895005226135254e-01 -2.951295971870422363e-01 2.356926500797271729e-01 2.285403162240982056e-01 7.681328803300857544e-02 -3.915509283542633057e-01 -2.603021860122680664e-01 3.441556692123413086e-01 -5.500961467623710632e-02 -3.162092342972755432e-02 3.084836304187774658e-01 4.161079227924346924e-02 -2.402606047689914703e-02 8.205565810203552246e-02 2.116189897060394287e-02 5.879936739802360535e-02 -9.679599851369857788e-02 4.012101516127586365e-02 -2.146377228200435638e-02 -3.476749733090400696e-02 1.860134303569793701e-01 1.682567149400711060e-01 -3.780787065625190735e-02 7.876823842525482178e-02 1.459705680608749390e-01 6.729679554700851440e-02 2.189386039972305298e-01 1.732767522335052490e-01 1.441886574029922485e-01 -3.875476866960525513e-02 -6.781861186027526855e-02 -1.042417362332344055e-01 -1.589496731758117676e-01 -2.840401828289031982e-01 3.880609758198261261e-03 3.095357716083526611e-01 1.821286827325820923e-01 1.031003147363662720e-01 1.262836605310440063e-01 -1.825438439846038818e-01 -4.346075002104043961e-04 7.323125004768371582e-02 -9.773238003253936768e-02 -2.229411303997039795e-01 -2.018647193908691406e-01 6.701265275478363037e-02 -2.875173091888427734e-01 -1.860135942697525024e-01 -1.945402622222900391e-01 -9.820872545242309570e-02 -6.596774328500032425e-03 -9.444478899240493774e-02 2.085055112838745117e-01 1.208190992474555969e-01 -3.293868005275726318e-01 -2.178355157375335693e-01
1.514827907085418701e-01 -1.852506697177886963e-01 -1.363123804330825806e-01 1.479458995163440704e-02 6.527345627546310425e-02 -9.383688680827617645e-03 -9.744182229042053223e-02 1.267785876989364624e-01 -2.691751904785633087e-02 2.529083192348480225e-01 -2.506037950515747070e-01 -2.836515009403228760e-01 3.653899431228637695e-01 4.278784692287445068e-01 -3.069140613079071045e-01 -1.391925215721130371e-01 -1.101369187235832214e-01 -7.695066928863525391e-02 1.359658837318420410e-01 1.501034647226333618e-01 1.569580584764480591e-01 1.783276796340942383e-01 -2.588218450546264648e-01 2.004520595073699951e-01 3.826397955417633057e-01 -1.203438639640808105e-01 -2.937777638435363770e-01 -1.839650720357894897e-01 1.627766489982604980e-01 5.770894885063171387e-01 4.149849414825439453e-01 3.285396993160247803e-01 -6.796421483159065247e-03 -4.446944221854209900e-02 4.150510206818580627e-02 2.285873889923095703e-01 1.771729439496994019e-01 8.945929259061813354e-02 1.184351071715354919e-01 1.287410408258438110e-01 1.379467844963073730e-01 1.684513539075851440e-01 4.396901279687881470e-02 8.910168707370758057e-02 2.271703034639358521e-01 4.523926600813865662e-02 -1.852283328771591187e-01 1.765637099742889404e-01 1.430629789829254150e-01 -2.593538463115692139e-01 -1.768989562988281250e-01 -2.118540108203887939e-01 -1.619256734848022461e-01 -1.509409695863723755e-01 -1.125104073435068130e-02 5.304617062211036682e-02 -6.214616820216178894e-02 -5.920819193124771118e-02 -2.289164960384368896e-01 -3.164673149585723877e-01 -3.297029733657836914e-01 1.858927495777606964e-02
1.636860966682434082e-01 -1.339765489101409912e-01 -7.493196427822113037e-02 1.534010320901870728e-01 1.524780243635177612e-01 -1.144932955503463745e-01 -1.208814084529876709e-01 2.989085912704467773e-01 9.491284936666488647e-02 3.434914350509643555e-01 8.959185332059860229e-02 8.242850750684738159e-02 5.869960784912109375e-01 -2.335993759334087372e-02 -2.456625103950500488e-01 3.109216392040252686e-01 -1.969979703426361084e-02 -3.053223192691802979e-01 2.160382568836212158e-01 1.320597082376480103e-01 1.631282269954681396e-01 2.206639200448989868e-02 4.034591019153594971e-01 4.312546551227569580e-01 1.489260327070951462e-02 -9.794151037931442261e-02 1.139722391963005066e-01 3.458466827869415283e-01 2.899340689182281494e-01 3.319990038871765137e-01 4.729695916175842285e-01 2.277873903512954712e-01 5.825287699699401855e-01 3.870427012443542480e-01 4.007062911987304688e-01 2.695036306977272034e-02 2.241714149713516235e-01 6.693386435508728027e-01 4.073907434940338135e-01 -3.133014217019081116e-02 2.734992206096649170e-01 4.497511386871337891e-01 3.251509666442871094e-01 -1.885906010866165161e-01 1.954894140362739563e-02 2.993432283401489258e-01 1.571544855833053589e-01 8.992420136928558350e-02 4.554260969161987305e-01 2.124653160572052002e-01 3.090387582778930664e-01 1.636712700128555298e-01 -1.803769320249557495e-01 -1.154419854283332825e-01 -4.210281744599342346e-02 1.907245665788650513e-01 2.860601246356964111e-01 1.004693582653999329e-01 -2.521337866783142090e-01 -1.255379319190979004e-01 1.107680946588516235e-01 1.403644382953643799e-01
-1.829333454370498657e-01 -3.216998577117919922e-01 3.249014914035797119e-01 5.694170594215393066e-01 3.530539870262145996e-01 3.406910002231597900e-01 -2.215092815458774567e-02 -3.465617075562477112e-02 9.461112320423126221e-02 1.485164612531661987e-01 -1.778813004493713379e-01 -1.585538238286972046e-01 -7.551471143960952759e-02 -2.791573703289031982e-01 -3.689096868038177490e-02 2.238036990165710449e-01 2.972228266298770905e-02 -1.210133079439401627e-02 9.986969828605651855e-02 -5.382581427693367004e-02 -1.998067647218704224e-01 9.442046284675598145e-02 3.995302319526672363e-01 1.311695426702499390e-01 -3.761236742138862610e-02 3.337871730327606201e-01 3.476701080799102783e-01 9.378398954868316650e-02 1.555465012788772583e-01 3.677031695842742920e-01 7.189359664916992188e-01 3.849031627178192139e-01 2.252449691295623779e-01 6.000058650970458984e-01 3.660122156143188477e-01 2.694993615150451660e-01 2.054988294839859009e-01 3.709119856357574463e-01 3.050962984561920166e-01 1.865202933549880981e-01 8.194191753864288330e-02 2.979580163955688477e-01 2.283259481191635132e-01 1.011240854859352112e-01 -7.947867363691329956e-02 8.653979003429412842e-02 -5.861704051494598389e-02 -5.398337543010711670e-02 1.427068561315536499e-01 -4.631148651242256165e-02 -2.595927715301513672e-01 2.494504898786544800e-01 -2.298150062561035156e-01 -1.867637038230895996e-01 -2.582122385501861572e-01 7.416734099388122559e-02 4.157420396804809570e-01 -8.324777334928512573e-02 -3.279689252376556396e-01 -3.884418308734893799e-01 1.899627968668937683e-02 -1.159429699182510376e-01
1.469566524028778076e-01 2.009980529546737671e-01 3.123510777950286865e-01 3.210346102714538574e-01 2.258829623460769653e-01 2.368711978197097778e-01 -9.240262210369110107e-02 -1.159814149141311646e-01 2.561736404895782471e-01 4.554145038127899170e-02 7.243750244379043579e-02 -2.015574872493743896e-01 1.450941562652587891e-01 -6.784304231405258179e-02 9.994155913591384888e-02 -2.308021858334541321e-02 1.508299261331558228e-01 1.778418868780136108e-01 1.489924546331167221e-02 -3.059958517551422119e-01 2.796243317425251007e-02 1.293858587741851807e-01 -9.523960761725902557e-03 -2.796315401792526245e-02 1.450271308422088623e-01 2.776471972465515137e-01 2.878026068210601807e-01 1.622118651866912842e-01 1.875018179416656494e-01 1.441865116357803345e-01 5.192494988441467285e-01 4.302903413772583008e-01 6.146942973136901855e-01 4.448720812797546387e-01 1.914726495742797852e-01 3.246877193450927734e-01 1.017558723688125610e-01 2.596050202846527100e-01 -1.619752794504165649e-01 4.212708175182342529e-01 3.189458250999450684e-01 -2.135871350765228271e-02 6.629189103841781616e-02 2.517559528350830078e-01 -8.261753618717193604e-02 -4.026801884174346924e-01 -1.099967584013938904e-02 2.396738715469837189e-02 -7.972626388072967529e-02 1.649768501520156860e-01 -3.166970610618591309e-01 -7.712299376726150513e-02 9.205547720193862915e-02 6.138519197702407837e-02 -4.758813977241516113e-02 2.046673744916915894e-01 3.264010250568389893e-01 -8.648467808961868286e-02 -2.441736608743667603e-01 -1.710952967405319214e-01 -1.339212507009506226e-01 8.278347551822662354e-02
3.020402975380420685e-02 -1.931493431329727173e-01 -1.310781836509704590e-01 -1.580760814249515533e-02 7.847541570663452148e-02 -3.925076127052307129e-01 -3.418760895729064941e-01 3.030050545930862427e-03 1.854052841663360596e-01 -6.875500828027725220e-02 -3.516625761985778809e-01 -5.022656917572021484e-01 -3.704253584146499634e-02 -1.923466026782989502e-01 -3.619380891323089600e-01 -1.603817939758300781e-02 7.304504513740539551e-02 -6.526608765125274658e-02 -2.042199522256851196e-01 -1.108081787824630737e-01 9.567349404096603394e-02 8.915977180004119873e-02 -2.241263166069984436e-02 3.566423058509826660e-02 4.639191627502441406e-01 1.814720928668975830e-01 4.168389737606048584e-01 2.531077265739440918e-01 -3.606439800933003426e-03 -2.868990302085876465e-01 -2.246732115745544434e-01 1.511014718562364578e-02 -7.685554772615432739e-02 4.186346828937530518e-01 1.150300055742263794e-01 2.174136936664581299e-01 1.144445762038230896e-01 3.753715157508850098e-01 3.327646255493164062e-01 4.303591847419738770e-01 1.398492306470870972e-01 1.325501352548599243e-01 6.156218051910400391e-02 2.132775783538818359e-01 -3.000814616680145264e-01 -1.795362681150436401e-01 -2.933577001094818115e-01 -2.097045630216598511e-01 -2.738537490367889404e-01 -1.802633851766586304e-01 -1.786999776959419250e-02 -5.229327082633972168e-02 -1.754407435655593872e-01 -3.889604806900024414e-01 -4.335668683052062988e-01 -1.899921298027038574e-01 5.763533338904380798e-02 -2.971820831298828125e-01 -5.007943511009216309e-01 -3.443228304386138916e-01 -4.765754938125610352e-01 -5.553081631660461426e-01
5.249208584427833557e-02 2.054331451654434204e-01 1.679668873548507690e-01 6.646902114152908325e-02 -8.095911890268325806e-02 -2.742099165916442871e-01 -3.842243254184722900e-01 1.105407029390335083e-01 1.188381835818290710e-01 -3.513413667678833008e-02 -2.047163248062133789e-02 -1.901957951486110687e-02 7.335030287504196167e-02 -1.240920722484588623e-01 -1.113394834101200104e-02 2.138327509164810181e-01 2.020019441843032837e-01 -6.220185011625289917e-02 -2.253763843327760696e-03 3.033051788806915283e-01 1.891998499631881714e-01 1.982587762176990509e-02 3.138871788978576660e-01 3.279352784156799316e-01 4.625541269779205322e-01 2.277270406484603882e-01 7.282887697219848633e-01 4.170402288436889648e-01 6.567490100860595703e-02 -4.184009134769439697e-02 3.820830897893756628e-05 -5.157346725463867188e-01 -2.514376677572727203e-02 6.876211166381835938e-01 7.919610142707824707e-01 5.065520405769348145e-01 5.603306293487548828e-01 8.034321069717407227e-01 5.694662928581237793e-01 4.403700828552246094e-01 5.946545600891113281e-01 5.771333575248718262e-01 7.506335526704788208e-02 2.741704881191253662e-02 1.215417757630348206e-01 1.773044168949127197e-01 2.338131368160247803e-01 1.501303315162658691e-01 1.804694384336471558e-01 1.202566996216773987e-01 -4.203847050666809082e-02 -1.537644118070602417e-01 -9.967597573995590210e-02 -1.628581285476684570e-01 -2.950437068939208984e-01 -2.256273478269577026e-01 2.393659390509128571e-02 -6.691513210535049438e-02 -1.900776624679565430e-01 -2.503290772438049316e-01 -2.849934101104736328e-01 -5.824443101882934570e-01
2.391474246978759766e-01 3.431267440319061279e-01 -2.389055192470550537e-01 -3.187709152698516846e-01 -3.327576816082000732e-01 -3.547265529632568359e-01 -4.676974117755889893e-01 1.100761070847511292e-01 -4.775961115956306458e-02 -4.260376095771789551e-01 -1.832785308361053467e-01 -1.667771860957145691e-02 -9.039239585399627686e-02 -7.454512268304824829e-02 4.505722969770431519e-02 -5.710231512784957886e-02 -2.138945162296295166e-01 -2.102023810148239136e-01 -1.899234652519226074e-01 1.015537604689598083e-01 -6.197229493409395218e-03 -6.635139882564544678e-02 2.810077667236328125e-01 8.896040171384811401e-02 1.826194673776626587e-02 -9.803518652915954590e-03 1.765100955963134766e-01 3.201386630535125732e-01 3.025197386741638184e-01 -1.767448633909225464e-01 -9.170687198638916016e-01 -1.142424821853637695e+00 -6.656971573829650879e-01 3.260077834129333496e-01 5.533696413040161133e-01 4.804388284683227539e-01 2.498586326837539673e-01 5.879167318344116211e-01 5.266773700714111328e-01 5.187254548072814941e-01 2.810035943984985352e-01 7.098491191864013672e-01 1.863026171922683716e-01 -1.200605258345603943e-01 1.774575710296630859e-01 8.569909632205963135e-02 5.985093861818313599e-02 -1.157529428601264954e-01 -1.270603686571121216e-01 -1.368468403816223145e-01 -1.761628538370132446e-01 -8.526445180177688599e-02 -1.605990827083587646e-01 -2.007845044136047363e-01 -4.606982767581939697e-01 -2.882277965545654297e-01 -1.445801854133605957e-01 -2.112252265214920044e-01 -4.015569686889648438e-01 -5.418458580970764160e-01 -4.320226013660430908e-01 -3.132058382034301758e-01
8.561521023511886597e-02 1.714178621768951416e-01 -9.015612304210662842e-02 8.279649540781974792e-03 -2.047959268093109131e-01 -2.218580096960067749e-01 -6.735555827617645264e-02 3.151261433959007263e-02 -3.538737297058105469e-01 -3.693805038928985596e-01 -1.613753139972686768e-01 -7.257061451673507690e-02 1.519047021865844727e-01 1.796670258045196533e-01 1.231404300779104233e-02 1.953695863485336304e-01 -1.502291206270456314e-02 2.923655323684215546e-02 2.597158551216125488e-01 1.199964582920074463e-01 1.736187934875488281e-01 -9.068578481674194336e-03 1.842546015977859497e-01 2.264325320720672607e-01 5.574719309806823730e-01 -1.899825185537338257e-01 7.158011198043823242e-02 9.016076475381851196e-02 8.466625809669494629e-01 1.046881794929504395e+00 5.141867399215698242e-01 -7.082213759422302246e-01 -7.273646593093872070e-01 2.429307904094457626e-03 3.983268737792968750e-01 2.891288101673126221e-01 5.972096920013427734e-01 5.357209444046020508e-01 6.062760353088378906e-01 6.116641163825988770e-01 4.414894282817840576e-01 4.153560996055603027e-01 2.819950580596923828e-01 2.041495218873023987e-02 2.022750824689865112e-01 -4.270578175783157349e-02 -1.057775542140007019e-01 -9.340193867683410645e-02 1.117403060197830200e-01 1.385687440633773804e-01 -1.036372873932123184e-02 6.996169220656156540e-03 -4.173357188701629639e-01 -1.345404088497161865e-01 -2.525017857551574707e-01 -1.750643402338027954e-01 -1.286878529936075211e-02 -1.325912922620773315e-01 -2.135533839464187622e-01 -2.281736284494400024e-01 -5.305733680725097656e-01 -2.610088698565959930e-02
3.290864452719688416e-02 -7.679460942745208740e-02 -6.582304090261459351e-02 8.964756131172180176e-02 6.053523719310760498e-02 8.727678656578063965e-02 2.394528985023498535e-01 1.322017749771475792e-03 3.324099257588386536e-02 -2.621608041226863861e-02 -1.937154680490493774e-01 -1.208243742585182190e-01 -2.097140699625015259e-01 -1.056872755289077759e-01 1.523253470659255981e-01 2.345860302448272705e-01 1.236670091748237610e-01 2.302615530788898468e-02 2.727816998958587646e-01 1.282530874013900757e-01 -1.687068305909633636e-02 1.771047115325927734e-01 2.584022879600524902e-01 4.097604453563690186e-01 1.693722456693649292e-01 1.410238146781921387e-01 -1.635352224111557007e-01 -9.678153991699218750e-01 1.427456736564636230e-01 1.969817757606506348e+00 1.402032375335693359e+00 7.277795076370239258e-01 -1.555493831634521484e+00 -2.275226563215255737e-01 5.398921370506286621e-01 1.320246756076812744e-01 1.211632490158081055e-01 4.386348128318786621e-01 5.085350871086120605e-01 4.035985171794891357e-01 6.902036070823669434e-01 6.429247260093688965e-01 4.614366292953491211e-01 1.189696937799453735e-01 1.341010630130767822e-01 2.433435022830963135e-01 -2.458098530769348145e-01 -4.036527574062347412e-01 4.828158766031265259e-02 -6.160620227456092834e-02 6.067370995879173279e-02 4.817474633455276489e-02 -5.836043506860733032e-02 9.316520299762487411e-04 -1.323059573769569397e-02 1.941218040883541107e-02 1.473422348499298096e-02 -6.287244707345962524e-02 -2.502438724040985107e-01 -4.850392937660217285e-01 -6.584075689315795898e-01 -2.265995144844055176e-01
5.139374136924743652e-01 4.086544215679168701e-01 1.532994657754898071e-01 9.018953889608383179e-03 6.241473928093910217e-02 -9.931790642440319061e-03 -4.417911544442176819e-02 2.689006328582763672e-01 3.803475201129913330e-01 8.980757743120193481e-02 -5.986958742141723633e-02 1.979515701532363892e-01 9.242612123489379883e-02 2.642289698123931885e-01 7.421147823333740234e-02 1.577685624361038208e-01 2.142421007156372070e-01 3.368538245558738708e-02 3.701725304126739502e-01 1.996861696243286133e-01 3.209271430969238281e-01 3.566374778747558594e-01 5.462035536766052246e-01 7.484819889068603516e-01 4.008875489234924316e-01 4.616793096065521240e-01 1.168057695031166077e-01 -9.344445466995239258e-01 -1.214260458946228027e-01 1.379585385322570801e+00 1.513634204864501953e+00 1.365849673748016357e-01 -7.696771621704101562e-01 -4.562813043594360352e-01 7.474728226661682129e-01 3.849870264530181885e-01 3.530696630477905273e-01 6.381933093070983887e-01 8.923466801643371582e-01 2.516085803508758545e-01 8.956256508827209473e-01 6.474019885063171387e-01 4.412881731986999512e-01 -9.143948554992675781e-02 2.830671370029449463e-01 2.615404725074768066e-01 2.168304622173309326e-01 9.562001377344131470e-02 2.105186134576797485e-01 -2.437480539083480835e-02 -3.170559704303741455e-01 3.008309751749038696e-02 1.349809616804122925e-01 8.623640052974224091e-03 8.625190705060958862e-03 1.804682165384292603e-01 3.170906007289886475e-01 -1.124716103076934814e-01 -2.069834023714065552e-01 -5.501729249954223633e-02 -1.903374493122100830e-01 -2.511374056339263916e-01
2.222845107316970825e-01 3.471497893333435059e-01 2.317816168069839478e-01 3.516522049903869629e-02 -1.357885748147964478e-01 -1.622048616409301758e-01 -1.764921545982360840e-01 -2.351398915052413940e-01 2.391752414405345917e-02 1.814551353454589844e-01 -2.633075788617134094e-02 -1.076157763600349426e-01 -4.731635376811027527e-02 -2.180112004280090332e-01 1.314259916543960571e-01 6.246479600667953491e-02 1.750396788120269775e-01 -2.131723016500473022e-01 -2.211171835660934448e-01 -2.348671406507492065e-01 -1.462789922952651978e-01 -1.989334635436534882e-02 1.330033782869577408e-02 7.260453104972839355e-01 4.730886220932006836e-02 2.076005339622497559e-01 -7.399073988199234009e-02 -1.273267626762390137e+00 -1.501152873039245605e+00 2.598426938056945801e-01 -1.676365733146667480e-01 -1.484904289245605469e+00 -1.540794849395751953e+00 -1.444856077432632446e-01 2.716476917266845703e-01 4.799486398696899414e-01 -1.193185299634933472e-01 2.823491394519805908e-01 4.974211454391479492e-01 1.366868242621421814e-02 7.477909326553344727e-01 3.886367976665496826e-01 1.292893290519714355e-01 -9.100606292486190796e-02 7.642650511115789413e-03 2.816157639026641846e-01 -8.032600581645965576e-02 -2.149473875761032104e-01 -1.226568594574928284e-01 -1.819248199462890625e-01 -1.146842986345291138e-01 -3.673952445387840271e-02 -1.606739312410354614e-01 -8.653028309345245361e-02 1.921875029802322388e-01 -2.880676090717315674e-01 -1.600167006254196167e-01 4.404993727803230286e-02 -3.147329390048980713e-01 -2.960041165351867676e-01 -3.384147882461547852e-01 -1.369408518075942993e-01
1.164237111806869507e-01 5.795822143554687500e-01 3.563086688518524170e-01 9.113318473100662231e-02 -1.408919095993041992e-01 -2.341333627700805664e-01 -2.956097722053527832e-01 2.369390577077865601e-01 6.211867928504943848e-02 1.357241421937942505e-01 -6.830396503210067749e-02 -2.601389586925506592e-01 6.178030744194984436e-02 3.424651920795440674e-02 1.540264636278152466e-01 -1.079691294580698013e-02 1.791739612817764282e-01 1.510120183229446411e-01 -5.979736521840095520e-02 1.548412293195724487e-01 7.716226577758789062e-02 8.860762417316436768e-02 2.376303374767303467e-01 7.049840092658996582e-01 4.557255804538726807e-01 7.799155265092849731e-02 4.951905608177185059e-01 -1.482079178094863892e-01 -4.127930477261543274e-02 -1.181125998497009277e+00 -9.622244834899902344e-01 -1.558677554130554199e+00 1.916093081235885620e-01 -8.531837910413742065e-02 3.375876247882843018e-01 2.432926744222640991e-01 4.877077341079711914e-01 2.150410972535610199e-02 2.697865664958953857e-01 3.904886245727539062e-01 6.077904701232910156e-01 6.793371438980102539e-01 1.111623346805572510e-01 -1.993791759014129639e-01 -1.608562655746936798e-03 1.248993128538131714e-01 1.277609020471572876e-01 1.455932706594467163e-01 1.753387451171875000e-01 7.406127452850341797e-02 3.628218173980712891e-02 -2.282581180334091187e-01 2.934778928756713867e-01 -3.182114660739898682e-02 -2.276105582714080811e-01 -2.733797430992126465e-01 8.998535573482513428e-02 -3.630868718028068542e-02 -5.340745672583580017e-02 4.416056722402572632e-02 -7.562329620122909546e-02 8.191463351249694824e-02
4.619681239128112793e-01 3.372380137443542480e-01 3.288860619068145752e-01 3.313419520854949951e-01 2.960957884788513184e-01 -2.648241519927978516e-01 -1.150120571255683899e-01 3.703073561191558838e-01 2.934489250183105469e-01 -2.761863470077514648e-01 6.263135373592376709e-02 4.129860550165176392e-02 -2.196581475436687469e-02 1.593874692916870117e-01 2.269274294376373291e-01 1.998238563537597656e-01 1.091794446110725403e-01 1.081406176090240479e-01 1.360391825437545776e-01 5.417648553848266602e-01 1.773840188980102539e-01 3.569251596927642822e-01 3.407244682312011719e-01 5.209269523620605469e-01 3.381405472755432129e-01 4.512923955917358398e-01 7.716733813285827637e-01 3.892879486083984375e-01 -1.606369204819202423e-02 -5.729598458856344223e-03 -1.565246582031250000e-01 -2.455039918422698975e-01 -2.322222143411636353e-01 -2.960659004747867584e-02 5.980566740036010742e-01 3.118402063846588135e-01 5.547060966491699219e-01 7.786300182342529297e-01 8.697509765625000000e-01 8.435313105583190918e-01 7.830673456192016602e-01 9.257828593254089355e-01 3.953186869621276855e-01 2.996674776077270508e-01 3.003900051116943359e-01 3.049170970916748047e-01 1.977179050445556641e-01 -8.805422484874725342e-02 1.086225658655166626e-01 1.361975669860839844e-01 8.874199539422988892e-02 3.321278467774391174e-02 4.922713935375213623e-01 3.828817903995513916e-01 -3.116505146026611328e-01 -1.667464524507522583e-02 3.416159749031066895e-01 -4.218973219394683838e-02 5.629033595323562622e-02 -1.646585464477539062e-01 -2.863603830337524414e-01 -4.276492595672607422e-01
6.387949585914611816e-01 4.004536569118499756e-01 3.886419534683227539e-01 3.885169625282287598e-01 2.230113744735717773e-01 1.818849742412567139e-01 1.448519676923751831e-01 2.517368793487548828e-01 4.358575642108917236e-01 5.502970144152641296e-02 1.969962008297443390e-02 7.498511672019958496e-02 -2.375031635165214539e-02 -1.377201825380325317e-01 -1.045581921935081482e-01 1.192291378974914551e-01 1.807854175567626953e-01 2.615198194980621338e-01 1.585613042116165161e-01 2.474772036075592041e-01 3.524314165115356445e-01 2.883934378623962402e-01 2.514145970344543457e-01 2.914201021194458008e-01 3.850752115249633789e-01 3.348110616207122803e-01 7.761354446411132812e-01 3.026189506053924561e-01 3.826529979705810547e-01 3.479799330234527588e-01 4.133056402206420898e-01 -4.716648161411285400e-02 -2.685663402080535889e-01 4.033882319927215576e-01 8.587940335273742676e-01 6.277141571044921875e-01 6.280412077903747559e-01 6.332405805587768555e-01 4.629895091056823730e-01 7.382579445838928223e-01 5.167229175567626953e-01 5.447657704353332520e-01 2.222803533077239990e-01 9.963987022638320923e-02 2.919948101043701172e-01 5.469503626227378845e-02 -2.050399482250213623e-01 -3.375671058893203735e-02 -1.069526840001344681e-02 5.578118935227394104e-02 1.449305098503828049e-02 4.696536958217620850e-01 3.052817881107330322e-01 -1.958535052835941315e-02 -1.104501187801361084e-01 1.878492534160614014e-01 3.865357041358947754e-01 2.197806024923920631e-03 -1.655839234590530396e-01 -1.816874146461486816e-01 -1.487951427698135376e-01 -2.059945166110992432e-01
2.299126982688903809e-01 4.314659833908081055e-01 2.269478701055049896e-02 1.177379786968231201e-01 2.456141263246536255e-01 3.647357970476150513e-02 -3.107845187187194824e-01 -5.635347962379455566e-02 -1.116835698485374451e-01 -1.976490393280982971e-02 9.123748540878295898e-02 9.203079156577587128e-03 -3.433018922805786133e-02 1.606404408812522888e-02 -1.468329727649688721e-01 -2.527558207511901855e-01 -1.501105278730392456e-01 1.108652800321578979e-01 -2.601734101772308350e-01 -7.935670763254165649e-02 4.250158369541168213e-02 1.068921163678169250e-01 1.654557138681411743e-01 2.753513455390930176e-01 3.228094577789306641e-01 5.675531923770904541e-03 2.853893339633941650e-01 1.177666559815406799e-01 2.117384970188140869e-01 5.446234941482543945e-01 4.816470742225646973e-01 3.917387872934341431e-02 -7.650629151612520218e-03 6.036529690027236938e-02 6.414014101028442383e-01 4.222755134105682373e-01 6.187843680381774902e-01 6.059605479240417480e-01 3.317866027355194092e-01 9.053674936294555664e-01 4.298725128173828125e-01 2.460586875677108765e-01 -3.016750328242778778e-02 1.344171762466430664e-01 8.544516563415527344e-02 -1.638713851571083069e-02 -1.749113351106643677e-01 1.163807660341262817e-01 -1.839861869812011719e-01 -1.362606137990951538e-01 -9.089834988117218018e-02 1.307812184095382690e-01 1.117796227335929871e-01 -2.409383505582809448e-01 -3.390255570411682129e-01 1.673994935117661953e-03 3.599818348884582520e-01 7.582163438200950623e-03 -2.483721375465393066e-01 -2.428664863109588623e-01 -9.823960065841674805e-02 -9.947934746742248535e-02
2.675204910337924957e-02 7.737691700458526611e-02 1.459275186061859131e-01 6.930764298886060715e-03 1.503280252218246460e-01 -2.007363140583038330e-01 -2.945958375930786133e-01 -3.495265543460845947e-02 8.212881535291671753e-02 1.306684315204620361e-01 -1.688059419393539429e-02 -2.470634877681732178e-02 9.416018426418304443e-02 -4.884915798902511597e-02 5.772403627634048462e-02 -1.713774353265762329e-01 9.950477629899978638e-02 3.337653577327728271e-01 2.328944355249404907e-01 -3.236839473247528076e-01 8.277299255132675171e-02 3.430405259132385254e-01 3.220812678337097168e-01 2.672661840915679932e-01 4.705187082290649414e-01 2.000443786382675171e-01 3.841502070426940918e-01 4.579490423202514648e-01 6.057130098342895508e-01 2.592276334762573242e-01 6.196969747543334961e-01 -2.661778405308723450e-02 3.073054552078247070e-01 3.546099960803985596e-01 3.577452301979064941e-01 6.671682000160217285e-01 4.783612787723541260e-01 4.958316087722778320e-01 3.867587149143218994e-01 9.832452535629272461e-01 2.048047184944152832e-01 1.920133382081985474e-01 3.955383598804473877e-01 1.847401261329650879e-01 -2.337732464075088501e-01 -1.661951839923858643e-01 5.951973050832748413e-02 2.067009806632995605e-01 -9.133744053542613983e-03 1.516344696283340454e-01 7.093087583780288696e-02 1.482411623001098633e-01 -8.058232814073562622e-02 -3.140529096126556396e-01 -1.498961001634597778e-01 2.423250824213027954e-01 1.098104417324066162e-01 6.225056480616331100e-03 -2.848291695117950439e-01 -3.142647743225097656e-01 4.893604665994644165e-02 1.367327570915222168e-01
-1.437227725982666016e-01 -2.088791579008102417e-01 -5.533703789114952087e-02 -3.620201349258422852e-02 -5.581841617822647095e-02 -4.989261627197265625e-01 -4.631293416023254395e-01 -1.996280699968338013e-01 9.722515009343624115e-03 1.975999474525451660e-01 -7.915397733449935913e-02 -9.859197307378053665e-04 2.566055953502655029e-01 -3.686092793941497803e-02 2.849219143390655518e-01 2.401974648237228394e-01 -1.620543450117111206e-01 -1.685116589069366455e-01 3.644998371601104736e-02 6.632808595895767212e-02 2.719803154468536377e-02 4.580388367176055908e-01 7.392902970314025879e-01 6.322090625762939453e-01 6.537912487983703613e-01 4.089005887508392334e-01 7.012843489646911621e-01 3.827179372310638428e-01 4.956230223178863525e-01 1.146905198693275452e-01 5.934774875640869141e-01 3.753984570503234863e-01 4.465744793415069580e-01 7.759865522384643555e-01 7.528337240219116211e-01 6.510890126228332520e-01 3.980737030506134033e-01 8.855139017105102539e-01 9.889787435531616211e-01 3.518112599849700928e-01 2.564337253570556641e-01 2.775398790836334229e-01 1.504322048276662827e-02 -2.075370103120803833e-01 -8.936815895140171051e-03 3.892441987991333008e-01 -1.376754194498062134e-01 9.249189170077443123e-04 1.412448137998580933e-01 2.150129377841949463e-01 1.723012775182723999e-01 2.977197468280792236e-01 -1.613306850194931030e-01 -5.362914204597473145e-01 -1.817413866519927979e-01 1.267325580120086670e-01 -4.525770246982574463e-02 -4.801402240991592407e-02 -3.118366599082946777e-01 -3.867986500263214111e-01 -3.398322314023971558e-02 -5.469150841236114502e-02
1.302118897438049316e-01 -1.618463546037673950e-01 -3.019731044769287109e-01 -5.939523503184318542e-02 3.310542553663253784e-02 -2.703340649604797363e-01 -1.989272236824035645e-02 -1.016027778387069702e-01 -2.411951869726181030e-02 9.938052296638488770e-02 1.448656767606735229e-01 -9.633250534534454346e-02 3.948988914489746094e-01 -3.118230104446411133e-01 -4.449109733104705811e-02 1.825268119573593140e-01 3.959493711590766907e-02 -2.657415866851806641e-01 2.742204666137695312e-01 1.493857353925704956e-01 8.696390688419342041e-02 -1.268068104982376099e-01 6.921912431716918945e-01 7.959314584732055664e-01 2.016468346118927002e-01 -3.820285201072692871e-02 5.364949703216552734e-01 3.698258399963378906e-01 4.341309070587158203e-01 1.944754868745803833e-01 7.756399512290954590e-01 4.294740259647369385e-01 5.007069110870361328e-01 1.008101105690002441e+00 4.237464070320129395e-01 4.914890527725219727e-01 5.099931359291076660e-01 1.024529576301574707e+00 3.054329454898834229e-01 5.093725770711898804e-02 3.462542295455932617e-01 3.163996636867523193e-01 -2.178470604121685028e-02 -7.228754460811614990e-02 1.966513842344284058e-01 3.193675875663757324e-01 -2.461102753877639771e-01 7.920140027999877930e-02 5.650283098220825195e-01 2.954461239278316498e-02 1.288572400808334351e-01 -6.160504743456840515e-02 -3.308232426643371582e-01 -1.671675443649291992e-01 -2.499892711639404297e-01 -2.654549479484558105e-01 -3.128596246242523193e-01 -4.717141091823577881e-01 -4.425859451293945312e-01 -2.541890144348144531e-01 -2.915360778570175171e-02 -9.682117402553558350e-02
-8.804226666688919067e-02 7.198534905910491943e-03 -2.823995612561702728e-02 -3.527241647243499756e-01 -4.294509887695312500e-01 1.542838960886001587e-01 -2.058052867650985718e-01 1.780722523108124733e-03 -2.023682445287704468e-01 -1.705090254545211792e-01 -1.344808638095855713e-01 -5.166165828704833984e-01 -7.573924213647842407e-02 -1.185095608234405518e-01 -5.804643034934997559e-01 -1.170692890882492065e-01 1.807506978511810303e-01 -2.133469432592391968e-01 -2.242926359176635742e-01 -2.910889983177185059e-01 1.192017346620559692e-01 2.023967206478118896e-01 -1.422251388430595398e-02 8.845783025026321411e-02 5.934653878211975098e-01 8.255411386489868164e-01 5.940423607826232910e-01 2.626218795776367188e-01 5.091477036476135254e-01 3.712602853775024414e-01 4.028027653694152832e-01 7.942039370536804199e-01 3.042721748352050781e-01 6.355729699134826660e-01 4.718364179134368896e-01 8.555135130882263184e-01 7.895080447196960449e-01 1.465097814798355103e-02 -2.922350540757179260e-02 2.556533217430114746e-01 1.799705624580383301e-01 -1.154550723731517792e-02 6.167755648493766785e-02 4.468601569533348083e-02 -1.505020856857299805e-01 -1.619853824377059937e-02 -2.171828299760818481e-01 1.786646246910095215e-01 -2.143698036670684814e-01 -5.537287592887878418e-01 -7.557284832000732422e-02 1.407896727323532104e-02 -6.067681312561035156e-01 -2.596735954284667969e-01 -1.249515786767005920e-01 -2.206109017133712769e-01 -6.388044357299804688e-02 -2.336903959512710571e-01 -9.761603176593780518e-02 -2.191317453980445862e-02 8.081985265016555786e-02 -2.877340614795684814e-01
2.568045854568481445e-01 1.363874822854995728e-01 2.389714121818542480e-01 -2.084525525569915771e-01 8.700004220008850098e-02 2.950475923717021942e-02 -2.823644876480102539e-01 4.230660572648048401e-02 2.058065123856067657e-02 5.620392411947250366e-02 1.280195545405149460e-02 -2.925450503826141357e-01 -2.868691980838775635e-01 1.374176144599914551e-01 -1.315666288137435913e-01 -1.010625511407852173e-01 2.660162448883056641e-01 1.919219493865966797e-01 7.079643756151199341e-02 -5.371831823140382767e-03 -1.667893119156360626e-02 5.064353346824645996e-02 8.551372587680816650e-02 1.871857345104217529e-01 3.603294193744659424e-01 2.717480063438415527e-01 8.497356772422790527e-01 8.232282400131225586e-01 7.541667222976684570e-01 1.127091050148010254e+00 9.392437934875488281e-01 8.416696786880493164e-01 6.934794783592224121e-01 7.997044920921325684e-01 8.120293021202087402e-01 3.394470214843750000e-01 5.429058670997619629e-01 4.312860071659088135e-01 4.048210978507995605e-01 9.016740322113037109e-02 6.343294680118560791e-02 1.143333688378334045e-01 3.728814721107482910e-01 3.572289943695068359e-01 1.922052800655364990e-01 6.443609017878770828e-03 -9.121674299240112305e-02 -3.078096546232700348e-02 -2.641421854496002197e-01 -4.274914413690567017e-02 3.419094085693359375e-01 8.932657539844512939e-02 -1.852795332670211792e-01 -2.993282377719879150e-01 -1.527648884803056717e-02 3.438987135887145996e-01 1.650173068046569824e-01 -8.981366455554962158e-02 -1.612652391195297241e-01 7.349322736263275146e-02 -5.372199043631553650e-02 -3.845934569835662842e-02
5.846830606460571289e-01 1.390198022127151489e-01 -1.962889172136783600e-02 -3.240959346294403076e-01 1.676380187273025513e-01 1.456131637096405029e-01 8.191106468439102173e-02 -1.908443272113800049e-01 -2.508905231952667236e-01 3.106538206338882446e-02 1.813565045595169067e-01 -6.410392373800277710e-02 -1.287685036659240723e-01 2.242195047438144684e-02 -1.730418018996715546e-02 1.865328662097454071e-02 1.503209620714187622e-01 -7.624465227127075195e-02 -9.515446424484252930e-02 -8.162717567756772041e-04 -2.740105846896767616e-03 -1.116791367530822754e-01 1.431605666875839233e-01 3.287112712860107422e-01 2.293334007263183594e-01 2.575716972351074219e-01 6.662405133247375488e-01 8.364463448524475098e-01 4.689681529998779297e-01 1.014407992362976074e+00 8.163102865219116211e-01 4.349161386489868164e-01 3.741165101528167725e-01 6.695291996002197266e-01 3.016706109046936035e-01 -1.316457986831665039e-01 1.259514093399047852e-01 4.019863009452819824e-01 2.971466183662414551e-01 -2.322845393791794777e-03 1.937462240457534790e-01 -1.314573734998703003e-01 2.735846638679504395e-01 1.213706955313682556e-01 -9.622324258089065552e-02 -5.882338434457778931e-02 1.720824092626571655e-01 2.887742780148983002e-02 -4.757780407089740038e-04 1.739049851894378662e-01 2.307485491037368774e-01 8.866648189723491669e-03 -2.680222988128662109e-01 2.787188626825809479e-02 1.832472980022430420e-01 1.121849194169044495e-01 -1.679661870002746582e-01 -2.352137714624404907e-01 -6.906180828809738159e-02 4.171634912490844727e-01 3.079853393137454987e-02 6.089646369218826294e-02
1.037985011935234070e-01 2.111707627773284912e-01 2.564747333526611328e-01 -1.246878579258918762e-01 2.427887171506881714e-01 -9.060953557491302490e-02 -5.245103314518928528e-02 1.833650469779968262e-01 1.216400265693664551e-01 -1.667826063930988312e-02 2.021981924772262573e-01 -1.769294738769531250e-01 -1.759947240352630615e-01 -3.078621029853820801e-01 -2.358496487140655518e-01 -1.074056178331375122e-01 -8.292899467051029205e-03 3.537199273705482483e-02 1.562352925539016724e-01 7.855234295129776001e-02 1.424016654491424561e-01 -1.783818900585174561e-01 4.797984361648559570e-01 3.662653565406799316e-01 2.801682054996490479e-01 -1.995046436786651611e-01 4.764384776353836060e-02 -2.082812637090682983e-01 1.271276772022247314e-01 3.304792046546936035e-01 3.831372261047363281e-01 3.152661323547363281e-01 7.146757096052169800e-02 1.060777753591537476e-01 2.808301448822021484e-01 1.128946617245674133e-01 4.288362562656402588e-01 4.277459681034088135e-01 2.269666939973831177e-01 5.005308240652084351e-02 5.364265292882919312e-02 1.192623935639858246e-02 2.733112275600433350e-01 -9.800545871257781982e-02 -5.364573746919631958e-02 2.630284726619720459e-01 1.323830783367156982e-01 -3.901758790016174316e-01 1.415342390537261963e-01 -1.879635034129023552e-03 1.118068769574165344e-01 -7.457584887742996216e-02 -7.965167053043842316e-03 3.841073513031005859e-01 8.425040543079376221e-02 1.511865556240081787e-01 1.419569104909896851e-01 -3.906895220279693604e-01 1.169209629297256470e-01 3.452988862991333008e-01 -1.680945307016372681e-01 -3.059729039669036865e-01
2.390289604663848877e-01 2.570466995239257812e-01 1.591372787952423096e-01 1.644208654761314392e-02 3.072619438171386719e-01 2.882318571209907532e-02 -2.135961875319480896e-02 1.112309321761131287e-01 5.616083275526762009e-03 -2.469072043895721436e-01 -1.065709348767995834e-02 -1.299272477626800537e-01 -1.211669966578483582e-01 1.775398403406143188e-01 -2.488058060407638550e-01 -3.120170906186103821e-02 5.233536288142204285e-02 -1.176837533712387085e-01 -8.942549116909503937e-03 -1.562476605176925659e-01 -7.056054472923278809e-02 -2.280403673648834229e-01 -4.959018155932426453e-02 -1.374794691801071167e-01 1.873929500579833984e-01 1.307824254035949707e-01 4.421441256999969482e-02 -7.840106263756752014e-03 2.686788141727447510e-01 6.129814311861991882e-02 3.914785385131835938e-02 2.722963094711303711e-01 1.005574762821197510e-01 1.750240027904510498e-01 5.426285266876220703e-01 3.637002408504486084e-01 2.156236320734024048e-01 1.149920970201492310e-01 -7.089192513376474380e-03 -1.903304159641265869e-01 2.427185475826263428e-01 2.413592636585235596e-01 1.733236759901046753e-01 -1.233296394348144531e-01 2.801930904388427734e-01 4.297894611954689026e-02 9.104574471712112427e-02 2.539921402931213379e-01 7.646764814853668213e-02 3.797437623143196106e-02 7.814220339059829712e-02 -6.601108238101005554e-03 2.721742913126945496e-02 1.660889983177185059e-01 8.118993788957595825e-02 7.331793010234832764e-02 -2.433053553104400635e-01 -2.775135040283203125e-01 -6.117731705307960510e-02 -9.867886453866958618e-02 -3.390053212642669678e-01 9.081951528787612915e-02
3.345255851745605469e-01 1.469782292842864990e-01 -1.281435936689376831e-01 -1.045665070414543152e-01 1.308626085519790649e-01 6.218449026346206665e-02 -7.200673222541809082e-02 8.944075554609298706e-02 2.588452771306037903e-02 -7.036638259887695312e-02 -4.303362965583801270e-02 -3.640745207667350769e-02 -6.061121821403503418e-02 1.214641034603118896e-01 -1.240705251693725586e-01 5.520891025662422180e-02 1.592350006103515625e-01 6.526292115449905396e-02 1.748771369457244873e-01 2.861056625843048096e-01 3.363462984561920166e-01 3.147296309471130371e-01 3.177365660667419434e-01 1.508313119411468506e-01 -2.231051921844482422e-01 2.100453227758407593e-01 5.512583255767822266e-01 1.397163420915603638e-01 2.663822472095489502e-01 1.889271885156631470e-01 3.455665409564971924e-01 4.185973107814788818e-02 1.612798571586608887e-01 4.008474647998809814e-01 4.200055003166198730e-01 -1.158926859498023987e-01 -1.186099648475646973e-01 1.686734706163406372e-01 2.034043669700622559e-01 2.062378823757171631e-01 2.465341687202453613e-01 2.768149375915527344e-01 2.112436890602111816e-01 1.679017692804336548e-01 -8.920891582965850830e-02 -1.162263751029968262e-01 2.640461735427379608e-02 -5.573100969195365906e-02 -1.083751544356346130e-01 -3.285589814186096191e-01 -1.714988052845001221e-01 -7.905973121523857117e-03 3.131815791130065918e-02 8.453568816184997559e-02 1.925331912934780121e-02 -6.462288647890090942e-02 -2.464489825069904327e-02 -4.377742111682891846e-01 -2.701418399810791016e-01 -2.016581147909164429e-01 -3.207843899726867676e-01 9.304619394242763519e-03
-4.839132726192474365e-02 1.145162284374237061e-01 9.443861991167068481e-02 -2.035710513591766357e-01 -2.820646017789840698e-02 5.670636519789695740e-02 -5.413953587412834167e-02 -3.654649108648300171e-02 -1.267769336700439453e-01 -2.858044803142547607e-01 -6.197345256805419922e-01 -2.900210618972778320e-01 -1.668617129325866699e-01 -1.003916561603546143e-01 -2.050044238567352295e-01 1.004891470074653625e-01 1.173439919948577881e-01 5.618715286254882812e-02 1.514046266674995422e-02 -5.590623989701271057e-02 8.716265112161636353e-02 5.664834752678871155e-02 2.544691562652587891e-01 3.431140258908271790e-02 -2.061066776514053345e-01 2.425503171980381012e-02 2.316051274538040161e-01 -1.023672521114349365e-01 -3.942414373159408569e-02 1.961711235344409943e-02 2.799161374568939209e-01 4.520602524280548096e-01 -7.412096858024597168e-02 1.137031093239784241e-01 4.133291542530059814e-01 1.672828942537307739e-01 -2.487278543412685394e-02 3.799473047256469727e-01 2.617019712924957275e-01 -3.225651681423187256e-01 -7.323174178600311279e-02 -3.502476960420608521e-02 -7.366927713155746460e-02 -8.149216324090957642e-02 -5.153405014425516129e-03 -1.265855729579925537e-01 -6.441726814955472946e-03 -8.594701439142227173e-02 2.268988825380802155e-02 -2.209696918725967407e-01 -2.473100721836090088e-01 -2.197858244180679321e-01 -1.511169373989105225e-01 -2.500005066394805908e-01 -2.057845443487167358e-01 -2.001765966415405273e-01 1.190739776939153671e-02 -1.709099113941192627e-01 -1.732480078935623169e-01 -6.629191339015960693e-02 -2.083863765001296997e-01 -1.817217618227005005e-01
-1.718946844339370728e-01 -2.925287485122680664e-01 -4.650495201349258423e-02 7.464304566383361816e-02 -1.462364494800567627e-01 -1.130893602967262268e-01 -2.441804707050323486e-01 -1.332025509327650070e-02 -1.278273016214370728e-01 -3.363239765167236328e-01 -5.683014392852783203e-01 -3.033291399478912354e-01 9.368608146905899048e-02 6.211135908961296082e-02 -1.886187791824340820e-01 -3.649449720978736877e-02 1.224621087312698364e-01 1.748577505350112915e-01 4.587873220443725586e-01 2.756038904190063477e-01 5.986013635993003845e-02 -1.388125270605087280e-01 -1.349056065082550049e-01 -8.363046497106552124e-02 -1.367892324924468994e-01 -1.561822891235351562e-01 9.086023271083831787e-02 -3.773586824536323547e-03 -4.172790795564651489e-02 -2.110147029161453247e-01 1.571278870105743408e-01 1.705593764781951904e-01 4.247444495558738708e-02 5.934761464595794678e-02 -1.504452079534530640e-01 1.275585442781448364e-01 6.601001322269439697e-02 -1.322023868560791016e-01 4.287553206086158752e-02 -3.477483987808227539e-01 -1.312885880470275879e-01 1.932200193405151367e-01 -3.483697399497032166e-02 -7.479453831911087036e-02 5.893880873918533325e-02 -5.489110480993986130e-03 -3.156290650367736816e-01 -1.543253939598798752e-02 -2.740112543106079102e-01 -3.878278732299804688e-01 -1.161656007170677185e-01 9.752312302589416504e-02 4.006047919392585754e-02 -1.904089152812957764e-01 -3.222777247428894043e-01 -2.531264126300811768e-01 -1.681917756795883179e-01 -2.535552382469177246e-01 -1.381326317787170410e-01 -1.439245045185089111e-01 -1.583296358585357666e-01 8.625594899058341980e-03
1.815910935401916504e-01 2.980882823467254639e-01 1.145516559481620789e-01 6.636232137680053711e-02 -1.592788398265838623e-01 -2.472489923238754272e-01 -9.122331440448760986e-02 3.699379414319992065e-02 2.327434904873371124e-02 -1.432694345712661743e-01 -4.069224298000335693e-01 -4.025734364986419678e-01 -9.380416944622993469e-03 5.932539701461791992e-02 2.796553075313568115e-03 -7.481979578733444214e-02 4.519306719303131104e-01 1.027344614267349243e-01 -1.126656234264373779e-01 8.264435827732086182e-02 2.349781095981597900e-01 5.710650682449340820e-01 -1.315698772668838501e-01 1.246619299054145813e-01 7.951473444700241089e-02 -6.092086061835289001e-02 -4.896045196801424026e-03 4.347803071141242981e-03 -1.324190795421600342e-01 -2.900284901261329651e-02 1.533869355916976929e-01 -1.125022545456886292e-01 -1.888757944107055664e-01 5.155183374881744385e-02 2.215938419103622437e-01 1.412379145622253418e-01 -4.656026605516672134e-03 3.756240010261535645e-02 9.521435946226119995e-02 3.616810739040374756e-01 2.045275419950485229e-01 1.518493890762329102e-01 8.244935423135757446e-02 1.126240342855453491e-01 1.004755310714244843e-02 -3.907686471939086914e-02 -2.310190051794052124e-01 -3.084324300289154053e-02 -1.558700799942016602e-01 -3.255320489406585693e-01 -1.023722253739833832e-02 3.026133477687835693e-01 -2.272319421172142029e-02 6.568315904587507248e-03 -1.927198171615600586e-01 -2.939966022968292236e-01 -1.259501874446868896e-01 -1.582321375608444214e-01 -5.771935917437076569e-03 -2.035471051931381226e-01 -8.531305193901062012e-02 -1.087798774242401123e-01
-1.613755375146865845e-01 6.293383240699768066e-02 -2.506643235683441162e-01 -1.808153390884399414e-01 -1.968517899513244629e-02 -3.778384923934936523e-01 -9.023602306842803955e-02 6.520970910787582397e-02 -4.668099060654640198e-02 -3.605995774269104004e-01 -5.120249986648559570e-01 -4.150060415267944336e-01 1.097089424729347229e-01 4.634200036525726318e-02 4.714933037757873535e-02 1.065490208566188812e-02 -1.419990360736846924e-01 -1.737951785326004028e-01 -5.328714102506637573e-02 -2.061430178582668304e-02 -2.638740241527557373e-01 3.848793730139732361e-02 1.243760958313941956e-01 -2.719351463019847870e-02 -3.224320709705352783e-01 -7.654920965433120728e-02 -5.951542872935533524e-03 -2.139113545417785645e-01 3.331043198704719543e-02 -3.574341163039207458e-02 1.717664897441864014e-01 -5.524787306785583496e-02 -1.485999077558517456e-01 2.062140032649040222e-02 -7.432195544242858887e-02 -1.772530376911163330e-01 6.422916799783706665e-02 4.370686113834381104e-01 7.571573555469512939e-02 -1.010373085737228394e-01 -4.471828788518905640e-02 1.397724598646163940e-01 1.332351565361022949e-01 -4.918691143393516541e-02 -1.343498080968856812e-01 -1.270151510834693909e-02 -4.371986091136932373e-01 -2.040918022394180298e-01 -3.773649334907531738e-01 -1.252765208482742310e-01 -3.431915864348411560e-02 2.972601540386676788e-02 2.296712994575500488e-01 5.398605763912200928e-02 -2.417583614587783813e-01 -4.304353892803192139e-01 -2.690011560916900635e-01 -1.857885271310806274e-01 -3.816241919994354248e-01 -2.935437858104705811e-01 -1.781653314828872681e-01 -8.540895581245422363e-02
3.316448032855987549e-01 3.222030401229858398e-01 8.548414707183837891e-02 -1.080318614840507507e-01 -2.743675112724304199e-01 -2.695884108543395996e-01 -1.492779403924942017e-01 1.162652447819709778e-01 -2.563298912718892097e-03 -2.467346936464309692e-01 -3.996751904487609863e-01 -1.069369241595268250e-01 -1.259074807167053223e-01 -4.724480584263801575e-02 5.636737868189811707e-02 -4.899075254797935486e-02 1.424110382795333862e-01 2.973563671112060547e-01 1.467978060245513916e-01 -1.145266965031623840e-01 -1.042386591434478760e-01 -4.293119311332702637e-01 2.070678025484085083e-02 -8.663960546255111694e-02 9.692157059907913208e-02 1.133898645639419556e-02 3.129937127232551575e-02 -1.402894854545593262e-01 -6.937620788812637329e-02 -1.525937765836715698e-01 -3.686145693063735962e-02 -9.506012499332427979e-02 -2.194539159536361694e-01 3.603039681911468506e-02 6.183927878737449646e-02 4.400101006031036377e-01 2.030379176139831543e-01 3.333790600299835205e-02 -3.480944037437438965e-02 -2.990902066230773926e-01 -1.972644031047821045e-01 1.384890675544738770e-01 2.031959593296051025e-01 -3.583244234323501587e-02 3.182756248861551285e-03 8.425773680210113525e-02 -2.884009182453155518e-01 -2.741936445236206055e-01 -2.707028687000274658e-01 -2.507293522357940674e-01 -1.021488085389137268e-01 1.988895982503890991e-01 2.965248823165893555e-01 -1.881905645132064819e-01 -3.814798891544342041e-01 -4.477871954441070557e-01 -8.002799749374389648e-02 -3.803435713052749634e-02 -3.745470643043518066e-01 -8.399755507707595825e-02 -1.228125318884849548e-01 -3.261357173323631287e-02
-1.096526682376861572e-01 1.068822368979454041e-01 7.258798927068710327e-02 6.528405845165252686e-02 3.957052528858184814e-02 -2.024714499711990356e-01 3.146814405918121338e-01 -3.499367088079452515e-02 1.603297442197799683e-01 1.698674112558364868e-01 9.865447133779525757e-02 -1.798769533634185791e-01 3.638406097888946533e-02 2.609706670045852661e-02 3.840514644980430603e-02 5.695217475295066833e-02 9.517041593790054321e-02 1.690732538700103760e-01 1.526313275098800659e-01 3.294230699539184570e-01 2.572738528251647949e-01 -4.203855525702238083e-03 2.147843092679977417e-01 -1.936303377151489258e-01 -4.353935830295085907e-03 -6.469137221574783325e-02 -2.237803488969802856e-02 -2.885041832923889160e-01 -2.718692123889923096e-01 -1.368329226970672607e-01 1.887713670730590820e-01 -1.172890439629554749e-01 -2.675515115261077881e-01 1.131504476070404053e-01 1.477844715118408203e-01 5.096779204905033112e-03 -1.793866977095603943e-02 -2.200534045696258545e-01 -1.882630884647369385e-01 1.134229376912117004e-01 1.662438660860061646e-01 7.821128517389297485e-02 -1.811626739799976349e-02 2.106215991079807281e-02 -1.030121371150016785e-01 -1.476812958717346191e-01 1.568881049752235413e-02 -6.264068931341171265e-02 4.342358186841011047e-02 2.516052722930908203e-01 1.876932382583618164e-01 2.811115086078643799e-01 1.462978869676589966e-01 -5.301716923713684082e-02 -1.047417819499969482e-01 -1.898207962512969971e-01 -2.389958947896957397e-01 1.346032768487930298e-01 -3.385021537542343140e-02 1.249288544058799744e-01 -2.995809353888034821e-02 1.386273215757682920e-04
2.816676497459411621e-01 1.049490422010421753e-01 3.206325471401214600e-01 6.785602867603302002e-02 1.383391767740249634e-01 -3.169931471347808838e-01 -1.561088138259947300e-03 4.946273192763328552e-02 -6.532580405473709106e-02 2.578604519367218018e-01 3.158448934555053711e-01 6.863009929656982422e-02 4.297216534614562988e-01 3.486664891242980957e-01 4.762707278132438660e-02 4.540678560733795166e-01 2.078682929277420044e-01 -1.184953525662422180e-01 -2.196632027626037598e-01 1.979306936264038086e-01 1.586969494819641113e-01 -4.155998677015304565e-02 -3.103443793952465057e-02 1.498710215091705322e-01 -2.789961174130439758e-02 -2.863075137138366699e-01 8.384427428245544434e-02 -2.766687422990798950e-02 1.376185119152069092e-01 5.799677222967147827e-02 -5.666605383157730103e-02 2.833806872367858887e-01 6.784067302942276001e-02 8.677902072668075562e-02 1.646241247653961182e-01 3.970629349350929260e-02 1.890153884887695312e-01 1.620178073644638062e-01 -1.662802547216415405e-01 -3.438781797885894775e-01 -2.982046641409397125e-02 1.068738102912902832e-01 -3.398826420307159424e-01 -1.285760700702667236e-01 1.767179965972900391e-01 4.353602230548858643e-02 -8.203023672103881836e-02 2.176799327135086060e-01 1.132674217224121094e-01 1.215611323714256287e-01 3.019818365573883057e-01 5.190186500549316406e-01 7.277567684650421143e-02 -8.965758606791496277e-03 -1.990518867969512939e-01 -2.083835005760192871e-01 -9.722825139760971069e-02 3.252209126949310303e-01 1.600798219442367554e-01 7.113984227180480957e-02 2.134221978485584259e-02 5.832014605402946472e-02
1.731771230697631836e-01 -1.104663759469985962e-01 -1.788436621427536011e-01 -1.656357347965240479e-01 2.600044012069702148e-01 8.337067067623138428e-02 -2.260887473821640015e-01 -2.844575345516204834e-01 -3.078249283134937286e-02 1.695205420255661011e-01 3.010261356830596924e-01 6.481967400759458542e-03 2.229122668504714966e-01 2.435142397880554199e-01 1.578113809227943420e-02 3.683661296963691711e-02 1.793443560600280762e-01 7.165692746639251709e-02 -2.963594496250152588e-01 -1.579749286174774170e-01 -2.347338348627090454e-01 -4.684314131736755371e-01 -1.513560265302658081e-01 -1.602609828114509583e-02 8.522975258529186249e-03 -8.544772118330001831e-02 3.977654874324798584e-01 -2.108700573444366455e-01 7.819166034460067749e-02 -4.754702746868133545e-02 1.545100212097167969e-01 -1.069778874516487122e-01 -1.938914507627487183e-01 2.351901084184646606e-01 2.750223278999328613e-01 -1.223781257867813110e-01 -1.457089632749557495e-01 -3.171991407871246338e-01 -3.680247068405151367e-01 -4.305762052536010742e-01 -8.038042485713958740e-02 3.666539490222930908e-02 8.059673011302947998e-02 6.213240325450897217e-02 6.810010224580764771e-02 -2.517149448394775391e-01 -1.865680068731307983e-01 -7.086149603128433228e-02 1.235389709472656250e-01 2.231830507516860962e-01 7.049237936735153198e-02 -1.174667403101921082e-01 -3.913926482200622559e-01 -4.439081847667694092e-01 -3.338819742202758789e-01 1.765997409820556641e-01 -2.422058582305908203e-02 -6.287985481321811676e-03 -4.876375198364257812e-02 -6.904926616698503494e-03 -1.445008367300033569e-01 9.447193890810012817e-02
1.012129932641983032e-01 -4.046817496418952942e-02 -2.383778989315032959e-01 5.984348058700561523e-02 -1.147350147366523743e-01 -1.422867178916931152e-02 -2.125039994716644287e-01 -4.259555041790008545e-01 -1.121268197894096375e-01 -7.596465293318033218e-03 -6.749587506055831909e-02 -1.638217568397521973e-01 -2.535513639450073242e-01 -7.519703358411788940e-02 -1.319771707057952881e-01 -1.483526676893234253e-01 3.832334578037261963e-01 3.768333792686462402e-02 2.858472429215908051e-02 -2.955775558948516846e-01 -2.877843976020812988e-01 -1.884235292673110962e-01 -5.637139454483985901e-02 -1.893902420997619629e-01 -6.247619166970252991e-02 -1.779837310314178467e-01 -4.801757633686065674e-02 -1.850585043430328369e-01 -7.787260413169860840e-02 8.501596003770828247e-02 1.403132379055023193e-01 -1.041281819343566895e-01 5.728471651673316956e-02 -1.675421893596649170e-01 2.493576705455780029e-01 -1.806983165442943573e-02 -3.212642371654510498e-01 -2.836990058422088623e-01 -3.429176211357116699e-01 5.040877684950828552e-02 7.299979031085968018e-02 1.024964079260826111e-02 -6.622146815061569214e-02 2.164600938558578491e-01 -4.675780981779098511e-02 -1.955584287643432617e-01 -1.761271655559539795e-01 -3.503694012761116028e-02 -4.449441283941268921e-02 -2.023244053125381470e-01 7.853992283344268799e-02 -9.895506501197814941e-02 -3.856915235519409180e-01 -5.070260763168334961e-01 -9.395024925470352173e-02 -1.608809642493724823e-02 -1.457468569278717041e-01 -6.364323943853378296e-02 -3.530221283435821533e-01 -2.481216043233871460e-01 -2.147907465696334839e-01 1.079911366105079651e-01
-2.252393662929534912e-01 -9.708700329065322876e-02 -2.849496006965637207e-01 -2.490807622671127319e-01 -1.493058651685714722e-01 -1.206560656428337097e-01 -2.108608782291412354e-01 -2.236973047256469727e-01 -4.999982193112373352e-02 1.823324561119079590e-01 -2.697828114032745361e-01 -3.603649437427520752e-01 -2.622338533401489258e-01 -3.057841360569000244e-01 -1.501540094614028931e-01 1.155966445803642273e-01 2.025954872369766235e-01 2.999503351747989655e-02 5.464205145835876465e-02 -8.926592022180557251e-02 -1.705904603004455566e-01 -2.476758956909179688e-01 -1.871922761201858521e-01 -3.301604390144348145e-01 -9.609076380729675293e-02 -3.310077488422393799e-01 -9.354591369628906250e-02 -3.888291716575622559e-01 -3.664568066596984863e-01 2.042525261640548706e-02 -1.563050225377082825e-02 -1.292074620723724365e-01 -3.106667399406433105e-01 -2.765175402164459229e-01 -1.836522370576858521e-01 -2.066501826047897339e-01 -3.912836909294128418e-01 -3.812673687934875488e-01 -1.167663093656301498e-02 -5.404100939631462097e-02 -1.987161636352539062e-01 9.712900966405868530e-03 -1.055434346199035645e-01 -1.399435698986053467e-01 -2.833430767059326172e-01 -1.690520197153091431e-01 -3.796516954898834229e-01 -1.728029847145080566e-01 -1.556635797023773193e-01 -3.190217316150665283e-01 -6.576386094093322754e-02 -3.480898737907409668e-01 1.721747033298015594e-02 -1.502733081579208374e-01 -3.710830807685852051e-01 -7.607952505350112915e-02 -2.588405013084411621e-01 -3.826451599597930908e-01 -3.531789183616638184e-01 -2.835988402366638184e-01 -3.869318664073944092e-01 -8.398145437240600586e-02
-2.345724701881408691e-01 -7.894301414489746094e-02 -1.287403106689453125e-01 -3.118628263473510742e-01 -1.959605608135461807e-03 -2.489791959524154663e-01 -3.001669049263000488e-02 1.277503967285156250e-01 1.028849482536315918e-01 -3.403025567531585693e-01 -5.455228090286254883e-01 -2.745861411094665527e-01 -3.610227704048156738e-01 6.737851351499557495e-02 -3.146647650282830000e-04 -8.688981086015701294e-02 3.093690611422061920e-03 -2.042129486799240112e-01 -7.636576145887374878e-02 -2.712862193584442139e-02 1.321384757757186890e-01 -5.715717002749443054e-02 7.382214069366455078e-02 1.901405304670333862e-01 3.813906610012054443e-01 9.293366968631744385e-02 1.536760032176971436e-01 -3.568673729896545410e-01 -1.666913926601409912e-01 -5.676517635583877563e-02 -6.362085044384002686e-02 -1.995409280061721802e-01 -3.223127722740173340e-01 -2.162836343050003052e-01 2.142311483621597290e-01 2.453733533620834351e-01 -1.247779279947280884e-01 -1.808236539363861084e-01 1.287309974431991577e-01 1.711214482784271240e-01 2.193949520587921143e-01 2.003570646047592163e-02 -1.466062813997268677e-01 -9.311399608850479126e-02 -1.316205859184265137e-01 -1.408267915248870850e-01 -8.433002978563308716e-02 -3.120248913764953613e-01 -3.181479275226593018e-01 -2.449334412813186646e-01 -9.051264822483062744e-02 -2.709891200065612793e-01 6.909663975238800049e-02 2.698732912540435791e-01 -6.621950119733810425e-02 -7.787568867206573486e-02 -1.199566498398780823e-01 -3.659191429615020752e-01 -1.874918788671493530e-01 -1.418636739253997803e-01 -4.373172521591186523e-01 -2.336240410804748535e-01
-4.537486135959625244e-01 -1.138208135962486267e-01 -1.382293999195098877e-01 -2.954560518264770508e-01 -3.567616939544677734e-01 1.075043454766273499e-01 2.805954813957214355e-01 2.957373559474945068e-01 1.523707509040832520e-01 -2.658010125160217285e-01 -3.760370016098022461e-01 -2.102787941694259644e-01 -2.625838816165924072e-01 -3.764325678348541260e-01 -1.936504691839218140e-01 1.854209899902343750e-01 4.583891108632087708e-02 -1.165584921836853027e-01 -5.986574664711952209e-02 -3.363795876502990723e-01 -7.126066833734512329e-02 -4.070820286870002747e-02 2.636551856994628906e-01 3.077456057071685791e-01 3.002336919307708740e-01 1.580339521169662476e-01 1.880192756652832031e-01 -1.696523278951644897e-01 8.832278661429882050e-03 -4.099928215146064758e-02 1.371243149042129517e-01 -2.662619017064571381e-02 9.000803343951702118e-03 3.086335957050323486e-01 4.967981576919555664e-01 1.789436489343643188e-01 -2.101449482142925262e-02 4.958042502403259277e-02 7.675237208604812622e-02 -1.000256687402725220e-01 -8.735729753971099854e-02 -1.185774132609367371e-01 -5.274763703346252441e-02 -5.247252807021141052e-02 2.136015444993972778e-01 1.486825793981552124e-01 -1.070379465818405151e-01 -3.862044513225555420e-01 2.007806859910488129e-02 1.082561984658241272e-01 1.841370761394500732e-01 7.328103482723236084e-02 1.714133322238922119e-01 2.516506016254425049e-01 -2.280530286952853203e-03 -1.914465129375457764e-01 -2.338175624608993530e-01 -4.383132457733154297e-01 -3.298884630203247070e-01 -2.809947133064270020e-01 -1.714905947446823120e-01 -1.680610626935958862e-01
-2.715178430080413818e-01 -7.650561630725860596e-02 -4.247245788574218750e-01 -2.983233928680419922e-01 -1.599988341331481934e-01 -8.614010363817214966e-02 5.412761494517326355e-02 -3.002726659178733826e-02 -7.226443290710449219e-02 -3.508321568369865417e-02 -4.980120062828063965e-02 4.208190366625785828e-02 -9.545302391052246094e-02 3.614160791039466858e-02 -2.480221390724182129e-01 -2.528146505355834961e-01 -3.602392375469207764e-01 -5.917619466781616211e-01 -1.968546360731124878e-01 -3.125343024730682373e-01 -2.179809957742691040e-01 -2.030464708805084229e-01 5.455245450139045715e-02 1.494793742895126343e-01 5.400324240326881409e-02 -2.497694194316864014e-01 -2.775057852268218994e-01 -2.390455007553100586e-01 -1.211640238761901855e-01 -8.194168657064437866e-02 2.916038036346435547e-02 -2.383815050125122070e-01 -2.064874023199081421e-01 -3.719436749815940857e-02 7.772696018218994141e-02 2.637153491377830505e-02 8.636567741632461548e-02 -4.895480349659919739e-02 -2.180835306644439697e-01 -1.783943325281143188e-01 -2.968432903289794922e-01 -3.875512182712554932e-01 -3.834619224071502686e-01 -4.389913380146026611e-01 -3.120588958263397217e-01 -2.651004195213317871e-01 -3.519182801246643066e-01 1.300765760242938995e-02 -2.013816982507705688e-01 5.332877393811941147e-03 3.659294843673706055e-01 4.640737473964691162e-01 1.582758426666259766e-01 -3.657943382859230042e-02 -1.251278966665267944e-01 -3.472527861595153809e-01 -4.030847847461700439e-01 -4.600223898887634277e-01 -1.419393271207809448e-01 -2.430396974086761475e-01 -4.120036065578460693e-01 -7.837395370006561279e-02
-2.368093430995941162e-01 -1.793969869613647461e-01 -3.203386813402175903e-02 -5.546763911843299866e-02 1.724138706922531128e-01 -1.139809843152761459e-02 -3.196924328804016113e-01 -1.815887093544006348e-01 -4.895915463566780090e-02 1.169216036796569824e-01 -3.870592266321182251e-02 -3.504736721515655518e-01 -3.031280934810638428e-01 -1.005202904343605042e-01 -1.531556844711303711e-01 -2.377971261739730835e-01 -3.136477470397949219e-01 -9.621030837297439575e-02 -1.213697157800197601e-02 -1.917573362588882446e-01 -3.021607995033264160e-01 -1.718582659959793091e-01 -1.332546472549438477e-01 -4.810014665126800537e-01 -3.638969957828521729e-01 -4.953201115131378174e-01 -3.000046610832214355e-01 -2.593283355236053467e-01 -2.684136629104614258e-01 -3.999014496803283691e-01 -2.640676796436309814e-01 -3.054594993591308594e-01 -9.069119393825531006e-02 -2.916866680607199669e-03 4.759846627712249756e-02 -3.840730786323547363e-01 -4.594621956348419189e-01 -3.468871116638183594e-01 -2.800086438655853271e-01 -1.400680989027023315e-01 -3.987740725278854370e-02 -1.896885931491851807e-01 -2.838771641254425049e-01 4.735003411769866943e-02 -1.752821803092956543e-01 -1.169498171657323837e-02 1.315046194940805435e-02 1.114594414830207825e-01 -3.945553898811340332e-01 -4.025138318538665771e-01 -1.052207276225090027e-01 -1.973254829645156860e-01 -1.573837548494338989e-02 -2.971193790435791016e-01 -5.041071176528930664e-01 -2.360263466835021973e-01 -2.435377538204193115e-01 -2.722050249576568604e-01 -9.704828262329101562e-02 -2.442109137773513794e-01 -3.567573130130767822e-01 -7.879303395748138428e-02
-1.684995144605636597e-01 -2.516291141510009766e-01 -2.372616380453109741e-01 3.804788226261734962e-03 3.928890824317932129e-02 2.207340002059936523e-01 -3.264474123716354370e-02 3.623371478170156479e-03 -4.129336215555667877e-03 1.725530601106584072e-03 -1.797000765800476074e-01 -3.358366787433624268e-01 -3.360228836536407471e-01 -2.602347135543823242e-01 -3.877890706062316895e-01 1.986424773931503296e-01 1.256538182497024536e-01 -3.109721280634403229e-02 1.181822419166564941e-01 1.919271647930145264e-01 -3.772450089454650879e-01 -2.527757883071899414e-01 -4.133375287055969238e-01 -3.997297585010528564e-01 -3.456060588359832764e-01 -4.268052279949188232e-01 -5.259788036346435547e-01 -5.585559010505676270e-01 -1.871807873249053955e-01 -7.068750858306884766e-01 -4.389514029026031494e-01 -3.249534368515014648e-01 -1.718284040689468384e-01 -2.348106056451797485e-01 -3.681205809116363525e-01 -4.313065409660339355e-01 -3.225387930870056152e-01 -5.621936321258544922e-01 -5.195243954658508301e-01 -5.785525441169738770e-01 8.008355274796485901e-03 2.101082354784011841e-01 1.083518490195274353e-01 1.109076961874961853e-01 -5.973137915134429932e-02 -3.653382062911987305e-01 -2.415879368782043457e-01 -3.704980611801147461e-01 -2.031033635139465332e-01 -7.895914465188980103e-02 -5.985445529222488403e-02 -8.989091217517852783e-02 -1.750594526529312134e-01 -3.063376247882843018e-01 -3.002586960792541504e-01 -1.087040752172470093e-01 -5.285478383302688599e-02 -3.468615412712097168e-01 -2.915639281272888184e-01 -1.138686984777450562e-01 -1.792743206024169922e-01 1.061478070914745331e-02
-5.163109302520751953e-01 -1.583592593669891357e-01 -5.025701969861984253e-02 -1.005613431334495544e-01 -2.367406710982322693e-02 -1.084324195981025696e-01 -1.265351176261901855e-01 -1.357696503400802612e-01 -2.805274426937103271e-01 -2.037511467933654785e-01 -1.296482793986797333e-02 -1.523723900318145752e-01 -2.243776470422744751e-01 -7.848992943763732910e-02 -1.061035543680191040e-01 -2.120148390531539917e-01 -8.082427829504013062e-02 -5.107414722442626953e-01 -2.014046907424926758e-01 -2.507940307259559631e-02 -3.418687880039215088e-01 -2.459286004304885864e-01 8.011897094547748566e-03 -1.188364252448081970e-01 -2.515362501144409180e-01 -3.396397829055786133e-01 -2.766547799110412598e-01 -5.081470012664794922e-01 -4.915031194686889648e-01 -3.597620129585266113e-01 -2.593584954738616943e-01 -3.189749717712402344e-01 -1.933598518371582031e-01 -3.192060887813568115e-01 -2.005400508642196655e-01 -2.770315706729888916e-01 -1.899886131286621094e-01 -1.269888877868652344e-01 -5.807821080088615417e-02 -2.713601291179656982e-01 -3.105241954326629639e-01 5.658669024705886841e-02 -2.554896771907806396e-01 -5.828007459640502930e-01 -3.663401901721954346e-01 -1.281268000602722168e-01 -2.020496129989624023e-01 -1.960930228233337402e-01 -9.959324449300765991e-02 7.739579305052757263e-03 -1.378771960735321045e-01 -1.766303181648254395e-01 -1.376517862081527710e-01 -2.695215940475463867e-01 -4.347478449344635010e-01 -3.309035599231719971e-01 -2.431138902902603149e-01 -2.535466551780700684e-01 -1.449215114116668701e-01 1.517353653907775879e-01 1.298497430980205536e-03 -7.241486757993698120e-02
-2.625144422054290771e-01 -1.973413676023483276e-02 1.554038673639297485e-01 3.688168153166770935e-02 -2.060707099735736847e-02 -4.723209142684936523e-02 2.520692050457000732e-01 -9.419484436511993408e-02 -2.548075616359710693e-01 -1.938799023628234863e-01 -1.571514159440994263e-01 -3.432851433753967285e-01 -1.475873738527297974e-01 -7.251776754856109619e-02 -2.817864120006561279e-01 -1.683511584997177124e-01 -1.464914232492446899e-01 -1.718740612268447876e-01 -1.241362318396568298e-01 -2.051348984241485596e-01 -3.343205451965332031e-01 -9.938983619213104248e-02 3.560806438326835632e-02 -4.670128598809242249e-02 -5.039799809455871582e-01 -5.495318770408630371e-01 -5.465590357780456543e-01 -5.801012516021728516e-01 -2.897830307483673096e-01 -5.181378722190856934e-01 -3.380567431449890137e-01 -4.312233924865722656e-01 -1.478768885135650635e-01 -5.848913192749023438e-01 -4.936950206756591797e-01 -2.209340184926986694e-01 -4.707050323486328125e-02 -2.055819705128669739e-02 3.403224050998687744e-02 -3.581376373767852783e-01 -4.711806178092956543e-01 -2.284440100193023682e-01 -1.736272126436233521e-01 -2.857142686843872070e-01 -7.044088095426559448e-02 -3.502720892429351807e-01 -3.168746531009674072e-01 9.643853455781936646e-02 -2.533693313598632812e-01 -4.870425909757614136e-02 -1.498595774173736572e-01 -1.641165465116500854e-01 -9.451656043529510498e-02 7.950918376445770264e-02 -9.044887125492095947e-02 -4.164277389645576477e-02 -2.415214776992797852e-01 -1.051581874489784241e-01 3.816847130656242371e-02 -8.137921243906021118e-02 5.843019485473632812e-02 4.729090631008148193e-02
