-2.127744853496551514e-01 2.256374061107635498e-01
1.706068217754364014e-01 -1.800025999546051025e-01
4.734035730361938477e-01 -5.187577605247497559e-01
1.259946674108505249e-01 -9.627523273229598999e-02
1.847062408924102783e-01 -2.269711643457412720e-01
1.496031135320663452e-01 -1.331359297037124634e-01
3.713670000433921814e-02 -2.264582319185137749e-03
-1.368770599365234375e-01 1.648527979850769043e-01
-7.461231946945190430e-02 8.587075024843215942e-02
7.689575105905532837e-02 -6.301161646842956543e-02
1.954000443220138550e-01 -2.333895564079284668e-01
2.424925267696380615e-01 -2.990800142288208008e-01
6.447834521532058716e-02 -1.270650513470172882e-02
2.408255189657211304e-01 -3.113210499286651611e-01
-1.250633969902992249e-02 -3.858646377921104431e-02
-1.827738136053085327e-01 1.886797100305557251e-01
-5.103627592325210571e-02 3.250002488493919373e-02
-1.633098274469375610e-01 1.713706254959106445e-01
-3.095780313014984131e-01 3.207428157329559326e-01
-3.222750425338745117e-01 3.107685446739196777e-01
-2.807071805000305176e-01 3.306722342967987061e-01
-2.193888835608959198e-02 -3.204152360558509827e-02
-3.376085460186004639e-01 3.595283031463623047e-01
-1.183130517601966858e-01 8.117647469043731689e-02
3.273221105337142944e-02 -3.689096868038177490e-02
-2.150863111019134521e-01 1.847230195999145508e-01
-3.511991500854492188e-01 3.671790063381195068e-01
-2.164946943521499634e-01 2.212081998586654663e-01
-1.957805305719375610e-01 2.372935563325881958e-01
-5.197833180427551270e-01 4.900459051132202148e-01
-5.092006921768188477e-01 5.141551494598388672e-01
-4.349637329578399658e-01 3.738079667091369629e-01
-3.412960469722747803e-01 3.323927223682403564e-01
-2.294929027557373047e-01 3.013583421707153320e-01
-5.635530948638916016e-01 5.806663632392883301e-01
-3.242098987102508545e-01 3.004557192325592041e-01
-3.431074619293212891e-01 3.531506955623626709e-01
6.311447918415069580e-02 -7.663413137197494507e-02
-4.934212565422058105e-02 7.241988927125930786e-02
-4.876959323883056641e-02 1.210360787808895111e-02
-1.751888692378997803e-01 1.895605176687240601e-01
-1.527205407619476318e-01 1.103485375642776489e-01
-4.075694978237152100e-01 3.822889328002929688e-01
1.595590263605117798e-01 -1.265390515327453613e-01
-4.178388416767120361e-01 4.090138971805572510e-01
-3.367883265018463135e-01 3.215763270854949951e-01
1.284965220838785172e-02 -4.356102645397186279e-02
1.262085288763046265e-01 -1.401953399181365967e-01
5.414170771837234497e-02 -7.371366769075393677e-02
-1.524034738540649414e-01 1.611257791519165039e-01
-2.190626263618469238e-01 1.975646018981933594e-01
-3.107457756996154785e-01 3.217291235923767090e-01
1.969718188047409058e-02 3.329917672090232372e-05
1.504807621240615845e-01 -8.928759396076202393e-02
5.789911150932312012e-01 -6.086477041244506836e-01
4.715145006775856018e-02 -5.102515965700149536e-02
2.466780841350555420e-01 -2.252317368984222412e-01
6.915654987096786499e-02 -8.690721541643142700e-02
2.261051982641220093e-01 -2.566198110580444336e-01
1.642419397830963135e-01 -1.241979673504829407e-01
1.187444329261779785e-01 -1.251905411481857300e-01
1.644816435873508453e-02 -7.014998048543930054e-02
2.306942939758300781e-01 -2.452305108308792114e-01
3.096657246351242065e-02 -1.081709191203117371e-02
2.553552985191345215e-01 -2.831396758556365967e-01
-8.248345553874969482e-02 6.076902523636817932e-02
-3.062498569488525391e-01 3.479602634906768799e-01
-3.200041949748992920e-01 3.365139663219451904e-01
-1.345333606004714966e-01 9.006282687187194824e-02
-6.210739538073539734e-02 9.234305471181869507e-02
-1.009457856416702271e-01 1.338115036487579346e-01
3.443328291177749634e-02 -1.206494122743606567e-02
1.199764981865882874e-01 -1.144041344523429871e-01
1.471057627350091934e-02 -3.105382621288299561e-02
1.713442504405975342e-01 -1.670108586549758911e-01
1.388325542211532593e-01 -1.740984916687011719e-01
-2.557802200317382812e-01 2.577125728130340576e-01
-1.822236329317092896e-01 2.004162967205047607e-01
-3.235388696193695068e-01 3.433768451213836670e-01
-3.712790906429290771e-01 3.122399449348449707e-01
-2.332595735788345337e-01 2.369387745857238770e-01
-5.310288816690444946e-02 7.232258468866348267e-02
3.934315964579582214e-02 -3.809197247028350830e-02
2.144942283630371094e-01 -2.089459300041198730e-01
1.847145557403564453e-01 -1.480850577354431152e-01
2.015234082937240601e-01 -1.987723857164382935e-01
-7.645994424819946289e-02 1.437170654535293579e-01
-1.447665691375732422e-01 7.997126132249832153e-02
-1.742569208145141602e-01 2.172663509845733643e-01
-8.312831819057464600e-02 1.125247702002525330e-01
-1.911404877901077271e-01 1.574176400899887085e-01
-2.843049168586730957e-01 2.577528357505798340e-01
-3.522645831108093262e-01 3.433056175708770752e-01
-2.137177437543869019e-01 1.834242343902587891e-01
-6.034725308418273926e-01 6.418937444686889648e-01
-5.098015069961547852e-01 5.534639358520507812e-01
-4.448110163211822510e-01 4.721291363239288330e-01
-4.844775199890136719e-01 4.778601825237274170e-01
4.370831325650215149e-02 -6.967629492282867432e-02
4.126389622688293457e-01 -3.722954690456390381e-01
2.173936069011688232e-01 -2.182230502367019653e-01
1.960370838642120361e-01 -1.965642869472503662e-01
7.484834641218185425e-02 -5.784287676215171814e-02
-1.888248473405838013e-01 1.356013417243957520e-01
-1.651939004659652710e-01 1.398851424455642700e-01
-1.607052981853485107e-01 2.078584730625152588e-01
-1.450228691101074219e-01 1.765522509813308716e-01
-3.784744143486022949e-01 3.617485463619232178e-01
2.920533157885074615e-02 -4.934164509177207947e-02
-9.095171093940734863e-02 8.286295086145401001e-02
-1.358405351638793945e-01 1.917064487934112549e-01
-8.918646723031997681e-02 6.373535096645355225e-02
-4.367018938064575195e-01 4.293122291564941406e-01
-3.763608932495117188e-01 3.830635249614715576e-01
4.678461700677871704e-02 -1.578425988554954529e-02
-1.637267917394638062e-01 2.266605347394943237e-01
1.420519649982452393e-01 -1.356690227985382080e-01
-1.407204419374465942e-01 1.779928654432296753e-01
4.594222083687782288e-02 -2.722921781241893768e-02
9.172750636935234070e-03 2.688295021653175354e-02
2.214111834764480591e-01 -2.266704142093658447e-01
4.672044888138771057e-02 -4.188959300518035889e-02
-2.005980759859085083e-01 1.839057803153991699e-01
5.224861949682235718e-02 -3.211060538887977600e-02
7.400017976760864258e-02 -1.129214465618133545e-01
-2.387020736932754517e-01 2.271375209093093872e-01
-1.152424514293670654e-01 1.176620721817016602e-01
-3.061780147254467010e-02 1.586699672043323517e-02
-3.014459013938903809e-01 3.060139715671539307e-01
-3.049134016036987305e-01 3.117742240428924561e-01
-6.087531149387359619e-02 2.933092974126338959e-02
-7.456157356500625610e-02 5.580140277743339539e-03
-2.288711369037628174e-01 2.321715056896209717e-01
-1.176228374242782593e-02 -8.652810007333755493e-03
2.458426058292388916e-01 -1.986023634672164917e-01
2.401480823755264282e-01 -1.941927820444107056e-01
2.205520272254943848e-01 -2.348542213439941406e-01
-1.473102122545242310e-01 8.351318538188934326e-02
-1.869414448738098145e-01 1.529479473829269409e-01
-1.733741490170359612e-03 2.439292520284652710e-02
1.014664992690086365e-01 -1.577186137437820435e-01
1.466457247734069824e-01 -1.433950513601303101e-01
1.687715649604797363e-01 -1.961666643619537354e-01
1.414127051830291748e-01 -1.018273010849952698e-01
-2.634644210338592529e-01 2.549802660942077637e-01
-3.046982884407043457e-01 3.368543982505798340e-01
-3.185790777206420898e-01 2.770812511444091797e-01
-1.698905676603317261e-01 1.405904442071914673e-01
-2.302967607975006104e-01 1.988808214664459229e-01
-1.567384600639343262e-01 1.537164300680160522e-01
-3.749510049819946289e-01 4.044502377510070801e-01
-8.425650000572204590e-02 1.106950789690017700e-01
1.036620959639549255e-01 -7.213331758975982666e-02
8.423399925231933594e-02 -7.716441899538040161e-02
-3.223997056484222412e-01 3.510439693927764893e-01
-1.015467792749404907e-01 1.689222902059555054e-01
-1.265935599803924561e-01 7.903574407100677490e-02
-1.858137398958206177e-01 1.863814592361450195e-01
-3.441610932350158691e-01 3.645080924034118652e-01
-1.593534648418426514e-01 1.236197948455810547e-01
-1.958670467138290405e-01 2.686205804347991943e-01
-2.521802484989166260e-01 2.096660137176513672e-01
8.363976329565048218e-02 -3.670283779501914978e-02
-1.928890869021415710e-02 -2.995819412171840668e-02
1.447695195674896240e-01 -1.380517482757568359e-01
1.716503202915191650e-01 -1.592079699039459229e-01
7.592301815748214722e-03 2.805098518729209900e-02
-6.089726090431213379e-02 3.077636286616325378e-02
9.332146495580673218e-02 -1.019826456904411316e-01
1.374595016241073608e-01 -1.299282163381576538e-01
-1.886829435825347900e-01 1.945255696773529053e-01
-1.738533675670623779e-01 1.783741414546966553e-01
-4.360410198569297791e-02 4.590985830873250961e-03
2.345818579196929932e-01 -2.383470833301544189e-01
-3.051395416259765625e-01 2.721519768238067627e-01
-2.133306711912155151e-01 1.651796400547027588e-01
-1.618909463286399841e-02 3.761478140950202942e-02
2.014136910438537598e-01 -1.520771980285644531e-01
2.922496497631072998e-01 -2.638124823570251465e-01
-4.830773919820785522e-02 7.054862380027770996e-02
1.401312053203582764e-01 -1.175704523921012878e-01
2.832483127713203430e-02 -2.395536564290523529e-02
-1.668494939804077148e-01 1.330195963382720947e-01
8.746552467346191406e-02 -1.146497279405593872e-01
9.735783562064170837e-03 -1.529462076723575592e-02
7.306796312332153320e-02 -8.852566592395305634e-03
5.818662419915199280e-02 -2.916099317371845245e-02
-2.364660352468490601e-01 2.100213170051574707e-01
-1.580807715654373169e-01 1.358954608440399170e-01
-2.189945429563522339e-01 2.476432621479034424e-01
-3.062390908598899841e-02 2.431868761777877808e-02
-2.591580450534820557e-01 2.571426033973693848e-01
-1.461316496133804321e-01 1.504152268171310425e-01
-2.062943726778030396e-01 2.133783847093582153e-01
1.542233824729919434e-01 -1.218961998820304871e-01
2.499472647905349731e-01 -2.642045915126800537e-01
1.644974052906036377e-01 -1.462304741144180298e-01
2.616550326347351074e-01 -1.937812715768814087e-01
3.876518085598945618e-02 -5.860342830419540405e-02
-2.990354597568511963e-01 3.530677855014801025e-01
-1.937131732702255249e-01 1.855369061231613159e-01
-1.147905923426151276e-02 -2.879498712718486786e-02
-8.522669970989227295e-02 9.200572222471237183e-02
3.569495379924774170e-01 -2.927058935165405273e-01
4.790527746081352234e-02 -5.294594168663024902e-02
-4.575065895915031433e-02 3.441347181797027588e-02
-1.239943355321884155e-01 6.329099833965301514e-02
2.038319222629070282e-02 1.153710577636957169e-02
-1.394771784543991089e-01 8.751207590103149414e-02
-3.630144596099853516e-01 3.583150804042816162e-01
-2.345917075872421265e-01 2.033674418926239014e-01
7.832736009731888771e-04 2.905344963073730469e-02
-2.810027822852134705e-02 6.549943238496780396e-02
4.064505100250244141e-01 -3.800441026687622070e-01
1.078444123268127441e-01 -1.510369181632995605e-01
6.601868662983179092e-04 6.715735048055648804e-02
-2.652334570884704590e-01 2.179864197969436646e-01
-1.627478450536727905e-01 2.096077948808670044e-01
-1.531847268342971802e-01 1.213440448045730591e-01
-1.909620314836502075e-01 2.062128484249114990e-01
-2.682706713676452637e-01 2.412291169166564941e-01
-4.015820920467376709e-01 4.156621694564819336e-01
-2.176202088594436646e-01 2.131574898958206177e-01
-3.821516335010528564e-01 3.669895827770233154e-01
-7.192953675985336304e-02 2.349064499139785767e-02
3.310598731040954590e-01 -2.736826241016387939e-01
-2.371275238692760468e-02 -4.253459349274635315e-02
1.262601464986801147e-01 -1.679194122552871704e-01
2.216542959213256836e-01 -2.409341186285018921e-01
4.576180279254913330e-01 -4.567854404449462891e-01
2.030701786279678345e-01 -1.739927232265472412e-01
4.592187330126762390e-02 -9.676340222358703613e-02
-3.762147575616836548e-02 6.026334315538406372e-02
-3.139078021049499512e-01 3.163841366767883301e-01
-1.022869795560836792e-01 4.193678125739097595e-02
-1.332047283649444580e-01 1.047113016247749329e-01
-2.745281457901000977e-01 3.131038248538970947e-01
6.502337008714675903e-02 -1.093769893050193787e-01
7.379417866468429565e-02 -8.756372332572937012e-02
-1.230470910668373108e-01 1.338038593530654907e-01
-8.591494709253311157e-02 8.186895400285720825e-02
2.216846793889999390e-01 -2.729233503341674805e-01
3.561620712280273438e-01 -3.682158589363098145e-01
2.540487647056579590e-01 -2.609339654445648193e-01
1.010926365852355957e-01 -4.954002425074577332e-02
-1.523108482360839844e-01 1.549601107835769653e-01
-1.759911030530929565e-01 1.540450602769851685e-01
-2.553628981113433838e-01 2.420142889022827148e-01
-1.301138550043106079e-01 9.574606269598007202e-02
-3.127603828907012939e-01 3.234171867370605469e-01
-1.590975746512413025e-02 8.206149935722351074e-02
-2.132802307605743408e-01 2.442595809698104858e-01
-1.691867858171463013e-01 1.240637898445129395e-01
-2.394606471061706543e-01 2.970114648342132568e-01
3.111408464610576630e-02 -2.374586649239063263e-02
4.428563266992568970e-02 -5.601890757679939270e-02
2.734948396682739258e-01 -2.658285498619079590e-01
5.805918574333190918e-01 -5.967456698417663574e-01
2.621091604232788086e-01 -2.161623984575271606e-01
9.780479967594146729e-02 -6.596575677394866943e-02
7.002580910921096802e-02 -5.678216367959976196e-02
2.253080904483795166e-01 -1.722495853900909424e-01
1.896158903837203979e-01 -1.777369678020477295e-01
-6.672547012567520142e-02 5.433743074536323547e-02
-4.455728828907012939e-01 4.259219765663146973e-01
-3.093186616897583008e-01 3.351711332798004150e-01
-6.203568726778030396e-02 3.260518983006477356e-02
1.706863343715667725e-01 -1.136200800538063049e-01
8.753095567226409912e-02 -9.295680373907089233e-02
4.772172123193740845e-02 -8.616141229867935181e-02
1.086260974407196045e-01 -6.976010650396347046e-02
2.081905305385589600e-01 -1.453667879104614258e-01
-6.871225684881210327e-02 7.369963824748992920e-02
1.007635667920112610e-01 -6.597138196229934692e-02
-1.321732550859451294e-01 9.887459129095077515e-02
3.774710595607757568e-01 -3.691256940364837646e-01
1.874125897884368896e-01 -2.247005552053451538e-01
-1.692137494683265686e-02 4.432931891642510891e-04
-6.009460240602493286e-02 3.788530081510543823e-02
1.755016148090362549e-01 -1.899803876876831055e-01
5.242744088172912598e-02 -7.752501964569091797e-02
-2.714538276195526123e-01 2.448381036520004272e-01
-3.053572773933410645e-01 2.796073853969573975e-01
-5.389467999339103699e-02 5.058604478836059570e-02
2.052201181650161743e-01 -1.917105913162231445e-01
1.028815582394599915e-01 -1.008013337850570679e-01
3.090470433235168457e-01 -3.097623586654663086e-01
1.416347771883010864e-01 -1.719804108142852783e-01
7.480458915233612061e-02 -6.292410939931869507e-02
-1.358650922775268555e-01 9.512690454721450806e-02
-2.689556181430816650e-01 2.330791950225830078e-01
-2.557305991649627686e-01 2.024227827787399292e-01
-4.079328477382659912e-01 3.998929262161254883e-01
-2.366446852684020996e-01 2.348666787147521973e-01
5.995125044137239456e-03 -6.484746932983398438e-02
3.350584506988525391e-01 -3.167825639247894287e-01
2.051998116075992584e-02 -2.573852427303791046e-02
2.079558819532394409e-01 -2.254876792430877686e-01
1.776538938283920288e-01 -1.785922795534133911e-01
-5.782506428658962250e-03 -2.378892898559570312e-02
-9.482427686452865601e-02 5.611510574817657471e-02
-2.686961740255355835e-02 6.954056769609451294e-02
-1.878313869237899780e-01 2.481836229562759399e-01
3.045684471726417542e-02 -6.833598017692565918e-02
1.042970865964889526e-01 -1.446474790573120117e-01
4.961901810020208359e-03 -3.030810318887233734e-02
-1.603778004646301270e-01 1.144671440124511719e-01
-1.243988350033760071e-01 8.452080935239791870e-02
6.921024061739444733e-03 -5.292649567127227783e-02
-8.497493714094161987e-02 1.000055000185966492e-01
1.112793236970901489e-01 -1.455743014812469482e-01
-3.411389887332916260e-01 2.646884620189666748e-01
-1.742725074291229248e-01 1.558732390403747559e-01
-5.069022625684738159e-02 4.946748167276382446e-02
-9.150359779596328735e-02 4.435658827424049377e-02
2.143110036849975586e-01 -1.941985785961151123e-01
3.927408456802368164e-01 -3.378511369228363037e-01
2.413701266050338745e-01 -2.093621939420700073e-01
3.035420775413513184e-01 -3.240799903869628906e-01
7.896901965141296387e-01 -8.307693004608154297e-01
2.986845076084136963e-01 -2.915132045745849609e-01
5.078430175781250000e-01 -5.034896135330200195e-01
2.422928065061569214e-01 -2.689349651336669922e-01
-2.476226538419723511e-02 8.000564575195312500e-02
-5.609301105141639709e-02 5.208602547645568848e-02
1.040388569235801697e-01 -1.010677069425582886e-01
2.479886412620544434e-01 -2.168995440006256104e-01
-1.596019230782985687e-02 -1.595346257090568542e-02
2.614468336105346680e-02 4.498832672834396362e-02
-2.830282412469387054e-02 7.447043061256408691e-02
-8.241100609302520752e-02 1.074887290596961975e-01
-1.136332601308822632e-01 1.366260647773742676e-01
2.347559332847595215e-01 -2.381815314292907715e-01
1.545452773571014404e-01 -1.485892236232757568e-01
2.470109425485134125e-02 -9.322862140834331512e-03
1.830571442842483521e-01 -1.749318391084671021e-01
3.334850072860717773e-01 -3.436813354492187500e-01
5.913464426994323730e-01 -5.965419411659240723e-01
2.560310363769531250e-01 -2.402965277433395386e-01
-1.278237551450729370e-01 1.131476461887359619e-01
-4.282667115330696106e-02 6.559197604656219482e-02
2.331607341766357422e-01 -2.485944181680679321e-01
3.436964452266693115e-01 -3.498187065124511719e-01
1.235598474740982056e-01 -1.177805364131927490e-01
-2.853644080460071564e-03 3.890831023454666138e-03
3.998170793056488037e-02 -5.228148028254508972e-02
2.552664875984191895e-01 -2.224770933389663696e-01
1.810691207647323608e-01 -1.953267008066177368e-01
3.225904107093811035e-01 -2.788313627243041992e-01
1.889341175556182861e-01 -2.186373770236968994e-01
-1.628409922122955322e-01 1.494649946689605713e-01
-1.341798454523086548e-01 1.923978328704833984e-01
6.717395782470703125e-02 -7.089932262897491455e-02
1.234926879405975342e-01 -9.593929350376129150e-02
2.727630138397216797e-01 -3.099458813667297363e-01
1.724858880043029785e-01 -1.766579896211624146e-01
2.157443910837173462e-01 -1.679776757955551147e-01
-1.008859742432832718e-02 -1.054881978780031204e-02
2.403111606836318970e-01 -2.746264040470123291e-01
1.437619328498840332e-01 -9.742008149623870850e-02
1.412156075239181519e-01 -1.441459953784942627e-01
2.089932113885879517e-01 -1.795334815979003906e-01
1.714466512203216553e-01 -1.502577960491180420e-01
3.280256688594818115e-01 -3.178043067455291748e-01
2.974070012569427490e-01 -3.329087495803833008e-01
1.233699768781661987e-01 -1.036027669906616211e-01
9.430561214685440063e-02 -1.374085992574691772e-01
1.656757444143295288e-01 -1.986696422100067139e-01
-7.532684504985809326e-02 9.406548738479614258e-02
-2.014334052801132202e-01 2.186445444822311401e-01
6.039617210626602173e-02 -8.126334846019744873e-02
-1.386338025331497192e-01 1.666238456964492798e-01
1.081033647060394287e-01 -1.202472075819969177e-01
-1.687187002971768379e-03 -5.154713988304138184e-03
-7.631656527519226074e-02 1.126205474138259888e-01
-9.232595562934875488e-02 9.398794919252395630e-02
1.173199415206909180e-01 -7.916718721389770508e-02
1.928979009389877319e-01 -1.778394281864166260e-01
4.921525418758392334e-01 -4.871515333652496338e-01
3.776827454566955566e-01 -3.291920423507690430e-01
-6.035238504409790039e-02 1.200398132205009460e-01
1.740714907646179199e-01 -1.812765300273895264e-01
-1.375428736209869385e-01 1.583020091056823730e-01
1.375726014375686646e-01 -1.484431624412536621e-01
-7.094810903072357178e-02 1.148190349340438843e-01
1.237712278962135315e-01 -1.054422184824943542e-01
3.309831321239471436e-01 -3.363942801952362061e-01
1.953119039535522461e-01 -2.302171438932418823e-01
1.581858992576599121e-01 -1.417358070611953735e-01
-3.199557960033416748e-02 3.746643429622054100e-03
1.851377040147781372e-01 -1.426697224378585815e-01
1.050259470939636230e-01 -4.997251927852630615e-02
1.402058750391006470e-01 -1.513456553220748901e-01
2.901993393898010254e-01 -2.943405210971832275e-01
4.035462141036987305e-01 -4.015298187732696533e-01
2.952461242675781250e-01 -3.279624581336975098e-01
1.673508733510971069e-01 -1.688662320375442505e-01
2.186438143253326416e-01 -2.422838360071182251e-01
3.375812768936157227e-01 -3.346256017684936523e-01
3.187402784824371338e-01 -3.202186524868011475e-01
2.596756815910339355e-01 -2.027066648006439209e-01
-4.018026217818260193e-02 8.149220794439315796e-02
-1.366646140813827515e-01 1.453448832035064697e-01
-9.799287468194961548e-02 5.194432660937309265e-02
3.978704512119293213e-01 -3.978104591369628906e-01
5.889264866709709167e-02 -7.242498546838760376e-02
2.749783731997013092e-02 2.228312566876411438e-02
3.251958489418029785e-01 -3.188846111297607422e-01
3.148918747901916504e-01 -2.756586968898773193e-01
4.533037245273590088e-01 -4.637092947959899902e-01
2.989090085029602051e-01 -2.478047609329223633e-01
2.258877456188201904e-02 -6.025866046547889709e-02
9.506871551275253296e-02 -6.984568387269973755e-02
3.563912585377693176e-02 -7.870803773403167725e-02
-2.496867440640926361e-02 -8.173401467502117157e-03
2.368006110191345215e-02 -5.088373273611068726e-02
4.017545282840728760e-02 -1.356785837560892105e-02
3.851074352860450745e-02 -1.032999902963638306e-02
2.570498585700988770e-01 -2.229317724704742432e-01
1.445591729134321213e-02 5.258502904325723648e-03
-1.778445839881896973e-01 1.191017553210258484e-01
1.135639399290084839e-01 -8.420085906982421875e-02
-5.629326030611991882e-02 1.118962690234184265e-01
-2.935096919536590576e-01 2.921493053436279297e-01
2.449640333652496338e-01 -2.377734184265136719e-01
4.399751722812652588e-01 -4.358527064323425293e-01
1.930309534072875977e-01 -1.977968215942382812e-01
9.562198817729949951e-02 -8.850812166929244995e-02
5.731893703341484070e-02 -3.577842190861701965e-02
1.992212533950805664e-01 -2.369939237833023071e-01
1.173781752586364746e-01 -9.270897507667541504e-02
6.410746276378631592e-02 -7.077259477227926254e-03
-1.495760977268218994e-01 1.342107057571411133e-01
-2.784206867218017578e-01 2.511966228485107422e-01
-1.836444735527038574e-01 1.203438639640808105e-01
1.345341503620147705e-01 -1.688392162322998047e-01
-1.424224674701690674e-02 -1.526087243109941483e-02
-2.248691767454147339e-01 2.058039605617523193e-01
-1.193525269627571106e-01 1.092766374349594116e-01
-7.509460300207138062e-02 9.027359634637832642e-02
2.938910424709320068e-01 -3.271026313304901123e-01
3.574805259704589844e-01 -3.470365107059478760e-01
-3.417966514825820923e-02 3.066921979188919067e-02
-1.623416668735444546e-03 -3.422183915972709656e-02
-1.275431662797927856e-01 9.764707833528518677e-02
-4.607272893190383911e-02 5.248712003231048584e-02
-1.565710175782442093e-03 -5.391831509768962860e-03
-9.698654711246490479e-02 7.591799646615982056e-02
-2.904339693486690521e-02 3.044580807909369469e-03
-1.216178461909294128e-01 7.507053017616271973e-02
-4.433138668537139893e-01 4.732137024402618408e-01
-1.498914361000061035e-01 1.385911405086517334e-01
1.563681960105895996e-01 -1.390307098627090454e-01
1.251452118158340454e-01 -1.045258939266204834e-01
-3.737089410424232483e-02 8.236256986856460571e-02
-5.712690576910972595e-02 3.931192308664321899e-02
5.725196376442909241e-02 -6.226086243987083435e-02
-1.068833619356155396e-01 1.637490987777709961e-01
-1.437498182058334351e-01 1.995542794466018677e-01
-6.324842572212219238e-02 8.424920588731765747e-02
-1.529348194599151611e-01 1.524568349123001099e-01
6.214453279972076416e-02 -3.004997037351131439e-02
-1.071339845657348633e-01 5.367936193943023682e-02
-7.007389515638351440e-02 8.859330415725708008e-02
-2.435318231582641602e-01 2.637093663215637207e-01
1.098373457789421082e-01 -1.308784186840057373e-01
9.111581370234489441e-03 -2.981567941606044769e-02
-1.954640820622444153e-02 2.591710910201072693e-02
-1.861324757337570190e-01 1.353212296962738037e-01
-1.851596683263778687e-01 1.925547719001770020e-01
7.412331551313400269e-02 -7.743607461452484131e-02
1.122596785426139832e-01 -9.227622300386428833e-02
1.543665826320648193e-01 -1.552533358335494995e-01
1.799801290035247803e-01 -1.195605471730232239e-01
9.970522671937942505e-02 -8.756022155284881592e-02
2.213076353073120117e-01 -2.082974910736083984e-01
1.417704075574874878e-01 -1.151282638311386108e-01
-7.782557606697082520e-02 6.873156130313873291e-02
4.282859712839126587e-02 -3.956080973148345947e-02
3.525439500808715820e-01 -4.075991213321685791e-01
1.553298979997634888e-01 -1.362850964069366455e-01
-3.203070536255836487e-02 9.079299867153167725e-02
1.949617862701416016e-01 -1.669506281614303589e-01
-5.536197498440742493e-02 1.088833883404731750e-01
-2.199687659740447998e-01 1.869240850210189819e-01
-7.356521487236022949e-02 1.185750663280487061e-01
2.264265269041061401e-01 -2.853138148784637451e-01
3.005233108997344971e-01 -2.711575627326965332e-01
-5.511246994137763977e-02 4.137532040476799011e-02
-3.162853717803955078e-01 3.217985630035400391e-01
-3.257642686367034912e-02 1.885372586548328400e-02
-1.501546055078506470e-01 1.305241733789443970e-01
2.753857970237731934e-01 -2.492211461067199707e-01
-8.990634977817535400e-02 6.225747615098953247e-02
-3.295032074674963951e-03 2.056229859590530396e-02
-7.125516980886459351e-02 3.081325069069862366e-02
3.330576419830322266e-01 -2.854436635971069336e-01
-3.304128348827362061e-02 5.822644382715225220e-02
-2.466608732938766479e-01 1.745898276567459106e-01
6.890820339322090149e-03 2.508257515728473663e-02
-8.604304492473602295e-02 8.725237846374511719e-02
-5.796685814857482910e-02 1.689361222088336945e-02
1.661661863327026367e-01 -1.799361258745193481e-01
1.499346345663070679e-01 -1.312505304813385010e-01
-1.707460731267929077e-01 1.647359579801559448e-01
-8.378171175718307495e-02 2.583548985421657562e-02
1.091377586126327515e-01 -9.467025846242904663e-02
-2.297581406310200691e-03 1.097571477293968201e-02
1.626551002264022827e-01 -1.544528901576995850e-01
1.367461532354354858e-01 -1.251955479383468628e-01
-7.539716362953186035e-02 7.722023129463195801e-02
-1.148228123784065247e-01 6.915911287069320679e-02
-1.235103383660316467e-01 1.319983899593353271e-01
-9.640983492136001587e-02 7.716599106788635254e-02
-8.235049247741699219e-02 1.022990942001342773e-01
-1.197216287255287170e-01 1.159167215228080750e-01
-9.004236757755279541e-02 2.697991952300071716e-02
-6.293255090713500977e-02 6.228057295083999634e-02
-2.853970527648925781e-01 2.950622737407684326e-01
-2.102584987878799438e-01 1.856890171766281128e-01
-1.238985285162925720e-01 1.317555755376815796e-01
7.151739299297332764e-02 -8.407805860042572021e-02
-1.199806854128837585e-01 7.862281799316406250e-02
2.309930324554443359e-01 -2.078507840633392334e-01
2.065930664539337158e-01 -2.516780495643615723e-01
2.141418866813182831e-03 -6.709427386522293091e-02
1.390989869832992554e-02 5.465324502438306808e-03
1.764298230409622192e-01 -1.643908768892288208e-01
-6.015579216182231903e-03 2.087550424039363861e-02
-2.610964775085449219e-01 2.246331870555877686e-01
-3.629481792449951172e-01 3.100626170635223389e-01
-2.867714166641235352e-01 3.287479579448699951e-01
-4.798230901360511780e-02 5.447605624794960022e-02
-7.317753136157989502e-02 6.533712148666381836e-02
-9.645880758762359619e-02 1.422805190086364746e-01
-2.119549363851547241e-02 4.972248896956443787e-02
-8.821003884077072144e-02 8.502897620201110840e-02
-5.268138274550437927e-02 4.075641930103302002e-02
3.190465271472930908e-01 -3.235408663749694824e-01
1.849762201309204102e-01 -1.621826589107513428e-01
-6.909735500812530518e-02 3.263211250305175781e-02
1.338775157928466797e-01 -1.487911343574523926e-01
7.691323012113571167e-02 -4.694359749555587769e-02
-2.462522834539413452e-01 1.693674325942993164e-01
-3.230682760477066040e-02 4.609420895576477051e-02
1.518586874008178711e-01 -9.304712712764739990e-02
-2.853404581546783447e-01 3.118166625499725342e-01
-5.860648583620786667e-03 5.082591902464628220e-03
1.304103732109069824e-01 -1.553360223770141602e-01
3.539016842842102051e-02 -9.685031138360500336e-03
7.259822636842727661e-02 -6.717381626367568970e-02
-6.720471382141113281e-02 7.444670051336288452e-02
-2.658778727054595947e-01 2.027656584978103638e-01
3.061109185218811035e-01 -3.325045108795166016e-01
1.932910531759262085e-01 -1.921585500240325928e-01
4.469254612922668457e-02 -3.289813874289393425e-03
1.539364904165267944e-01 -1.571804732084274292e-01
4.300916567444801331e-02 -8.943416178226470947e-02
2.318864464759826660e-01 -2.598487436771392822e-01
2.311551384627819061e-02 -7.494609057903289795e-02
1.176662668585777283e-01 -1.339671760797500610e-01
3.631710112094879150e-01 -3.202629685401916504e-01
4.423244893550872803e-01 -4.554014503955841064e-01
3.501284718513488770e-01 -3.028914332389831543e-01
-7.787099480628967285e-02 9.484524279832839966e-02
-1.336937844753265381e-01 1.526450663805007935e-01
-6.609225273132324219e-02 1.331864744424819946e-01
-9.152988344430923462e-02 5.843861773610115051e-02
2.584034800529479980e-01 -2.721642851829528809e-01
4.379241764545440674e-01 -3.850020170211791992e-01
2.288152277469635010e-01 -2.611234486103057861e-01
2.052126526832580566e-01 -1.801407337188720703e-01
3.694081306457519531e-01 -3.921839892864227295e-01
6.731230765581130981e-02 -7.613559067249298096e-02
-9.641079604625701904e-02 7.775766402482986450e-02
2.450201362371444702e-01 -2.328768819570541382e-01
1.313691586256027222e-01 -1.567649990320205688e-01
-8.008744567632675171e-02 1.156991999596357346e-02
-2.905249409377574921e-02 5.740975961089134216e-03
-9.846871346235275269e-02 9.361093491315841675e-02
-2.831515669822692871e-01 2.660827338695526123e-01
-3.235126733779907227e-01 3.415000736713409424e-01
-1.244047284126281738e-01 1.161364465951919556e-01
3.348430991172790527e-01 -3.149777054786682129e-01
1.347185969352722168e-01 -1.425478607416152954e-01
1.038728952407836914e-01 -6.315907090902328491e-02
7.748541235923767090e-02 -5.246364325284957886e-02
-2.011792063713073730e-01 2.386833131313323975e-01
-8.408182114362716675e-02 1.161405220627784729e-01
-1.596012264490127563e-01 1.312862038612365723e-01
-9.682722389698028564e-02 1.143843084573745728e-01
2.775143459439277649e-02 2.066402509808540344e-02
1.880993694067001343e-02 -3.880778327584266663e-02
1.606572270393371582e-01 -1.592777371406555176e-01
3.128449618816375732e-02 5.579395219683647156e-03
-1.743284985423088074e-02 3.457019105553627014e-02
1.119314804673194885e-01 -5.252479761838912964e-02
-8.432620018720626831e-02 7.781231403350830078e-02
-2.349743843078613281e-01 1.837828457355499268e-01
-1.975006610155105591e-01 1.872121542692184448e-01
7.750044763088226318e-02 -1.367153823375701904e-01
9.793331474065780640e-02 -8.619482070207595825e-02
5.790572613477706909e-02 -4.065404832363128662e-02
4.807779937982559204e-02 -5.859296768903732300e-03
4.288249015808105469e-01 -4.728644788265228271e-01
2.411973327398300171e-01 -1.842717230319976807e-01
1.530441641807556152e-01 -1.178179606795310974e-01
5.648815631866455078e-01 -5.569030046463012695e-01
-1.483747661113739014e-01 1.513342410326004028e-01
-4.554235190153121948e-02 5.663420632481575012e-02
2.025740295648574829e-01 -1.864475756883621216e-01
-3.084146976470947266e-02 6.743486970663070679e-02
6.020443886518478394e-02 -9.156437218189239502e-02
4.552221298217773438e-01 -4.020342826843261719e-01
7.074642181396484375e-02 -1.141815334558486938e-01
7.434335350990295410e-02 -6.554449349641799927e-02
1.455266475677490234e-01 -1.275013983249664307e-01
1.891764402389526367e-01 -1.668713837862014771e-01
2.261747270822525024e-01 -2.296868115663528442e-01
6.798358261585235596e-02 -7.105340063571929932e-02
-1.258585043251514435e-02 3.183051571249961853e-02
1.758570373058319092e-01 -1.795802563428878784e-01
9.495012462139129639e-02 -6.179077178239822388e-02
1.878533959388732910e-01 -2.294467687606811523e-01
2.837833762168884277e-01 -2.824594080448150635e-01
4.469337463378906250e-01 -4.404643476009368896e-01
-7.403599470853805542e-02 6.837430596351623535e-02
-1.009160503745079041e-01 7.675190269947052002e-02
3.483203426003456116e-02 -3.151769936084747314e-02
3.312860727310180664e-01 -3.744617700576782227e-01
3.218328654766082764e-01 -2.667432427406311035e-01
4.442514777183532715e-01 -4.687394797801971436e-01
3.183628320693969727e-01 -3.182731866836547852e-01
2.226512134075164795e-01 -2.336212992668151855e-01
7.410829514265060425e-02 -1.224773228168487549e-01
1.634855419397354126e-01 -1.255260556936264038e-01
2.658100053668022156e-02 5.212401505559682846e-03
-1.956347078084945679e-01 1.318587511777877808e-01
-1.560235470533370972e-01 2.326168417930603027e-01
-1.173450425267219543e-01 1.442063003778457642e-01
-1.668012440204620361e-01 1.115259379148483276e-01
-3.252708911895751953e-01 3.573763072490692139e-01
4.804015159606933594e-02 -5.314509943127632141e-02
2.326442003250122070e-01 -1.984508037567138672e-01
-7.686288654804229736e-02 4.852102324366569519e-02
1.243176832795143127e-01 -1.771484762430191040e-01
3.407145142555236816e-01 -3.795247077941894531e-01
2.387583702802658081e-01 -2.336051017045974731e-01
3.685744404792785645e-01 -3.995251059532165527e-01
-4.711148142814636230e-02 -1.370305195450782776e-02
-5.053213238716125488e-02 5.236176401376724243e-02
7.737700641155242920e-02 -4.330280423164367676e-02
9.400156885385513306e-02 -9.656569361686706543e-02
1.584789752960205078e-01 -1.376647502183914185e-01
2.534716762602329254e-02 -2.416057698428630829e-02
9.330438449978828430e-03 -1.880840212106704712e-02
-1.391632948070764542e-02 -4.221070557832717896e-02
-8.308561146259307861e-02 3.409085795283317566e-02
-3.087964951992034912e-01 2.929975092411041260e-01
-1.551730334758758545e-01 2.197428643703460693e-01
-6.547467410564422607e-02 1.130875200033187866e-01
-1.066535413265228271e-01 1.518982648849487305e-01
-2.884211838245391846e-01 3.154816627502441406e-01
7.850941270589828491e-02 -6.305024772882461548e-02
1.264059245586395264e-01 -8.947694301605224609e-02
3.255225718021392822e-01 -3.270666301250457764e-01
3.085022866725921631e-01 -3.102578818798065186e-01
2.622242271900177002e-01 -2.037567049264907837e-01
3.770484924316406250e-01 -4.104372560977935791e-01
3.685794174671173096e-01 -4.069569110870361328e-01
5.207442119717597961e-02 1.222136989235877991e-02
-7.871306501328945160e-03 -4.447594285011291504e-02
-1.492260545492172241e-01 1.467734277248382568e-01
-5.872277170419692993e-02 5.377987772226333618e-02
-5.665083229541778564e-02 6.941678375005722046e-02
3.449192345142364502e-01 -3.618016242980957031e-01
3.970117866992950439e-01 -4.009989500045776367e-01
1.321945488452911377e-01 -1.470595449209213257e-01
2.505678832530975342e-01 -2.641462683677673340e-01
1.287374645471572876e-01 -1.726731956005096436e-01
4.901466667652130127e-01 -4.777412116527557373e-01
2.567000389099121094e-01 -3.211028575897216797e-01
2.000797986984252930e-01 -2.269024550914764404e-01
-7.200640160590410233e-03 1.073659677058458328e-02
2.136747539043426514e-01 -2.691719233989715576e-01
2.375244200229644775e-01 -2.353537976741790771e-01
2.019993811845779419e-01 -2.301876395940780640e-01
4.115455746650695801e-01 -4.458655714988708496e-01
2.017471790313720703e-01 -1.695370674133300781e-01
-4.989233613014221191e-02 2.181671187281608582e-02
1.323649883270263672e-01 -1.877176314592361450e-01
6.926175355911254883e-01 -6.678596138954162598e-01
6.091792583465576172e-01 -6.095589995384216309e-01
6.397983431816101074e-01 -6.296069622039794922e-01
1.604111045598983765e-01 -1.843761652708053589e-01
2.625522911548614502e-01 -2.309325933456420898e-01
3.020243048667907715e-01 -3.124968409538269043e-01
7.584089762531220913e-04 -1.748146675527095795e-02
-5.609229952096939087e-02 6.561644375324249268e-02
-1.325516961514949799e-02 4.300416260957717896e-02
-7.236052304506301880e-02 1.074606552720069885e-01
-3.065536031499505043e-03 -1.476419158279895782e-02
1.759090572595596313e-01 -1.472690999507904053e-01
1.168228462338447571e-01 -1.440485417842864990e-01
1.343224048614501953e-01 -5.752152949571609497e-02
4.131827503442764282e-02 -1.827783696353435516e-02
9.535874426364898682e-02 -4.734953865408897400e-02
1.720380634069442749e-01 -1.141831949353218079e-01
2.468474209308624268e-02 1.964433118700981140e-02
4.433802142739295959e-02 -7.725957781076431274e-02
4.782573506236076355e-02 -1.035431749187409878e-03
3.407904133200645447e-02 -2.619435638189315796e-02
-1.583323478698730469e-01 2.097224742174148560e-01
-1.783172413706779480e-02 -4.262308031320571899e-02
-1.705548167228698730e-01 1.842474043369293213e-01
-9.608810395002365112e-02 1.029380112886428833e-01
-4.208798334002494812e-02 5.335699021816253662e-02
-9.525715559720993042e-02 9.922238439321517944e-02
-1.678937301039695740e-02 7.473476976156234741e-02
1.467195749282836914e-01 -1.793216168880462646e-01
2.499973326921463013e-01 -2.695088386535644531e-01
4.780541062355041504e-01 -4.662989079952239990e-01
2.833600342273712158e-01 -2.781937420368194580e-01
-4.525750130414962769e-02 3.504446940496563911e-03
-1.208936646580696106e-01 1.257930845022201538e-01
-1.122913584113121033e-01 7.016839087009429932e-02
2.452411204576492310e-01 -2.492839843034744263e-01
2.312507480382919312e-01 -1.999794691801071167e-01
8.215560019016265869e-02 -1.398658454418182373e-01
2.759031057357788086e-01 -2.494204640388488770e-01
3.696529269218444824e-01 -4.040561616420745850e-01
3.942428827285766602e-01 -4.066141545772552490e-01
5.293291211128234863e-01 -5.500934123992919922e-01
2.514725737273693085e-02 -1.415281556546688080e-02
-3.512921556830406189e-02 3.646891936659812927e-02
1.844785213470458984e-01 -2.191468477249145508e-01
6.249701380729675293e-01 -5.777474641799926758e-01
4.239448904991149902e-01 -4.097257256507873535e-01
3.390088081359863281e-01 -3.556398153305053711e-01
1.687699928879737854e-02 -4.878332465887069702e-02
3.096654713153839111e-01 -3.406501710414886475e-01
6.032244861125946045e-02 -1.114026680588722229e-01
1.844879388809204102e-01 -2.385616898536682129e-01
3.770001232624053955e-01 -3.399164378643035889e-01
3.790755569934844971e-01 -3.916977345943450928e-01
1.322191655635833740e-01 -8.867080509662628174e-02
8.335128426551818848e-02 -3.830128163099288940e-02
1.939180656336247921e-03 -3.460454172454774380e-04
1.771167367696762085e-01 -1.461161375045776367e-01
3.315194845199584961e-01 -2.953625023365020752e-01
-6.569075584411621094e-02 8.143501728773117065e-02
-1.402732133865356445e-01 1.864256411790847778e-01
4.875552654266357422e-02 -5.241632089018821716e-02
2.651271522045135498e-01 -2.194215357303619385e-01
1.624024510383605957e-01 -1.188021898269653320e-01
2.172622531652450562e-01 -2.746016979217529297e-01
7.954436540603637695e-02 -7.478075474500656128e-02
-1.248487234115600586e-01 6.489329040050506592e-02
-1.810636222362518311e-01 1.505329310894012451e-01
-2.208872288465499878e-01 2.508582472801208496e-01
-1.536814272403717041e-01 1.455531269311904907e-01
4.671070724725723267e-02 -8.097045868635177612e-02
1.940510421991348267e-02 -9.318503551185131073e-03
-3.675179556012153625e-02 2.528268657624721527e-02
7.168340682983398438e-02 -8.515455573797225952e-02
2.717279084026813507e-02 -1.016147434711456299e-02
-8.636672794818878174e-02 9.458900243043899536e-02
-3.298887610435485840e-02 -1.935848407447338104e-02
2.546883523464202881e-01 -2.847896516323089600e-01
4.213758111000061035e-01 -4.381188154220581055e-01
2.003347128629684448e-01 -2.049139291048049927e-01
1.756481081247329712e-01 -2.354826331138610840e-01
2.939324639737606049e-02 -6.478306371718645096e-03
9.825609624385833740e-02 -1.265625953674316406e-01
-3.313056379556655884e-02 1.752840727567672729e-02
3.728685155510902405e-02 -4.104223847389221191e-02
1.530037671327590942e-01 -1.894833743572235107e-01
-2.659485302865505219e-02 7.832943648099899292e-02
-1.620109081268310547e-01 2.064634561538696289e-01
1.040462777018547058e-01 -1.663780361413955688e-01
3.188853561878204346e-01 -3.038769662380218506e-01
-2.626518607139587402e-01 2.296366989612579346e-01
-1.843266636133193970e-01 1.594963222742080688e-01
-8.550897985696792603e-02 1.427664309740066528e-01
1.488746255636215210e-01 -1.665177047252655029e-01
-2.323888801038265228e-02 -4.362850263714790344e-02
2.306193709373474121e-01 -1.932364851236343384e-01
2.042465209960937500e-01 -2.082792967557907104e-01
2.769587039947509766e-01 -2.333368957042694092e-01
-5.124377831816673279e-02 8.262422680854797363e-02
4.140856489539146423e-02 -3.022500313818454742e-02
-5.849956534802913666e-03 -3.955337777733802795e-02
-2.148420661687850952e-01 2.131124287843704224e-01
1.105891466140747070e-01 -1.208267286419868469e-01
-6.091497838497161865e-02 2.383529581129550934e-02
-2.327110767364501953e-01 2.518374621868133545e-01
-1.726758033037185669e-01 1.921403706073760986e-01
1.618083752691745758e-02 -2.482431754469871521e-02
2.486398518085479736e-01 -1.840553283691406250e-01
2.322786897420883179e-01 -1.923686116933822632e-01
1.102366074919700623e-01 -1.552498191595077515e-01
-1.088386680930852890e-02 -2.482798509299755096e-02
1.867628693580627441e-01 -2.113371491432189941e-01
8.576580882072448730e-02 -7.382841408252716064e-02
3.907738924026489258e-01 -3.848026692867279053e-01
3.427829146385192871e-01 -3.586261272430419922e-01
-1.411690376698970795e-02 2.711636247113347054e-03
-1.987643986940383911e-01 1.462903171777725220e-01
5.214243009686470032e-02 -4.412991926074028015e-02
-3.974334336817264557e-03 -4.666530340909957886e-02
-7.285166531801223755e-02 1.158535778522491455e-01
1.419328600168228149e-01 -1.402886211872100830e-01
-2.644502557814121246e-02 5.034637823700904846e-02
1.054932624101638794e-01 -1.198707744479179382e-01
2.183631658554077148e-01 -2.752923667430877686e-01
2.676123380661010742e-01 -2.878190875053405762e-01
3.634391725063323975e-01 -3.927463293075561523e-01
6.234957370907068253e-03 -1.949712075293064117e-02
-1.345553696155548096e-01 1.210388466715812683e-01
-3.952979296445846558e-02 5.218273028731346130e-02
-1.567251831293106079e-01 2.110997289419174194e-01
1.327742822468280792e-02 -1.164345536381006241e-02
-1.164863407611846924e-01 1.155881956219673157e-01
1.279047876596450806e-02 -7.492755353450775146e-02
4.694922268390655518e-02 -8.752091974020004272e-02
3.652959316968917847e-02 -2.477815188467502594e-02
-2.507999241352081299e-01 2.145128399133682251e-01
-6.267091631889343262e-02 5.334574356675148010e-02
9.303591400384902954e-02 -1.086765080690383911e-01
2.844102382659912109e-01 -2.677755057811737061e-01
1.987952739000320435e-01 -2.347183823585510254e-01
1.952022314071655273e-01 -1.848538666963577271e-01
5.023456364870071411e-02 -8.651693351566791534e-03
1.255417317152023315e-01 -1.337620168924331665e-01
1.329110711812973022e-01 -1.137865260243415833e-01
1.444525569677352905e-01 -1.634558290243148804e-01
-2.553764879703521729e-01 2.168401330709457397e-01
-2.247670665383338928e-02 5.596896260976791382e-02
-1.466863602399826050e-01 1.521679162979125977e-01
-1.935196667909622192e-01 2.386451065540313721e-01
7.121448963880538940e-02 -1.017399802803993225e-01
1.779396235942840576e-01 -1.515261679887771606e-01
3.341249376535415649e-02 -6.022136658430099487e-03
3.468415886163711548e-02 -5.804055370390415192e-03
1.502875685691833496e-01 -1.480775922536849976e-01
-4.374952912330627441e-01 4.075089097023010254e-01
-1.251942664384841919e-01 1.198805570602416992e-01
1.435708105564117432e-01 -1.605558842420578003e-01
1.508543938398361206e-01 -1.535093188285827637e-01
-2.432704530656337738e-02 -7.075507193803787231e-03
-1.768154203891754150e-01 2.116730213165283203e-01
1.591393351554870605e-01 -9.344445168972015381e-02
1.800024509429931641e-01 -1.754286140203475952e-01
3.223796561360359192e-02 -5.969558283686637878e-02
1.038576588034629822e-01 -7.520378381013870239e-02
-1.115352734923362732e-01 6.767473369836807251e-02
-2.092104107141494751e-01 2.157446593046188354e-01
-4.641307592391967773e-01 4.333596825599670410e-01
-7.208233326673507690e-02 1.169866696000099182e-01
1.797187328338623047e-01 -1.768251806497573853e-01
8.348397910594940186e-02 -1.008034124970436096e-01
-1.819282770156860352e-02 1.744861714541912079e-02
1.076327115297317505e-01 -8.265646547079086304e-02
-1.338481903076171875e-01 1.102365180850028992e-01
7.155091315507888794e-02 -1.627934910356998444e-02
2.547865509986877441e-01 -2.172460258007049561e-01
2.849732637405395508e-01 -2.448927611112594604e-01
2.682620286941528320e-01 -2.321792989969253540e-01
-9.296638891100883484e-03 6.616990268230438232e-02
1.307075768709182739e-01 -1.714039593935012817e-01
2.081453241407871246e-02 -4.645461961627006531e-02
1.702774763107299805e-01 -1.512645781040191650e-01
-1.431587934494018555e-01 1.082182899117469788e-01
-3.205665154382586479e-03 7.932568900287151337e-03
2.491121441125869751e-01 -3.034324049949645996e-01
2.715288996696472168e-01 -2.796523571014404297e-01
-4.128051805309951305e-04 -2.570907957851886749e-02
4.073362052440643311e-02 -1.330052688717842102e-02
7.758410274982452393e-02 -4.579583182930946350e-02
1.135528087615966797e-01 -1.107864230871200562e-01
-4.347342848777770996e-01 4.736947715282440186e-01
7.003652304410934448e-02 -5.099452659487724304e-02
4.057873785495758057e-02 -5.906917154788970947e-02
1.240524947643280029e-01 -1.142043620347976685e-01
3.922015056014060974e-02 -5.536189675331115723e-02
4.945443198084831238e-02 -2.543399110436439514e-02
5.973799526691436768e-02 -2.251203171908855438e-02
-8.197800070047378540e-02 4.033193737268447876e-02
3.594364225864410400e-01 -3.731954991817474365e-01
2.658999860286712646e-01 -2.200790792703628540e-01
1.371121704578399658e-01 -1.494654715061187744e-01
1.969836801290512085e-01 -2.154655754566192627e-01
5.982742086052894592e-02 -3.493068367242813110e-02
1.606237441301345825e-01 -1.624549478292465210e-01
4.252032563090324402e-02 -7.898286730051040649e-02
6.466043740510940552e-02 -6.609837710857391357e-02
-3.370502963662147522e-02 4.513803124427795410e-02
-6.093144416809082031e-02 6.524620950222015381e-02
3.366966545581817627e-02 -2.584960497915744781e-02
3.048889338970184326e-01 -3.297814130783081055e-01
8.573158085346221924e-02 -6.925489008426666260e-02
-9.183910489082336426e-02 4.387638717889785767e-02
-2.898889966309070587e-02 1.887678727507591248e-02
6.742145121097564697e-02 -4.756311327219009399e-02
-8.653730899095535278e-02 5.737731233239173889e-02
8.044996112585067749e-02 -3.472512215375900269e-02
2.314750999212265015e-01 -1.987346112728118896e-01
3.398548364639282227e-01 -3.376117646694183350e-01
-1.106596365571022034e-01 9.869837015867233276e-02
4.672659188508987427e-02 -1.800949871540069580e-02
-1.141553893685340881e-01 9.937319904565811157e-02
2.483463883399963379e-01 -2.439021170139312744e-01
2.066378444433212280e-01 -2.314692437648773193e-01
1.183431446552276611e-01 -1.108808368444442749e-01
-8.504852652549743652e-03 2.443259954452514648e-02
-4.330824315547943115e-02 5.781081691384315491e-02
-1.304323319345712662e-02 -4.248318448662757874e-02
2.044159621000289917e-01 -2.200862169265747070e-01
-6.521309912204742432e-02 6.704843044281005859e-02
-2.009005695581436157e-01 1.843217611312866211e-01
-1.483467072248458862e-01 1.280038058757781982e-01
-2.696221694350242615e-02 -4.262167494744062424e-03
2.460664659738540649e-01 -2.628581821918487549e-01
-1.385244578123092651e-01 1.436928510665893555e-01
-1.491488069295883179e-01 1.530695408582687378e-01
1.175280436873435974e-01 -1.190765947103500366e-01
8.157367259263992310e-02 -1.010330021381378174e-01
3.264523744583129883e-01 -3.372165560722351074e-01
1.423688977956771851e-01 -9.341058880090713501e-02
2.446002215147018433e-01 -2.632634043693542480e-01
-1.545207649469375610e-01 1.416043490171432495e-01
-9.456769376993179321e-02 7.150416076183319092e-02
5.019414704293012619e-03 -2.675604773685336113e-03
2.471365779638290405e-01 -2.479953318834304810e-01
-1.327623873949050903e-01 1.234843358397483826e-01
-9.728997200727462769e-02 1.004609242081642151e-01
9.245046228170394897e-02 -6.270796805620193481e-02
1.318159848451614380e-01 -1.633210331201553345e-01
2.526437938213348389e-01 -2.403219491243362427e-01
5.322817713022232056e-02 -5.185152217745780945e-02
1.016244813799858093e-01 -1.385869234800338745e-01
-2.475097589194774628e-02 5.130118131637573242e-02
-4.668628796935081482e-02 3.593058511614799500e-02
-5.493021756410598755e-02 4.368925094604492188e-02
5.669783055782318115e-02 -6.362743675708770752e-02
2.072689831256866455e-01 -1.454028040170669556e-01
-3.634317964315414429e-02 6.046985089778900146e-02
7.167585194110870361e-02 -8.468329906463623047e-02
-4.485251754522323608e-02 7.898541539907455444e-02
-7.886190712451934814e-02 3.543816879391670227e-02
2.006954699754714966e-01 -2.230176031589508057e-01
2.525631189346313477e-01 -2.545807063579559326e-01
-4.089641273021697998e-01 4.273459315299987793e-01
1.182968448847532272e-02 1.602257043123245239e-02
1.577499508857727051e-01 -1.962622404098510742e-01
3.582545742392539978e-02 -6.078672036528587341e-02
-3.709941506385803223e-01 3.534168004989624023e-01
1.219267323613166809e-01 -1.251062899827957153e-01
1.857925355434417725e-01 -1.595512479543685913e-01
-1.613402664661407471e-01 2.016129493713378906e-01
-2.760801315307617188e-01 3.226959705352783203e-01
-1.255699805915355682e-02 -1.531348098069429398e-02
1.133714392781257629e-01 -1.258882135152816772e-01
2.545072734355926514e-01 -2.370452582836151123e-01
-1.685782819986343384e-01 2.330335676670074463e-01
-3.102144300937652588e-01 2.998779714107513428e-01
1.058757379651069641e-01 -1.461787372827529907e-01
-1.662548929452896118e-01 1.243553459644317627e-01
-2.818744480609893799e-01 3.019050955772399902e-01
3.208615481853485107e-01 -3.067521750926971436e-01
1.685716509819030762e-01 -1.558748781681060791e-01
3.432230949401855469e-01 -3.397949337959289551e-01
5.222385004162788391e-02 -7.264769822359085083e-02
7.542402297258377075e-02 -1.455092281103134155e-01
1.775300055742263794e-01 -1.787095069885253906e-01
-1.126631423830986023e-01 1.276376992464065552e-01
1.841950416564941406e-02 1.731832162477076054e-03
-6.792613863945007324e-02 2.761507034301757812e-02
-1.559877246618270874e-01 2.073885798454284668e-01
-8.967850357294082642e-02 1.407869458198547363e-01
-5.135324969887733459e-02 3.306886553764343262e-02
-2.793000638484954834e-01 2.125529646873474121e-01
-1.365284919738769531e-01 1.166779622435569763e-01
5.054522305727005005e-02 -9.130263328552246094e-02
1.108663007616996765e-01 -4.567915201187133789e-02
7.377690821886062622e-02 -1.268617212772369385e-01
-5.225924029946327209e-02 3.624797984957695007e-02
1.744534075260162354e-01 -2.227782309055328369e-01
2.970919199287891388e-02 -1.002112179994583130e-01
1.684134751558303833e-01 -1.366860866546630859e-01
6.424707174301147461e-02 -7.676118612289428711e-02
2.658121585845947266e-01 -2.518494427204132080e-01
-5.655536800622940063e-02 1.099887713789939880e-01
-1.596255451440811157e-01 1.050585508346557617e-01
5.708107724785804749e-02 -5.893097072839736938e-02
6.686168909072875977e-02 -3.467458114027976990e-02
-2.889488637447357178e-01 3.284316360950469971e-01
-1.984899640083312988e-01 1.524703055620193481e-01
-1.297264099121093750e-01 7.574661076068878174e-02
-2.203221917152404785e-01 1.906218081712722778e-01
-3.685147315263748169e-02 -4.286807379685342312e-04
-4.037978127598762512e-02 3.168750554323196411e-02
-5.476094782352447510e-02 3.675413876771926880e-02
-1.036032810807228088e-01 1.539596021175384521e-01
-2.029403299093246460e-01 2.188031077384948730e-01
-2.760413289070129395e-01 2.430243492126464844e-01
-1.111679822206497192e-01 8.496988564729690552e-02
1.042190287262201309e-02 2.885784208774566650e-02
-3.116787374019622803e-01 3.412004411220550537e-01
-2.425150722265243530e-01 2.493968605995178223e-01
-2.133059501647949219e-01 2.387485355138778687e-01
-2.254139482975006104e-01 2.267248630523681641e-01
-3.316881358623504639e-01 3.491787612438201904e-01
-3.730529248714447021e-01 3.740089535713195801e-01
-8.348116278648376465e-02 7.959002256393432617e-02
-1.303551904857158661e-02 1.911798492074012756e-02
1.620598882436752319e-01 -1.799236088991165161e-01
1.472432762384414673e-01 -1.069302558898925781e-01
-4.086191058158874512e-01 3.963424861431121826e-01
2.395363152027130127e-02 -5.944544821977615356e-02
1.701952815055847168e-01 -1.455229818820953369e-01
-1.427664607763290405e-02 -5.577227100729942322e-02
-2.965282797813415527e-01 2.826730906963348389e-01
-2.036099284887313843e-01 1.896584182977676392e-01
-7.034456357359886169e-04 4.906962160021066666e-03
-1.704008132219314575e-01 1.644104421138763428e-01
-2.906105518341064453e-01 2.823946177959442139e-01
-6.357240024954080582e-03 2.638612687587738037e-02
5.144599080085754395e-02 -7.674139738082885742e-02
-4.251632094383239746e-02 1.057276967912912369e-02
-3.035186827182769775e-01 2.795305550098419189e-01
-1.712881587445735931e-02 1.971991034224629402e-03
-1.770197898149490356e-01 1.780519485473632812e-01
-2.733703553676605225e-01 2.342070490121841431e-01
-3.867156058549880981e-02 1.579317264258861542e-02
-1.635796949267387390e-02 4.863363876938819885e-02
-1.810592040419578552e-02 -9.399188682436943054e-03
8.821916580200195312e-02 -2.127998508512973785e-02
-1.593219041824340820e-01 1.406547725200653076e-01
-1.806952655315399170e-01 2.264284044504165649e-01
-1.376332491636276245e-01 1.349161416292190552e-01
-1.429473608732223511e-01 1.879483610391616821e-01
-5.666754841804504395e-01 5.031682848930358887e-01
-1.244888752698898315e-01 1.356883347034454346e-01
-3.191271424293518066e-01 2.594884335994720459e-01
-2.086948752403259277e-01 1.879643201828002930e-01
8.045973628759384155e-02 -7.198973745107650757e-02
2.132294476032257080e-01 -2.461839318275451660e-01
-1.553084515035152435e-02 1.875849626958370209e-02
1.934207230806350708e-01 -2.016481906175613403e-01
-2.641478553414344788e-02 7.229983061552047729e-02
-1.462368816137313843e-01 1.575800031423568726e-01
1.220245361328125000e-01 -1.411864161491394043e-01
3.795484080910682678e-02 -7.108894735574722290e-02
7.569626718759536743e-02 -9.046152234077453613e-02
-3.468137085437774658e-01 3.581955432891845703e-01
-3.009689413011074066e-02 -1.543550007045269012e-02
4.221389889717102051e-01 -4.523888230323791504e-01
2.432711124420166016e-01 -2.475423961877822876e-01
1.694758236408233643e-01 -1.668631583452224731e-01
2.119316607713699341e-01 -2.503407299518585205e-01
1.765146553516387939e-01 -1.321062743663787842e-01
2.625255100429058075e-02 -4.113058000802993774e-02
1.008358150720596313e-01 -1.204035207629203796e-01
-9.329541772603988647e-02 7.064536958932876587e-02
-1.914440989494323730e-01 1.698848903179168701e-01
-6.763442605733871460e-02 1.056654155254364014e-01
-3.416951894760131836e-01 3.563748598098754883e-01
-1.391116976737976074e-01 1.583429872989654541e-01
-2.329393774271011353e-01 2.853927612304687500e-01
-1.564150601625442505e-01 1.292974203824996948e-01
-9.963824599981307983e-02 8.598218858242034912e-02
-2.421227246522903442e-01 2.421365231275558472e-01
-1.693923026323318481e-01 1.797350347042083740e-01
-1.983409374952316284e-02 1.194609794765710831e-02
2.810393273830413818e-01 -2.944529950618743896e-01
3.659337759017944336e-01 -3.646826744079589844e-01
2.619224786758422852e-02 -4.070727154612541199e-02
-2.390774786472320557e-01 2.534933090209960938e-01
6.365107838064432144e-04 -3.175037726759910583e-02
-1.366907209157943726e-01 1.070061475038528442e-01
2.488617151975631714e-01 -2.483632415533065796e-01
-8.412043005228042603e-02 5.197325721383094788e-02
-5.238393321633338928e-02 1.183528006076812744e-01
4.103176668286323547e-02 -4.940826073288917542e-02
1.612500548362731934e-01 -2.136078923940658569e-01
-9.120515547692775726e-03 -1.921410299837589264e-02
1.809426248073577881e-01 -1.898167878389358521e-01
1.620100736618041992e-01 -1.551533490419387817e-01
-2.498003989458084106e-01 2.940296828746795654e-01
-8.843772113323211670e-03 3.177679330110549927e-02
3.314573466777801514e-01 -3.017858564853668213e-01
3.879199624061584473e-01 -3.214852213859558105e-01
1.924855113029479980e-01 -1.918124258518218994e-01
2.205084711313247681e-01 -1.922197043895721436e-01
-2.619972229003906250e-01 2.357804030179977417e-01
1.835130155086517334e-02 -1.390344259561970830e-04
3.392058983445167542e-02 -4.838704690337181091e-02
-5.664862692356109619e-02 2.654435299336910248e-02
2.764057926833629608e-02 -5.406209453940391541e-02
-1.079119369387626648e-01 4.747118055820465088e-02
-1.867555379867553711e-01 1.911207884550094604e-01
3.333029150962829590e-02 6.423836108297109604e-03
3.093854151666164398e-02 8.153459057211875916e-03
-2.683197855949401855e-01 2.800893485546112061e-01
-3.350420296192169189e-01 3.102824985980987549e-01
1.492634648457169533e-03 3.761233296245336533e-03
-4.271301999688148499e-02 7.412073761224746704e-02
-4.592860117554664612e-03 -2.230468951165676117e-02
2.466896325349807739e-01 -2.561343014240264893e-01
-6.353772431612014771e-02 5.380670353770256042e-02
3.296285271644592285e-01 -2.828681766986846924e-01
2.728506624698638916e-01 -3.156891763210296631e-01
-1.220680102705955505e-01 7.807959616184234619e-02
4.064603149890899658e-01 -3.747019469738006592e-01
7.339346408843994141e-02 -3.256620839238166809e-02
-3.355569541454315186e-01 3.351471424102783203e-01
-4.471178948879241943e-01 4.869449436664581299e-01
1.507094353437423706e-01 -1.053640022873878479e-01
1.886596977710723877e-01 -1.892117410898208618e-01
-9.948011487722396851e-02 1.157709583640098572e-01
3.803771734237670898e-02 1.795129291713237762e-02
1.601746529340744019e-01 -9.270151704549789429e-02
-4.504087939858436584e-02 5.543209984898567200e-02
2.394513040781021118e-01 -2.618255019187927246e-01
1.425707042217254639e-01 -1.113503798842430115e-01
-2.222958058118820190e-01 1.920571178197860718e-01
4.359773173928260803e-02 -7.818415015935897827e-02
3.391574919223785400e-01 -3.247267901897430420e-01
2.624610662460327148e-01 -2.620628178119659424e-01
-2.147406712174415588e-02 -1.939767599105834961e-02
-3.391044735908508301e-01 3.247634470462799072e-01
1.788632124662399292e-01 -1.855658590793609619e-01
-1.198737099766731262e-01 5.182168632745742798e-02
-1.708702594041824341e-01 2.021708488464355469e-01
1.437779515981674194e-01 -2.079179733991622925e-01
4.194322526454925537e-01 -4.153923690319061279e-01
2.903378568589687347e-02 -2.274393662810325623e-02
-3.386037796735763550e-02 6.626135110855102539e-02
-1.522253453731536865e-01 1.759274452924728394e-01
2.408673614263534546e-02 -3.436949104070663452e-02
2.211806923151016235e-01 -1.960847526788711548e-01
-2.297748625278472900e-02 2.840622514486312866e-02
2.131992429494857788e-01 -1.997959613800048828e-01
8.744680881500244141e-02 -8.184993267059326172e-02
-7.138834148645401001e-02 6.669656187295913696e-02
-6.194790825247764587e-02 5.475756898522377014e-02
1.466281116008758545e-01 -1.691913902759552002e-01
1.889305710792541504e-01 -2.099539041519165039e-01
-4.230322316288948059e-03 4.569434002041816711e-02
4.587875306606292725e-02 -8.503302186727523804e-02
2.264534235000610352e-01 -2.364826053380966187e-01
-1.176565885543823242e-01 8.795289695262908936e-02
-2.544826567173004150e-01 2.189854532480239868e-01
-1.109808608889579773e-01 1.214813068509101868e-01
2.671999335289001465e-01 -2.822345495223999023e-01
6.183050945401191711e-02 -6.203247606754302979e-02
-1.678548902273178101e-01 1.244195178151130676e-01
-2.321507036685943604e-01 2.699654400348663330e-01
-1.230807602405548096e-01 1.619609147310256958e-01
-6.543466355651617050e-03 -2.744503878057003021e-02
5.922340974211692810e-02 -7.034276425838470459e-02
7.033466547727584839e-02 -7.547129690647125244e-02
1.205032616853713989e-01 -1.829525232315063477e-01
-1.524207442998886108e-01 1.238204315304756165e-01
1.444967240095138550e-01 -1.539912223815917969e-01
-1.909090280532836914e-01 1.961893290281295776e-01
-1.915907370857894421e-03 -1.836334355175495148e-02
1.797502487897872925e-02 -3.149177506566047668e-02
-1.347384881228208542e-02 4.751436784863471985e-02
2.721368372440338135e-01 -3.104652762413024902e-01
3.120599687099456787e-01 -2.935486435890197754e-01
2.606924474239349365e-01 -2.758610546588897705e-01
3.924103379249572754e-01 -3.968324959278106689e-01
1.224345620721578598e-02 -2.207035385072231293e-02
3.494317457079887390e-02 -2.560760453343391418e-02
3.359578847885131836e-01 -2.924798727035522461e-01
-7.681738585233688354e-02 7.301951199769973755e-02
-2.028397768735885620e-01 2.725795805454254150e-01
3.162092342972755432e-02 -2.223284915089607239e-02
3.853788226842880249e-02 -5.548768863081932068e-02
6.127518415451049805e-02 -4.805693402886390686e-02
-3.429009392857551575e-02 -8.907975628972053528e-03
-7.062503695487976074e-02 7.096551358699798584e-02
2.995877265930175781e-01 -2.630085647106170654e-01
3.347353935241699219e-01 -3.872294127941131592e-01
4.173529893159866333e-02 -8.664211630821228027e-02
-1.726973503828048706e-01 1.950167268514633179e-01
-1.775325089693069458e-01 1.815024912357330322e-01
2.266898006200790405e-01 -2.521605491638183594e-01
1.338166594505310059e-01 -9.346440434455871582e-02
-2.049871981143951416e-01 2.095402926206588745e-01
1.159907039254903793e-02 -1.672643050551414490e-02
2.535621225833892822e-01 -2.047700434923171997e-01
-2.013458311557769775e-01 1.977970451116561890e-01
-1.372826546430587769e-01 1.260197609663009644e-01
2.989192260429263115e-03 -4.551164060831069946e-02
1.393369436264038086e-01 -2.007034420967102051e-01
9.016498178243637085e-02 -7.620896399021148682e-02
8.523733355104923248e-03 1.048882550094276667e-04
-8.469968289136886597e-02 1.132512390613555908e-01
9.337844699621200562e-02 -5.648824572563171387e-02
5.045110583305358887e-01 -5.388102531433105469e-01
3.373494446277618408e-01 -3.496002554893493652e-01
-1.234854236245155334e-01 1.395445019006729126e-01
-4.489189386367797852e-01 4.135783910751342773e-01
5.974619649350643158e-03 4.012050852179527283e-02
-1.266174465417861938e-01 1.065075919032096863e-01
-2.706092000007629395e-01 2.404513806104660034e-01
-2.425130754709243774e-01 1.985467821359634399e-01
-3.508735820651054382e-02 1.033863946795463562e-01
-4.936854541301727295e-01 5.062271356582641602e-01
-3.411065936088562012e-01 3.936385512351989746e-01
5.584937334060668945e-02 -4.784594476222991943e-02
9.004121273756027222e-02 -3.239796683192253113e-02
-7.285839319229125977e-02 1.336418837308883667e-01
6.313971430063247681e-02 -3.738475218415260315e-02
1.156127676367759705e-01 -1.631831675767898560e-01
2.099284529685974121e-01 -2.018563002347946167e-01
-1.299216300249099731e-01 1.555495262145996094e-01
-5.104805156588554382e-02 2.071299590170383453e-02
-1.516350060701370239e-01 1.262438595294952393e-01
-3.065094947814941406e-01 3.060203194618225098e-01
2.735260687768459320e-02 -6.714201532304286957e-03
4.934523627161979675e-02 -1.050313282757997513e-02
-1.627748161554336548e-01 1.930329650640487671e-01
-7.854111492633819580e-02 7.910494506359100342e-02
5.402357131242752075e-02 -5.322497710585594177e-02
-8.396364003419876099e-02 1.417429596185684204e-01
1.106980964541435242e-01 -9.070874005556106567e-02
4.977467060089111328e-01 -4.652808010578155518e-01
2.390618771314620972e-01 -2.871621847152709961e-01
1.575806736946105957e-01 -1.748504042625427246e-01
1.529935300350189209e-01 -1.605602800846099854e-01
2.845345735549926758e-01 -2.312831878662109375e-01
2.843604683876037598e-01 -2.581224143505096436e-01
3.150492673739790916e-03 3.167875111103057861e-02
-1.300817877054214478e-01 1.813485622406005859e-01
1.260579377412796021e-01 -9.402762353420257568e-02
1.093694046139717102e-01 -1.314930468797683716e-01
-7.886250503361225128e-03 -3.808999434113502502e-02
1.809996962547302246e-01 -1.564245969057083130e-01
1.625414192676544189e-01 -1.652857363224029541e-01
-2.929193340241909027e-02 1.656623184680938721e-02
-1.967117190361022949e-01 2.379141002893447876e-01
-1.682628132402896881e-02 9.608206339180469513e-03
4.507137537002563477e-01 -4.844895005226135254e-01
3.302723765373229980e-01 -2.951295971870422363e-01
-2.549769580364227295e-01 2.356926500797271729e-01
-2.222483009099960327e-01 2.285403162240982056e-01
-1.151001155376434326e-01 7.681328803300857544e-02
4.171866178512573242e-01 -3.915509283542633057e-01
2.652892768383026123e-01 -2.603021860122680664e-01
-3.077302277088165283e-01 3.441556692123413086e-01
5.952640995383262634e-02 -5.500961467623710632e-02
3.236456960439682007e-02 -3.162092342972755432e-02
-2.838200032711029053e-01 3.084836304187774658e-01
-5.167862400412559509e-02 4.161079227924346924e-02
-1.312186941504478455e-02 -2.402606047689914703e-02
-1.129683181643486023e-01 8.205565810203552246e-02
-4.912045970559120178e-02 2.116189897060394287e-02
-2.223438769578933716e-02 5.879936739802360535e-02
1.678380072116851807e-01 -9.679599851369857788e-02
-7.330879569053649902e-02 4.012101516127586365e-02
5.281949881464242935e-03 -2.146377228200435638e-02
6.480321288108825684e-02 -3.476749733090400696e-02
-2.553962767124176025e-01 1.860134303569793701e-01
-1.197146400809288025e-01 1.682567149400711060e-01
-3.818951081484556198e-03 -3.780787065625190735e-02
-3.612334653735160828e-02 7.876823842525482178e-02
-1.336054801940917969e-01 1.459705680608749390e-01
-6.021348759531974792e-02 6.729679554700851440e-02
-2.296936213970184326e-01 2.189386039972305298e-01
-1.772892177104949951e-01 1.732767522335052490e-01
-1.854310780763626099e-01 1.441886574029922485e-01
5.502136424183845520e-03 -3.875476866960525513e-02
1.088457703590393066e-01 -6.781861186027526855e-02
1.482724845409393311e-01 -1.042417362332344055e-01
1.419647336006164551e-01 -1.589496731758117676e-01
2.460945993661880493e-01 -2.840401828289031982e-01
1.919021829962730408e-02 3.880609758198261261e-03
-3.107473850250244141e-01 3.095357716083526611e-01
-2.010105103254318237e-01 1.821286827325820923e-01
-1.039215847849845886e-01 1.031003147363662720e-01
-1.430066972970962524e-01 1.262836605310440063e-01
1.693616509437561035e-01 -1.825438439846038818e-01
3.932018205523490906e-02 -4.346075002104043961e-04
-1.365103870630264282e-01 7.323125004768371582e-02
1.026222258806228638e-01 -9.773238003253936768e-02
2.093760818243026733e-01 -2.229411303997039795e-01
1.853523403406143188e-01 -2.018647193908691406e-01
-1.095162332057952881e-01 6.701265275478363037e-02
2.164151668548583984e-01 -2.875173091888427734e-01
2.228114604949951172e-01 -1.860135942697525024e-01
2.106849104166030884e-01 -1.945402622222900391e-01
1.243510395288467407e-01 -9.820872545242309570e-02
-4.745180159807205200e-02 -6.596774328500032425e-03
5.668703466653823853e-02 -9.444478899240493774e-02
-1.895229965448379517e-01 2.085055112838745117e-01
-9.949617832899093628e-02 1.208190992474555969e-01
3.797878921031951904e-01 -3.293868005275726318e-01
2.244427204132080078e-01 -2.178355157375335693e-01
-1.836754828691482544e-01 1.514827907085418701e-01
1.240072771906852722e-01 -1.852506697177886963e-01
1.271622180938720703e-01 -1.363123804330825806e-01
1.576240547001361847e-02 1.479458995163440704e-02
-2.122598886489868164e-02 6.527345627546310425e-02
-7.600686978548765182e-03 -9.383688680827617645e-03
5.148376151919364929e-02 -9.744182229042053223e-02
-9.610603004693984985e-02 1.267785876989364624e-01
7.347662746906280518e-02 -2.691751904785633087e-02
-1.887879520654678345e-01 2.529083192348480225e-01
2.246882468461990356e-01 -2.506037950515747070e-01
2.768352925777435303e-01 -2.836515009403228760e-01
-3.485656976699829102e-01 3.653899431228637695e-01
-4.289599359035491943e-01 4.278784692287445068e-01
2.505349814891815186e-01 -3.069140613079071045e-01
1.735411435365676880e-01 -1.391925215721130371e-01
1.194807365536689758e-01 -1.101369187235832214e-01
2.822832576930522919e-02 -7.695066928863525391e-02
-1.426405459642410278e-01 1.359658837318420410e-01
-1.463929265737533569e-01 1.501034647226333618e-01
-1.446978449821472168e-01 1.569580584764480591e-01
-1.325382739305496216e-01 1.783276796340942383e-01
2.473626583814620972e-01 -2.588218450546264648e-01
-1.581540703773498535e-01 2.004520595073699951e-01
-4.544659554958343506e-01 3.826397955417633057e-01
1.072164028882980347e-01 -1.203438639640808105e-01
3.037787675857543945e-01 -2.937777638435363770e-01
2.455707043409347534e-01 -1.839650720357894897e-01
-2.357101142406463623e-01 1.627766489982604980e-01
-5.016031861305236816e-01 5.770894885063171387e-01
-3.536074459552764893e-01 4.149849414825439453e-01
-3.460032641887664795e-01 3.285396993160247803e-01
6.435615941882133484e-03 -6.796421483159065247e-03
1.191298887133598328e-01 -4.446944221854209900e-02
2.906699664890766144e-02 4.150510206818580627e-02
-2.132710516452789307e-01 2.285873889923095703e-01
-1.877395808696746826e-01 1.771729439496994019e-01
-7.437276840209960938e-02 8.945929259061813354e-02
-1.163627281785011292e-01 1.184351071715354919e-01
-1.068685874342918396e-01 1.287410408258438110e-01
-1.569369435310363770e-01 1.379467844963073730e-01
-2.146066278219223022e-01 1.684513539075851440e-01
-1.464758906513452530e-02 4.396901279687881470e-02
-5.322350561618804932e-02 8.910168707370758057e-02
-1.652666628360748291e-01 2.271703034639358521e-01
-7.426524907350540161e-02 4.523926600813865662e-02
1.657605767250061035e-01 -1.852283328771591187e-01
-2.105455249547958374e-01 1.765637099742889404e-01
-1.232222989201545715e-01 1.430629789829254150e-01
3.086984753608703613e-01 -2.593538463115692139e-01
1.784080713987350464e-01 -1.768989562988281250e-01
2.639565765857696533e-01 -2.118540108203887939e-01
1.777120679616928101e-01 -1.619256734848022461e-01
1.284300982952117920e-01 -1.509409695863723755e-01
1.403792761266231537e-03 -1.125104073435068130e-02
-4.783566296100616455e-02 5.304617062211036682e-02
6.792485713958740234e-02 -6.214616820216178894e-02
3.111341968178749084e-02 -5.920819193124771118e-02
2.646210491657257080e-01 -2.289164960384368896e-01
2.957257032394409180e-01 -3.164673149585723877e-01
3.273925185203552246e-01 -3.297029733657836914e-01
-8.932709693908691406e-02 1.858927495777606964e-02
-1.750880777835845947e-01 1.636860966682434082e-01
1.450773328542709351e-01 -1.339765489101409912e-01
9.570981562137603760e-02 -7.493196427822113037e-02
-1.132460385560989380e-01 1.534010320901870728e-01
-1.529842466115951538e-01 1.524780243635177612e-01
1.013506501913070679e-01 -1.144932955503463745e-01
1.436855047941207886e-01 -1.208814084529876709e-01
-2.759921848773956299e-01 2.989085912704467773e-01
-3.679228574037551880e-02 9.491284936666488647e-02
-3.126377463340759277e-01 3.434914350509643555e-01
-9.836988896131515503e-02 8.959185332059860229e-02
-6.383800506591796875e-02 8.242850750684738159e-02
-5.990172028541564941e-01 5.869960784912109375e-01
9.860252588987350464e-02 -2.335993759334087372e-02
2.667011320590972900e-01 -2.456625103950500488e-01
-2.552456557750701904e-01 3.109216392040252686e-01
-2.197263389825820923e-02 -1.969979703426361084e-02
2.769325971603393555e-01 -3.053223192691802979e-01
-2.144069969654083252e-01 2.160382568836212158e-01
-1.004194840788841248e-01 1.320597082376480103e-01
-1.308567970991134644e-01 1.631282269954681396e-01
-3.480231389403343201e-02 2.206639200448989868e-02
-4.644634425640106201e-01 4.034591019153594971e-01
-4.539422392845153809e-01 4.312546551227569580e-01
3.890093415975570679e-02 1.489260327070951462e-02
1.293992251157760620e-01 -9.794151037931442261e-02
-4.926571249961853027e-02 1.139722391963005066e-01
-3.077023029327392578e-01 3.458466827869415283e-01
-2.459317147731781006e-01 2.899340689182281494e-01
-3.264179825782775879e-01 3.319990038871765137e-01
-4.414906799793243408e-01 4.729695916175842285e-01
-2.328629493713378906e-01 2.277873903512954712e-01
-5.671294927597045898e-01 5.825287699699401855e-01
-3.795323967933654785e-01 3.870427012443542480e-01
-3.571775555610656738e-01 4.007062911987304688e-01
-2.073170803487300873e-02 2.695036306977272034e-02
-2.417811453342437744e-01 2.241714149713516235e-01
-7.151458263397216797e-01 6.693386435508728027e-01
-4.302922189235687256e-01 4.073907434940338135e-01
7.250217255204916000e-03 -3.133014217019081116e-02
-2.176401764154434204e-01 2.734992206096649170e-01
-4.427866041660308838e-01 4.497511386871337891e-01
-3.303895890712738037e-01 3.251509666442871094e-01
1.601040959358215332e-01 -1.885906010866165161e-01
-1.215071510523557663e-02 1.954894140362739563e-02
-2.851677834987640381e-01 2.993432283401489258e-01
-1.416504681110382080e-01 1.571544855833053589e-01
-1.079629883170127869e-01 8.992420136928558350e-02
-4.659719467163085938e-01 4.554260969161987305e-01
-2.105609625577926636e-01 2.124653160572052002e-01
-2.601235210895538330e-01 3.090387582778930664e-01
-1.674064844846725464e-01 1.636712700128555298e-01
1.591933816671371460e-01 -1.803769320249557495e-01
1.041174978017807007e-01 -1.154419854283332825e-01
5.005935579538345337e-02 -4.210281744599342346e-02
-2.474072724580764771e-01 1.907245665788650513e-01
-3.097044229507446289e-01 2.860601246356964111e-01
-7.688718289136886597e-02 1.004693582653999329e-01
3.218345940113067627e-01 -2.521337866783142090e-01
1.334941685199737549e-01 -1.255379319190979004e-01
-1.006036400794982910e-01 1.107680946588516235e-01
-1.399904638528823853e-01 1.403644382953643799e-01
1.860296428203582764e-01 -1.829333454370498657e-01
3.579502999782562256e-01 -3.216998577117919922e-01
-3.208369910717010498e-01 3.249014914035797119e-01
-5.448853373527526855e-01 5.694170594215393066e-01
-2.959468364715576172e-01 3.530539870262145996e-01
-3.251340985298156738e-01 3.406910002231597900e-01
8.698190003633499146e-02 -2.215092815458774567e-02
1.033496926538646221e-03 -3.465617075562477112e-02
-1.381788849830627441e-01 9.461112320423126221e-02
-2.011060416698455811e-01 1.485164612531661987e-01
1.479918807744979858e-01 -1.778813004493713379e-01
1.842684596776962280e-01 -1.585538238286972046e-01
5.852258205413818359e-02 -7.551471143960952759e-02
2.710585594177246094e-01 -2.791573703289031982e-01
8.081433922052383423e-02 -3.689096868038177490e-02
-2.348860651254653931e-01 2.238036990165710449e-01
1.501434110105037689e-02 2.972228266298770905e-02
6.323043256998062134e-02 -1.210133079439401627e-02
-1.043950244784355164e-01 9.986969828605651855e-02
9.897794574499130249e-02 -5.382581427693367004e-02
1.783482879400253296e-01 -1.998067647218704224e-01
-1.355156451463699341e-01 9.442046284675598145e-02
-3.731594383716583252e-01 3.995302319526672363e-01
-1.522361189126968384e-01 1.311695426702499390e-01
3.557125851511955261e-02 -3.761236742138862610e-02
-3.313710391521453857e-01 3.337871730327606201e-01
-3.141942918300628662e-01 3.476701080799102783e-01
-1.309581398963928223e-01 9.378398954868316650e-02
-1.692690551280975342e-01 1.555465012788772583e-01
-3.674331307411193848e-01 3.677031695842742920e-01
-7.138869762420654297e-01 7.189359664916992188e-01
-4.393784403800964355e-01 3.849031627178192139e-01
-2.103263586759567261e-01 2.252449691295623779e-01
-6.225317716598510742e-01 6.000058650970458984e-01
-4.141839146614074707e-01 3.660122156143188477e-01
-2.292705923318862915e-01 2.694993615150451660e-01
-2.112439572811126709e-01 2.054988294839859009e-01
-3.894520998001098633e-01 3.709119856357574463e-01
-3.549938499927520752e-01 3.050962984561920166e-01
-2.075794190168380737e-01 1.865202933549880981e-01
-6.954023241996765137e-02 8.194191753864288330e-02
-2.896338701248168945e-01 2.979580163955688477e-01
-1.872972398996353149e-01 2.283259481191635132e-01
-9.419696778059005737e-02 1.011240854859352112e-01
1.200157552957534790e-01 -7.947867363691329956e-02
-5.817556381225585938e-02 8.653979003429412842e-02
6.610441207885742188e-02 -5.861704051494598389e-02
5.381971970200538635e-02 -5.398337543010711670e-02
-1.385638415813446045e-01 1.427068561315536499e-01
4.687549918889999390e-02 -4.631148651242256165e-02
2.682363390922546387e-01 -2.595927715301513672e-01
-2.541283369064331055e-01 2.494504898786544800e-01
2.002056092023849487e-01 -2.298150062561035156e-01
2.236211448907852173e-01 -1.867637038230895996e-01
3.119136393070220947e-01 -2.582122385501861572e-01
-4.356823116540908813e-02 7.416734099388122559e-02
-4.143859446048736572e-01 4.157420396804809570e-01
8.893449604511260986e-02 -8.324777334928512573e-02
3.337436020374298096e-01 -3.279689252376556396e-01
3.837958872318267822e-01 -3.884418308734893799e-01
-7.931174337863922119e-02 1.899627968668937683e-02
8.619235455989837646e-02 -1.159429699182510376e-01
-1.400544196367263794e-01 1.469566524028778076e-01
-1.960861980915069580e-01 2.009980529546737671e-01
-3.214747011661529541e-01 3.123510777950286865e-01
-3.651174306869506836e-01 3.210346102714538574e-01
-2.221992313861846924e-01 2.258829623460769653e-01
-2.418884783983230591e-01 2.368711978197097778e-01
1.195928379893302917e-01 -9.240262210369110107e-02
9.292965382337570190e-02 -1.159814149141311646e-01
-2.769643962383270264e-01 2.561736404895782471e-01
-7.376277446746826172e-02 4.554145038127899170e-02
-9.730119258165359497e-02 7.243750244379043579e-02
2.036893069744110107e-01 -2.015574872493743896e-01
-1.341596692800521851e-01 1.450941562652587891e-01
3.653945773839950562e-02 -6.784304231405258179e-02
-6.329634040594100952e-02 9.994155913591384888e-02
-7.765308022499084473e-03 -2.308021858334541321e-02
-1.764030754566192627e-01 1.508299261331558228e-01
-1.629064977169036865e-01 1.778418868780136108e-01
2.726627886295318604e-02 1.489924546331167221e-02
3.680514693260192871e-01 -3.059958517551422119e-01
-1.593785360455513000e-02 2.796243317425251007e-02
-1.394289880990982056e-01 1.293858587741851807e-01
2.421732246875762939e-02 -9.523960761725902557e-03
1.657376415096223354e-03 -2.796315401792526245e-02
-1.296523362398147583e-01 1.450271308422088623e-01
-2.383031845092773438e-01 2.776471972465515137e-01
-3.270822167396545410e-01 2.878026068210601807e-01
-2.039823830127716064e-01 1.622118651866912842e-01
-2.126200497150421143e-01 1.875018179416656494e-01
-1.367003470659255981e-01 1.441865116357803345e-01
-5.498458147048950195e-01 5.192494988441467285e-01
-4.435609579086303711e-01 4.302903413772583008e-01
-6.149694323539733887e-01 6.146942973136901855e-01
-4.436956644058227539e-01 4.448720812797546387e-01
-2.117380648851394653e-01 1.914726495742797852e-01
-2.772862315177917480e-01 3.246877193450927734e-01
-8.268365263938903809e-02 1.017558723688125610e-01
-3.028028011322021484e-01 2.596050202846527100e-01
1.517923176288604736e-01 -1.619752794504165649e-01
-3.999816477298736572e-01 4.212708175182342529e-01
-2.924623489379882812e-01 3.189458250999450684e-01
-6.167336367070674896e-03 -2.135871350765228271e-02
-8.630079776048660278e-02 6.629189103841781616e-02
-2.337137609720230103e-01 2.517559528350830078e-01
1.085575520992279053e-01 -8.261753618717193604e-02
4.485153853893280029e-01 -4.026801884174346924e-01
6.816539913415908813e-02 -1.099967584013938904e-02
2.737121842801570892e-02 2.396738715469837189e-02
1.115998551249504089e-01 -7.972626388072967529e-02
-1.535069495439529419e-01 1.649768501520156860e-01
2.842528522014617920e-01 -3.166970610618591309e-01
8.435329794883728027e-02 -7.712299376726150513e-02
-9.116658568382263184e-02 9.205547720193862915e-02
-5.471928790211677551e-02 6.138519197702407837e-02
1.865617744624614716e-02 -4.758813977241516113e-02
-2.086368948221206665e-01 2.046673744916915894e-01
-3.585564494132995605e-01 3.264010250568389893e-01
7.846544682979583740e-02 -8.648467808961868286e-02
2.064585089683532715e-01 -2.441736608743667603e-01
2.426655590534210205e-01 -1.710952967405319214e-01
1.793841719627380371e-01 -1.339212507009506226e-01
-5.808718129992485046e-02 8.278347551822662354e-02
-1.375401625409722328e-03 3.020402975380420685e-02
2.106370180845260620e-01 -1.931493431329727173e-01
1.151571348309516907e-01 -1.310781836509704590e-01
-1.891436241567134857e-02 -1.580760814249515533e-02
-9.041601419448852539e-02 7.847541570663452148e-02
4.263831079006195068e-01 -3.925076127052307129e-01
3.311993777751922607e-01 -3.418760895729064941e-01
-3.583671525120735168e-02 3.030050545930862427e-03
-1.938091367483139038e-01 1.854052841663360596e-01
8.404951542615890503e-02 -6.875500828027725220e-02
3.750776946544647217e-01 -3.516625761985778809e-01
4.748017191886901855e-01 -5.022656917572021484e-01
1.924206130206584930e-02 -3.704253584146499634e-02
1.974941045045852661e-01 -1.923466026782989502e-01
3.749411404132843018e-01 -3.619380891323089600e-01
-2.189917117357254028e-02 -1.603817939758300781e-02
-3.534194082021713257e-02 7.304504513740539551e-02
6.378038972616195679e-02 -6.526608765125274658e-02
2.002381384372711182e-01 -2.042199522256851196e-01
1.142388582229614258e-01 -1.108081787824630737e-01
-4.208011552691459656e-02 9.567349404096603394e-02
-6.980190426111221313e-02 8.915977180004119873e-02
1.278260024264454842e-03 -2.241263166069984436e-02
-8.067733794450759888e-02 3.566423058509826660e-02
-4.218663275241851807e-01 4.639191627502441406e-01
-1.620316505432128906e-01 1.814720928668975830e-01
-3.740372359752655029e-01 4.168389737606048584e-01
-2.675285637378692627e-01 2.531077265739440918e-01
2.402193471789360046e-02 -3.606439800933003426e-03
2.797122597694396973e-01 -2.868990302085876465e-01
2.995287179946899414e-01 -2.246732115745544434e-01
1.846620626747608185e-02 1.511014718562364578e-02
1.203630715608596802e-01 -7.685554772615432739e-02
-3.958471119403839111e-01 4.186346828937530518e-01
-1.085435077548027039e-01 1.150300055742263794e-01
-2.344201803207397461e-01 2.174136936664581299e-01
-1.485344469547271729e-01 1.144445762038230896e-01
-3.979949057102203369e-01 3.753715157508850098e-01
-3.489066958427429199e-01 3.327646255493164062e-01
-4.272090792655944824e-01 4.303591847419738770e-01
-1.801100671291351318e-01 1.398492306470870972e-01
-9.126986563205718994e-02 1.325501352548599243e-01
-7.384978234767913818e-02 6.156218051910400391e-02
-2.093456983566284180e-01 2.132775783538818359e-01
3.081596195697784424e-01 -3.000814616680145264e-01
2.026793062686920166e-01 -1.795362681150436401e-01
3.261580467224121094e-01 -2.933577001094818115e-01
1.458861976861953735e-01 -2.097045630216598511e-01
2.321198880672454834e-01 -2.738537490367889404e-01
2.005500644445419312e-01 -1.802633851766586304e-01
5.419361870735883713e-03 -1.786999776959419250e-02
6.441969424486160278e-02 -5.229327082633972168e-02
1.711240559816360474e-01 -1.754407435655593872e-01
3.269894421100616455e-01 -3.889604806900024414e-01
4.133053421974182129e-01 -4.335668683052062988e-01
1.342495679855346680e-01 -1.899921298027038574e-01
-2.912899479269981384e-02 5.763533338904380798e-02
2.890649735927581787e-01 -2.971820831298828125e-01
5.436565876007080078e-01 -5.007943511009216309e-01
3.474449515342712402e-01 -3.443228304386138916e-01
4.774932861328125000e-01 -4.765754938125610352e-01
5.499230027198791504e-01 -5.553081631660461426e-01
-1.083291620016098022e-01 5.249208584427833557e-02
-2.042559236288070679e-01 2.054331451654434204e-01
-1.311269849538803101e-01 1.679668873548507690e-01
-6.748581677675247192e-02 6.646902114152908325e-02
1.284254640340805054e-01 -8.095911890268325806e-02
2.794882655143737793e-01 -2.742099165916442871e-01
3.620233535766601562e-01 -3.842243254184722900e-01
-1.192539110779762268e-01 1.105407029390335083e-01
-1.361671984195709229e-01 1.188381835818290710e-01
3.704638406634330750e-02 -3.513413667678833008e-02
-2.847388759255409241e-02 -2.047163248062133789e-02
-3.169797733426094055e-02 -1.901957951486110687e-02
-1.096850335597991943e-01 7.335030287504196167e-02
7.899741083383560181e-02 -1.240920722484588623e-01
7.921548094600439072e-04 -1.113394834101200104e-02
-2.281783223152160645e-01 2.138327509164810181e-01
-1.617209762334823608e-01 2.020019441843032837e-01
3.053859621286392212e-02 -6.220185011625289917e-02
1.581634581089019775e-02 -2.253763843327760696e-03
-2.739877402782440186e-01 3.033051788806915283e-01
-1.627340763807296753e-01 1.891998499631881714e-01
3.908847644925117493e-02 1.982587762176990509e-02
-3.888604640960693359e-01 3.138871788978576660e-01
-3.369700014591217041e-01 3.279352784156799316e-01
-4.477509558200836182e-01 4.625541269779205322e-01
-2.276315987110137939e-01 2.277270406484603882e-01
-7.073565721511840820e-01 7.282887697219848633e-01
-3.778378665447235107e-01 4.170402288436889648e-01
-4.254494979977607727e-02 6.567490100860595703e-02
1.071957424283027649e-01 -4.184009134769439697e-02
-1.725605572573840618e-03 3.820830897893756628e-05
5.116056203842163086e-01 -5.157346725463867188e-01
1.108512864448130131e-03 -2.514376677572727203e-02
-6.539016962051391602e-01 6.876211166381835938e-01
-7.714588046073913574e-01 7.919610142707824707e-01
-5.317780971527099609e-01 5.065520405769348145e-01
-5.832792520523071289e-01 5.603306293487548828e-01
-8.076096177101135254e-01 8.034321069717407227e-01
-5.206409692764282227e-01 5.694662928581237793e-01
-4.985148310661315918e-01 4.403700828552246094e-01
-6.053006052970886230e-01 5.946545600891113281e-01
-5.739574432373046875e-01 5.771333575248718262e-01
-1.244118958711624146e-01 7.506335526704788208e-02
-7.145036756992340088e-02 2.741704881191253662e-02
-1.070759072899818420e-01 1.215417757630348206e-01
-1.410299092531204224e-01 1.773044168949127197e-01
-1.882301867008209229e-01 2.338131368160247803e-01
-1.352853029966354370e-01 1.501303315162658691e-01
-2.091074883937835693e-01 1.804694384336471558e-01
-1.398807018995285034e-01 1.202566996216773987e-01
-1.772464253008365631e-02 -4.203847050666809082e-02
1.614467650651931763e-01 -1.537644118070602417e-01
1.101789399981498718e-01 -9.967597573995590210e-02
1.693131923675537109e-01 -1.628581285476684570e-01
3.170174658298492432e-01 -2.950437068939208984e-01
2.647117078304290771e-01 -2.256273478269577026e-01
-5.315096676349639893e-02 2.393659390509128571e-02
2.589343301951885223e-02 -6.691513210535049438e-02
2.250973284244537354e-01 -1.900776624679565430e-01
2.490259110927581787e-01 -2.503290772438049316e-01
3.065433204174041748e-01 -2.849934101104736328e-01
5.359903573989868164e-01 -5.824443101882934570e-01
-2.224564105272293091e-01 2.391474246978759766e-01
-3.092484176158905029e-01 3.431267440319061279e-01
1.801348775625228882e-01 -2.389055192470550537e-01
3.367111384868621826e-01 -3.187709152698516846e-01
3.336392045021057129e-01 -3.327576816082000732e-01
3.148536384105682373e-01 -3.547265529632568359e-01
5.257072448730468750e-01 -4.676974117755889893e-01
-7.972895354032516479e-02 1.100761070847511292e-01
7.396745681762695312e-02 -4.775961115956306458e-02
3.732055723667144775e-01 -4.260376095771789551e-01
2.147625833749771118e-01 -1.832785308361053467e-01
3.462248481810092926e-03 -1.667771860957145691e-02
1.008083522319793701e-01 -9.039239585399627686e-02
3.932556882500648499e-02 -7.454512268304824829e-02
-6.363353878259658813e-02 4.505722969770431519e-02
-1.133732264861464500e-03 -5.710231512784957886e-02
2.057703733444213867e-01 -2.138945162296295166e-01
2.367959022521972656e-01 -2.102023810148239136e-01
2.417096495628356934e-01 -1.899234652519226074e-01
-1.355405300855636597e-01 1.015537604689598083e-01
3.308933693915605545e-03 -6.197229493409395218e-03
5.073162168264389038e-02 -6.635139882564544678e-02
-2.665396630764007568e-01 2.810077667236328125e-01
-6.254829466342926025e-02 8.896040171384811401e-02
-5.750213563442230225e-02 1.826194673776626587e-02
1.991653628647327423e-02 -9.803518652915954590e-03
-1.679319739341735840e-01 1.765100955963134766e-01
-3.880341053009033203e-01 3.201386630535125732e-01
-2.565552294254302979e-01 3.025197386741638184e-01
1.938935220241546631e-01 -1.767448633909225464e-01
8.600481748580932617e-01 -9.170687198638916016e-01
1.152057766914367676e+00 -1.142424821853637695e+00
6.852707862854003906e-01 -6.656971573829650879e-01
-2.912469208240509033e-01 3.260077834129333496e-01
-6.091479659080505371e-01 5.533696413040161133e-01
-5.141820311546325684e-01 4.804388284683227539e-01
-1.807430535554885864e-01 2.498586326837539673e-01
-5.492118597030639648e-01 5.879167318344116211e-01
-5.608197450637817383e-01 5.266773700714111328e-01
-5.090410709381103516e-01 5.187254548072814941e-01
-2.691232562065124512e-01 2.810035943984985352e-01
-7.128486633300781250e-01 7.098491191864013672e-01
-1.864509433507919312e-01 1.863026171922683716e-01
1.629430502653121948e-01 -1.200605258345603943e-01
-2.162618190050125122e-01 1.774575710296630859e-01
-4.733110964298248291e-02 8.569909632205963135e-02
-4.710043966770172119e-02 5.985093861818313599e-02
1.624217629432678223e-01 -1.157529428601264954e-01
1.150969862937927246e-01 -1.270603686571121216e-01
1.503161340951919556e-01 -1.368468403816223145e-01
1.868733167648315430e-01 -1.761628538370132446e-01
9.473279118537902832e-02 -8.526445180177688599e-02
1.165556013584136963e-01 -1.605990827083587646e-01
2.328542023897171021e-01 -2.007845044136047363e-01
4.904966652393341064e-01 -4.606982767581939697e-01
3.253711163997650146e-01 -2.882277965545654297e-01
1.551755219697952271e-01 -1.445801854133605957e-01
2.158794552087783813e-01 -2.112252265214920044e-01
3.666895925998687744e-01 -4.015569686889648438e-01
5.597386956214904785e-01 -5.418458580970764160e-01
4.645237922668457031e-01 -4.320226013660430908e-01
3.811770081520080566e-01 -3.132058382034301758e-01
-1.011017113924026489e-01 8.561521023511886597e-02
-1.193608418107032776e-01 1.714178621768951416e-01
6.383512169122695923e-02 -9.015612304210662842e-02
-2.744904952123761177e-03 8.279649540781974792e-03
2.524925768375396729e-01 -2.047959268093109131e-01
2.806851863861083984e-01 -2.218580096960067749e-01
1.037583872675895691e-01 -6.735555827617645264e-02
2.965440973639488220e-02 3.151261433959007263e-02
3.387320935726165771e-01 -3.538737297058105469e-01
3.761551678180694580e-01 -3.693805038928985596e-01
1.861035078763961792e-01 -1.613753139972686768e-01
9.457264095544815063e-02 -7.257061451673507690e-02
-1.678196936845779419e-01 1.519047021865844727e-01
-1.714457869529724121e-01 1.796670258045196533e-01
-3.387987986207008362e-02 1.231404300779104233e-02
-2.480009049177169800e-01 1.953695863485336304e-01
-4.878115653991699219e-02 -1.502291206270456314e-02
-4.998648166656494141e-02 2.923655323684215546e-02
-2.122165262699127197e-01 2.597158551216125488e-01
-1.063479408621788025e-01 1.199964582920074463e-01
-1.319237947463989258e-01 1.736187934875488281e-01
1.131205726414918900e-02 -9.068578481674194336e-03
-1.767617911100387573e-01 1.842546015977859497e-01
-2.418842166662216187e-01 2.264325320720672607e-01
-4.986974596977233887e-01 5.574719309806823730e-01
1.960768401622772217e-01 -1.899825185537338257e-01
-3.483021259307861328e-02 7.158011198043823242e-02
-1.222402825951576233e-01 9.016076475381851196e-02
-8.826507329940795898e-01 8.466625809669494629e-01
-1.011216163635253906e+00 1.046881794929504395e+00
-5.882647633552551270e-01 5.141867399215698242e-01
7.294975519180297852e-01 -7.082213759422302246e-01
6.851545572280883789e-01 -7.273646593093872070e-01
-4.537093918770551682e-03 2.429307904094457626e-03
-3.824634552001953125e-01 3.983268737792968750e-01
-3.010821938514709473e-01 2.891288101673126221e-01
-5.979418158531188965e-01 5.972096920013427734e-01
-6.062902808189392090e-01 5.357209444046020508e-01
-5.381633043289184570e-01 6.062760353088378906e-01
-5.481082201004028320e-01 6.116641163825988770e-01
-4.604530632495880127e-01 4.414894282817840576e-01
-4.306684434413909912e-01 4.153560996055603027e-01
-3.312382698059082031e-01 2.819950580596923828e-01
-5.600235238671302795e-02 2.041495218873023987e-02
-2.000824809074401855e-01 2.022750824689865112e-01
9.677574038505554199e-02 -4.270578175783157349e-02
8.470515906810760498e-02 -1.057775542140007019e-01
1.150751858949661255e-01 -9.340193867683410645e-02
-1.111017242074012756e-01 1.117403060197830200e-01
-9.421606361865997314e-02 1.385687440633773804e-01
2.287393808364868164e-02 -1.036372873932123184e-02
-5.991454236209392548e-03 6.996169220656156540e-03
3.455901145935058594e-01 -4.173357188701629639e-01
1.596256941556930542e-01 -1.345404088497161865e-01
2.536532580852508545e-01 -2.525017857551574707e-01
2.173998951911926270e-01 -1.750643402338027954e-01
1.029954850673675537e-02 -1.286878529936075211e-02
2.025532126426696777e-01 -1.325912922620773315e-01
2.143065184354782104e-01 -2.135533839464187622e-01
2.311018854379653931e-01 -2.281736284494400024e-01
4.995011389255523682e-01 -5.305733680725097656e-01
-1.525757741183042526e-02 -2.610088698565959930e-02
-1.847038231790065765e-02 3.290864452719688416e-02
5.843282490968704224e-02 -7.679460942745208740e-02
2.809801837429404259e-03 -6.582304090261459351e-02
-8.513446152210235596e-02 8.964756131172180176e-02
-7.305360585451126099e-02 6.053523719310760498e-02
-3.822915628552436829e-02 8.727678656578063965e-02
-1.993135660886764526e-01 2.394528985023498535e-01
4.525697231292724609e-02 1.322017749771475792e-03
-3.114092163741588593e-02 3.324099257588386536e-02
6.017933040857315063e-02 -2.621608041226863861e-02
1.802697777748107910e-01 -1.937154680490493774e-01
1.351328641176223755e-01 -1.208243742585182190e-01
1.719988584518432617e-01 -2.097140699625015259e-01
7.012957334518432617e-02 -1.056872755289077759e-01
-1.075379922986030579e-01 1.523253470659255981e-01
-1.935717910528182983e-01 2.345860302448272705e-01
-8.837254345417022705e-02 1.236670091748237610e-01
1.993412151932716370e-03 2.302615530788898468e-02
-2.374208718538284302e-01 2.727816998958587646e-01
-1.571449339389801025e-01 1.282530874013900757e-01
8.270233869552612305e-03 -1.687068305909633636e-02
-1.160303130745887756e-01 1.771047115325927734e-01
-1.960822641849517822e-01 2.584022879600524902e-01
-3.946352005004882812e-01 4.097604453563690186e-01
-1.294649988412857056e-01 1.693722456693649292e-01
-1.194468885660171509e-01 1.410238146781921387e-01
1.252239048480987549e-01 -1.635352224111557007e-01
9.660086631774902344e-01 -9.678153991699218750e-01
-1.408600509166717529e-01 1.427456736564636230e-01
-1.911270380020141602e+00 1.969817757606506348e+00
-1.431601166725158691e+00 1.402032375335693359e+00
-6.892410516738891602e-01 7.277795076370239258e-01
1.541682839393615723e+00 -1.555493831634521484e+00
1.860914826393127441e-01 -2.275226563215255737e-01
-5.387560129165649414e-01 5.398921370506286621e-01
-1.078410670161247253e-01 1.320246756076812744e-01
-1.208087354898452759e-01 1.211632490158081055e-01
-4.371324479579925537e-01 4.386348128318786621e-01
-5.314829945564270020e-01 5.085350871086120605e-01
-4.499994814395904541e-01 4.035985171794891357e-01
-6.910063624382019043e-01 6.902036070823669434e-01
-6.219360232353210449e-01 6.429247260093688965e-01
-4.396399855613708496e-01 4.614366292953491211e-01
-1.141595318913459778e-01 1.189696937799453735e-01
-1.730124950408935547e-01 1.341010630130767822e-01
-1.980897039175033569e-01 2.433435022830963135e-01
2.217971831560134888e-01 -2.458098530769348145e-01
4.174593389034271240e-01 -4.036527574062347412e-01
-6.398622691631317139e-02 4.828158766031265259e-02
4.852210357785224915e-02 -6.160620227456092834e-02
-7.359524071216583252e-02 6.067370995879173279e-02
-2.359365345910191536e-03 4.817474633455276489e-02
7.910911738872528076e-02 -5.836043506860733032e-02
2.801419422030448914e-02 9.316520299762487411e-04
1.808472350239753723e-02 -1.323059573769569397e-02
-3.398269787430763245e-02 1.941218040883541107e-02
-8.146665059030056000e-03 1.473422348499298096e-02
1.668060198426246643e-02 -6.287244707345962524e-02
2.895395755767822266e-01 -2.502438724040985107e-01
5.100478529930114746e-01 -4.850392937660217285e-01
5.994592308998107910e-01 -6.584075689315795898e-01
1.614916026592254639e-01 -2.265995144844055176e-01
-5.475517511367797852e-01 5.139374136924743652e-01
-3.457345664501190186e-01 4.086544215679168701e-01
-1.763528287410736084e-01 1.532994657754898071e-01
-6.485633552074432373e-02 9.018953889608383179e-03
-4.778501763939857483e-02 6.241473928093910217e-02
3.141715005040168762e-02 -9.931790642440319061e-03
9.375967085361480713e-02 -4.417911544442176819e-02
-2.641318440437316895e-01 2.689006328582763672e-01
-3.712125122547149658e-01 3.803475201129913330e-01
-5.255126580595970154e-02 8.980757743120193481e-02
8.257193490862846375e-03 -5.986958742141723633e-02
-2.049915194511413574e-01 1.979515701532363892e-01
-1.214648187160491943e-01 9.242612123489379883e-02
-2.585968673229217529e-01 2.642289698123931885e-01
-6.501984596252441406e-02 7.421147823333740234e-02
-1.772833317518234253e-01 1.577685624361038208e-01
-1.940656751394271851e-01 2.142421007156372070e-01
-4.509533569216728210e-02 3.368538245558738708e-02
-3.404113352298736572e-01 3.701725304126739502e-01
-2.015658915042877197e-01 1.996861696243286133e-01
-3.039520382881164551e-01 3.209271430969238281e-01
-3.147780299186706543e-01 3.566374778747558594e-01
-5.385103225708007812e-01 5.462035536766052246e-01
-7.849667072296142578e-01 7.484819889068603516e-01
-3.544148802757263184e-01 4.008875489234924316e-01
-4.478790760040283203e-01 4.616793096065521240e-01
-1.014664769172668457e-01 1.168057695031166077e-01
9.400957822799682617e-01 -9.344445466995239258e-01
1.122573912143707275e-01 -1.214260458946228027e-01
-1.351130604743957520e+00 1.379585385322570801e+00
-1.515237569808959961e+00 1.513634204864501953e+00
-1.310946643352508545e-01 1.365849673748016357e-01
7.605674266815185547e-01 -7.696771621704101562e-01
3.943205773830413818e-01 -4.562813043594360352e-01
-7.507198452949523926e-01 7.474728226661682129e-01
-4.038454294204711914e-01 3.849870264530181885e-01
-3.250911831855773926e-01 3.530696630477905273e-01
-6.459213495254516602e-01 6.381933093070983887e-01
-8.637892007827758789e-01 8.923466801643371582e-01
-2.345863133668899536e-01 2.516085803508758545e-01
-8.770636320114135742e-01 8.956256508827209473e-01
-6.174321174621582031e-01 6.474019885063171387e-01
-4.227042198181152344e-01 4.412881731986999512e-01
1.137512475252151489e-01 -9.143948554992675781e-02
-2.655115127563476562e-01 2.830671370029449463e-01
-2.858880162239074707e-01 2.615404725074768066e-01
-2.140397280454635620e-01 2.168304622173309326e-01
-9.756575524806976318e-02 9.562001377344131470e-02
-2.419035732746124268e-01 2.105186134576797485e-01
7.304708659648895264e-02 -2.437480539083480835e-02
2.755367457866668701e-01 -3.170559704303741455e-01
-6.344265490770339966e-02 3.008309751749038696e-02
-1.566543281078338623e-01 1.349809616804122925e-01
5.531188100576400757e-02 8.623640052974224091e-03
-6.877492368221282959e-02 8.625190705060958862e-03
-1.479163914918899536e-01 1.804682165384292603e-01
-3.446227908134460449e-01 3.170906007289886475e-01
1.168949976563453674e-01 -1.124716103076934814e-01
1.988909840583801270e-01 -2.069834023714065552e-01
6.022043898701667786e-02 -5.501729249954223633e-02
1.362482011318206787e-01 -1.903374493122100830e-01
2.853114306926727295e-01 -2.511374056339263916e-01
-1.678544878959655762e-01 2.222845107316970825e-01
-3.471720814704895020e-01 3.471497893333435059e-01
-2.699933946132659912e-01 2.317816168069839478e-01
-2.228737436234951019e-02 3.516522049903869629e-02
1.812940537929534912e-01 -1.357885748147964478e-01
1.163793578743934631e-01 -1.622048616409301758e-01
1.909622251987457275e-01 -1.764921545982360840e-01
2.719221115112304688e-01 -2.351398915052413940e-01
2.842085808515548706e-02 2.391752414405345917e-02
-1.794187873601913452e-01 1.814551353454589844e-01
2.695475518703460693e-02 -2.633075788617134094e-02
6.869210302829742432e-02 -1.076157763600349426e-01
5.208576098084449768e-02 -4.731635376811027527e-02
2.531080543994903564e-01 -2.180112004280090332e-01
-1.709208339452743530e-01 1.314259916543960571e-01
-6.667798757553100586e-02 6.246479600667953491e-02
-1.389848440885543823e-01 1.750396788120269775e-01
2.531668245792388916e-01 -2.131723016500473022e-01
1.551431268453598022e-01 -2.211171835660934448e-01
2.552109956741333008e-01 -2.348671406507492065e-01
1.137269064784049988e-01 -1.462789922952651978e-01
1.512332260608673096e-02 -1.989334635436534882e-02
-3.068151883780956268e-02 1.330033782869577408e-02
-7.884761095046997070e-01 7.260453104972839355e-01
-7.491824775934219360e-02 4.730886220932006836e-02
-1.693584769964218140e-01 2.076005339622497559e-01
1.353882551193237305e-01 -7.399073988199234009e-02
1.284312248229980469e+00 -1.273267626762390137e+00
1.515997052192687988e+00 -1.501152873039245605e+00
-3.097522556781768799e-01 2.598426938056945801e-01
1.749545335769653320e-01 -1.676365733146667480e-01
1.477630496025085449e+00 -1.484904289245605469e+00
1.570688724517822266e+00 -1.540794849395751953e+00
9.964302182197570801e-02 -1.444856077432632446e-01
-3.448597192764282227e-01 2.716476917266845703e-01
-5.290411710739135742e-01 4.799486398696899414e-01
5.033148080110549927e-02 -1.193185299634933472e-01
-2.668260931968688965e-01 2.823491394519805908e-01
